1 1 1 100 1
1 1 2 100 0.985643
2 1 2 100 0.0143568
2 2 2 100 1
1 3 2 100 0.333333
2 3 2 100 0.666667
2 4 2 100 1
1 5 2 100 1
1 6 2 100 1
1 7 2 100 1
1 8 2 100 1
1 9 2 100 1
0 10 2 100 1
1 11 2 100 1
2 12 2 100 1
1 13 2 100 1
2 14 2 100 1
1 1 3 100 0.872629
2 1 3 100 0.10387
3 1 3 100 0.0235004
0 2 3 100 0.0010488
2 2 3 100 0.525822
3 2 3 100 0.473129
3 3 3 100 1
3 4 3 100 1
3 5 3 100 1
1 1 4 100 0.999998
2 1 4 100 1.83387e-06
0 2 4 100 9.76997e-07
1 2 4 100 0.000531518
2 2 4 100 0.811481
3 2 4 100 0.093963
4 2 4 100 0.0940235
0 3 4 100 6.89416e-05
2 3 4 100 0.00436821
3 3 4 100 0.682568
4 3 4 100 0.312994
0 4 4 100 0.03428
2 4 4 100 4.21293e-06
3 4 4 100 0.166602
4 4 4 100 0.799114
2 5 4 100 0.166666
3 5 4 100 0.00126755
4 5 4 100 0.832066
0 6 4 100 0.000219666
4 6 4 100 0.99978
4 7 4 100 1
4 8 4 100 1
1 1 5 100 0.911865
2 1 5 100 0.0881345
0 2 5 100 0.00285569
1 2 5 100 0.00032907
2 2 5 100 0.789713
3 2 5 100 0.194186
4 2 5 100 0.0129155
0 3 5 100 2.81362e-05
3 3 5 100 0.656973
4 3 5 100 0.172151
5 3 5 100 0.170847
0 4 5 100 0.00017548
1 4 5 100 0.111111
3 4 5 100 0.000829372
4 4 5 100 0.558982
5 4 5 100 0.328902
1 5 5 100 0.166667
5 5 5 100 0.833333
1 6 5 100 0.5
5 6 5 100 0.5
1 7 5 100 1
1 1 6 100 0.93813
2 1 6 100 0.0618665
4 1 6 100 1.45481e-06
6 1 6 100 1.66117e-06
0 2 6 100 0.00382926
1 2 6 100 0.00338145
2 2 6 100 0.567624
3 2 6 100 0.425153
4 2 6 100 3.54105e-06
6 2 6 100 8.91295e-06
2 3 6 100 0.0695982
3 3 6 100 0.499856
4 3 6 100 0.427558
5 3 6 100 0.00182448
6 3 6 100 0.00116296
0 4 6 100 0.00101323
3 4 6 100 0.0501327
4 4 6 100 0.326284
5 4 6 100 0.497454
6 4 6 100 0.125116
0 5 6 100 5.01582e-05
4 5 6 100 0.2
5 5 6 100 0.400159
6 5 6 100 0.39979
2 6 6 100 1.78477e-05
3 6 6 100 0.142857
5 6 6 100 0.14288
6 6 6 100 0.714246
5 7 6 100 0.304828
6 7 6 100 0.695172
5 8 6 100 1
6 9 6 100 1
0 1 7 100 3.96018e-05
1 1 7 100 0.733072
2 1 7 100 0.0834796
3 1 7 100 0.0669755
5 1 7 100 4.50959e-06
6 1 7 100 0.116429
0 2 7 100 0.00217315
1 2 7 100 0.0667878
2 2 7 100 0.542829
3 2 7 100 0.152821
4 2 7 100 0.101902
5 2 7 100 0.00328469
7 2 7 100 0.130203
0 3 7 100 0.00254484
1 3 7 100 0.0666667
2 3 7 100 0.000287938
3 3 7 100 0.424791
4 3 7 100 0.289755
5 3 7 100 0.200048
6 3 7 100 0.0159023
7 3 7 100 4.38695e-06
0 4 7 100 0.0651353
1 4 7 100 0.0769257
3 4 7 100 0.07324
4 4 7 100 0.229518
5 4 7 100 0.47145
6 4 7 100 0.0837312
0 5 7 100 1.43389e-05
3 5 7 100 3.03034e-06
5 5 7 100 0.335449
6 5 7 100 0.497621
7 5 7 100 0.166913
0 6 7 100 0.0833279
4 6 7 100 9.46909e-06
5 6 7 100 0.166666
6 6 7 100 0.412351
7 6 7 100 0.337646
1 7 7 100 0.125
5 7 7 100 0.112665
6 7 7 100 0.25
7 7 7 100 0.512335
0 8 7 100 0.25
3 8 7 100 0.00696137
5 8 7 100 0.25
7 8 7 100 0.493039
6 9 7 100 0.499999
7 9 7 100 0.500001
0 10 7 100 0.000708301
3 10 7 100 0.333797
7 10 7 100 0.665495
1 11 7 100 1
1 12 7 100 1
1 13 7 100 1
0 14 7 100 0.0549514
4 14 7 100 0.945049
2 15 7 100 1
5 16 7 100 1
3 17 7 100 1
0 1 8 100 3.91305e-05
1 1 8 100 0.923053
2 1 8 100 0.0769084
0 2 8 100 0.00176065
1 2 8 100 0.075966
2 2 8 100 0.75509
3 2 8 100 0.0902981
5 2 8 100 0.076885
0 3 8 100 0.00253224
3 3 8 100 0.751598
4 3 8 100 0.168947
6 3 8 100 0.0769231
0 4 8 100 0.00243068
2 4 8 100 0.0769231
3 4 8 100 0.000584931
4 4 8 100 0.535497
5 4 8 100 0.153845
6 4 8 100 0.153801
7 4 8 100 0.0769188
3 5 8 100 0.0769356
5 5 8 100 0.384035
6 5 8 100 0.307653
7 5 8 100 0.231376
0 6 8 100 0.000238028
5 6 8 100 0.0831526
6 6 8 100 0.400723
7 6 8 100 0.334684
8 6 8 100 0.181202
6 7 8 100 0.135325
7 7 8 100 0.322562
8 7 8 100 0.542113
5 8 8 100 0.00011105
7 8 8 100 1.59195e-05
8 8 8 100 0.999873
1 1 9 100 0.740003
2 1 9 100 0.166192
3 1 9 100 0.093767
4 1 9 100 2.22326e-05
6 1 9 100 1.66123e-05
0 2 9 100 0.0386808
1 2 9 100 2.16136e-05
2 2 9 100 0.759153
3 2 9 100 0.0971928
4 2 9 100 0.0573326
9 2 9 100 0.0476191
0 3 9 100 0.000982205
1 3 9 100 0.0476069
2 3 9 100 0.00114726
3 3 9 100 0.656399
4 3 9 100 0.246246
5 3 9 100 0.0476187
0 4 9 100 0.00013138
4 4 9 100 0.476207
5 4 9 100 0.333326
6 4 9 100 0.0476191
7 4 9 100 0.0950978
8 4 9 100 0.0476191
0 5 9 100 0.000657521
3 5 9 100 4.26879e-06
4 5 9 100 0.0938422
5 5 9 100 0.386126
6 5 9 100 0.377963
7 5 9 100 0.0947159
8 5 9 100 0.0466902
9 5 9 100 7.45789e-07
0 6 9 100 0.000302944
2 6 9 100 1.63416e-06
3 6 9 100 1.22633e-05
5 6 9 100 0.237795
6 6 9 100 0.329482
7 6 9 100 0.384787
8 6 9 100 0.0476191
0 7 9 100 0.000209013
1 7 9 100 4.57178e-06
2 7 9 100 7.61382e-05
4 7 9 100 3.6127e-05
6 7 9 100 0.107255
7 7 9 100 0.366132
8 7 9 100 0.473483
9 7 9 100 0.052804
0 8 9 100 0.0576197
4 8 9 100 0.00607208
5 8 9 100 0.0219327
6 8 9 100 0.00211566
7 8 9 100 0.235294
8 8 9 100 0.235558
9 8 9 100 0.441408
0 9 9 100 2.76294e-06
5 9 9 100 0.000345213
8 9 9 100 0.33947
9 9 9 100 0.660182
8 10 9 100 0.2
9 10 9 100 0.8
0 11 9 100 1.47666e-05
4 11 9 100 0.00620315
5 11 9 100 9.62721e-05
7 11 9 100 0.971832
8 11 9 100 3.30527e-05
9 11 9 100 0.0218206
0 1 10 100 0.000573759
1 1 10 100 0.664306
2 1 10 100 0.100153
3 1 10 100 0.0587408
5 1 10 100 5.28246e-05
8 1 10 100 0.176173
0 2 10 100 0.114375
1 2 10 100 0.176333
2 2 10 100 0.471236
3 2 10 100 0.120402
5 2 10 100 2.95314e-06
9 2 10 100 0.0588235
10 2 10 100 0.0588262
0 3 10 100 0.0315701
2 3 10 100 0.127599
3 3 10 100 0.497726
4 3 10 100 0.204154
5 3 10 100 0.0130916
7 3 10 100 0.125
9 3 10 100 0.000859791
0 4 10 100 0.0303448
2 4 10 100 2.72504e-05
3 4 10 100 0.125
4 4 10 100 0.420936
5 4 10 100 0.173734
7 4 10 100 0.0624998
8 4 10 100 0.124999
10 4 10 100 0.0624586
0 5 10 100 0.052851
1 5 10 100 0.0624999
2 5 10 100 0.0625
4 5 10 100 0.249942
5 5 10 100 0.375091
6 5 10 100 0.187464
7 5 10 100 0.00857587
8 5 10 100 0.00107662
0 6 10 100 0.00995083
1 6 10 100 0.0624998
2 6 10 100 0.0625
4 6 10 100 0.000875778
5 6 10 100 0.0625007
6 6 10 100 0.614173
7 6 10 100 0.135632
8 6 10 100 0.0518683
0 7 10 100 0.000187935
1 7 10 100 0.0624997
3 7 10 100 0.0624758
5 7 10 100 0.106315
6 7 10 100 0.0812165
7 7 10 100 0.437295
8 7 10 100 0.250002
10 7 10 100 8.27716e-06
0 8 10 100 0.121005
3 8 10 100 0.0626779
4 8 10 100 0.0625001
6 8 10 100 0.125
7 8 10 100 0.189604
8 8 10 100 0.186502
9 8 10 100 0.119363
10 8 10 100 0.133347
0 9 10 100 0.0712811
4 9 10 100 0.068672
5 9 10 100 0.00274749
6 9 10 100 0.214504
8 9 10 100 0.357143
9 9 10 100 0.142797
10 9 10 100 0.142855
0 10 10 100 1.44946e-05
5 10 10 100 1.87263e-05
6 10 10 100 0.184018
9 10 10 100 0.812312
10 10 10 100 0.00363669
0 11 10 100 1.9196e-06
5 11 10 100 0.00553166
6 11 10 100 0.00211567
8 11 10 100 0.247058
9 11 10 100 0.24144
10 11 10 100 0.503853
1 12 10 100 0.000263437
5 12 10 100 1.49945e-05
9 12 10 100 0.488178
10 12 10 100 0.511544
6 13 10 100 0.499995
10 13 10 100 0.500005
1 1 11 100 0.85
2 1 11 100 0.15
0 2 11 100 0.00147791
2 2 11 100 0.897702
3 2 11 100 0.0503773
4 2 11 100 0.0499999
10 2 11 100 0.00044326
2 3 11 100 0.0502347
3 3 11 100 0.699765
4 3 11 100 0.15
7 3 11 100 0.0499998
10 3 11 100 0.0500001
0 4 11 100 9.4653e-05
3 4 11 100 3.54745e-05
4 4 11 100 0.699846
5 4 11 100 0.200003
6 4 11 100 0.0499998
7 4 11 100 2.16717e-05
8 4 11 100 0.0499998
0 5 11 100 0.051667
3 5 11 100 0.0827486
4 5 11 100 0.0172513
5 5 11 100 0.400006
6 5 11 100 0.398326
10 5 11 100 0.05
11 5 11 100 1.20121e-06
0 6 11 100 0.0501372
1 6 11 100 1.30136e-05
4 6 11 100 0.05
5 6 11 100 0.199332
6 6 11 100 0.400537
7 6 11 100 0.26001
8 6 11 100 0.0326182
9 6 11 100 0.00735334
0 7 11 100 0.00172689
5 7 11 100 0.0490178
6 7 11 100 0.099925
7 7 11 100 0.499048
8 7 11 100 0.150902
9 7 11 100 0.0493307
10 7 11 100 0.100049
11 7 11 100 0.05
0 8 11 100 0.0507915
3 8 11 100 1.13775e-05
5 8 11 100 0.0500006
6 8 11 100 0.0499812
7 8 11 100 0.05
8 8 11 100 0.497456
9 8 11 100 0.051759
10 8 11 100 0.15
11 8 11 100 0.1
0 9 11 100 0.0169986
5 9 11 100 6.68383e-06
6 9 11 100 0.055561
7 9 11 100 0.054393
8 9 11 100 0.0952764
9 9 11 100 0.645931
10 9 11 100 0.0207278
11 9 11 100 0.111106
7 10 11 100 0.0624998
9 10 11 100 0.188034
10 10 11 100 0.686575
11 10 11 100 0.0628908
0 11 11 100 0.0620218
5 11 11 100 0.066666
8 11 11 100 0.0666667
9 11 11 100 0.070657
10 11 11 100 0.0666668
11 11 11 100 0.667322
9 12 11 100 0.142857
10 12 11 100 0.57054
11 12 11 100 0.286602
6 13 11 100 0.333331
10 13 11 100 0.666669
10 14 11 100 1
0 15 11 100 0.804531
2 15 11 100 0.000371509
8 15 11 100 0.195097
0 16 11 100 2.41149e-05
5 16 11 100 0.108554
7 16 11 100 0.891422
11 17 11 100 1
0 1 12 100 2.23863e-06
1 1 12 100 0.874986
2 1 12 100 0.062465
3 1 12 100 3.60881e-05
4 1 12 100 0.0624997
8 1 12 100 1.0811e-05
0 2 12 100 0.0385518
1 2 12 100 1.07061e-05
2 2 12 100 0.687037
3 2 12 100 0.125168
4 2 12 100 0.0623115
6 2 12 100 0.000120235
7 2 12 100 0.0624742
8 2 12 100 0.00016094
9 2 12 100 0.0241665
0 3 12 100 4.96372e-06
1 3 12 100 5.89801e-05
2 3 12 100 0.00208532
3 3 12 100 0.746949
4 3 12 100 0.0625
5 3 12 100 0.125743
7 3 12 100 0.000158209
9 3 12 100 0.0625
0 4 12 100 0.0623319
3 4 12 100 0.124754
4 4 12 100 0.610157
5 4 12 100 0.139805
6 4 12 100 0.000426806
8 4 12 100 7.75306e-06
9 4 12 100 1.5769e-05
10 4 12 100 0.0625001
12 4 12 100 1.99987e-06
0 5 12 100 1.50095e-06
3 5 12 100 3.93329e-06
4 5 12 100 0.0625001
5 5 12 100 0.638396
6 5 12 100 0.111582
7 5 12 100 1.61385e-05
8 5 12 100 0.0624998
9 5 12 100 0.0625
11 5 12 100 0.0625001
0 6 12 100 0.00351902
1 6 12 100 0.0475491
3 6 12 100 1.0489e-06
4 6 12 100 1.50002e-06
5 6 12 100 0.12649
6 6 12 100 0.557427
7 6 12 100 0.125116
8 6 12 100 0.0148965
10 6 12 100 0.0625
12 6 12 100 0.0625
0 7 12 100 0.000335625
2 7 12 100 0.0575902
3 7 12 100 6.06984e-05
5 7 12 100 3.02274e-05
6 7 12 100 0.250129
7 7 12 100 0.499797
8 7 12 100 0.0655297
9 7 12 100 0.00160274
11 7 12 100 0.124508
12 7 12 100 0.000417261
0 8 12 100 0.00154726
3 8 12 100 2.26607e-05
4 8 12 100 9.80316e-05
5 8 12 100 6.83706e-05
6 8 12 100 0.0595982
7 8 12 100 0.137765
8 8 12 100 0.494097
9 8 12 100 0.181803
10 8 12 100 0.0625
12 8 12 100 0.0625001
0 9 12 100 0.00427487
4 9 12 100 9.77779e-07
5 9 12 100 0.0714215
7 9 12 100 0.0442099
8 9 12 100 0.141955
9 9 12 100 0.523159
10 9 12 100 0.142794
11 9 12 100 0.0713093
12 9 12 100 0.000876009
0 10 12 100 0.000630901
6 10 12 100 0.126261
9 10 12 100 0.121912
10 10 12 100 0.607452
11 10 12 100 0.0724716
12 10 12 100 0.0712724
10 11 12 100 0.156063
11 11 12 100 0.696881
12 11 12 100 0.147057
0 12 12 100 1.22876e-06
9 12 12 100 1.77791e-06
11 12 12 100 0.280116
12 12 12 100 0.719881
0 13 12 100 0.00117489
5 13 12 100 2.57729e-06
6 13 12 100 0.40143
10 13 12 100 6.40606e-06
12 13 12 100 0.597387
0 1 13 100 4.97656e-06
1 1 13 100 0.892095
2 1 13 100 0.106348
9 1 13 100 0.00155193
0 2 13 100 0.118293
2 2 13 100 0.698297
4 2 13 100 0.0283665
6 2 13 100 0.1
9 2 13 100 4.12039e-05
10 2 13 100 0.0550022
0 3 13 100 0.00232911
1 3 13 100 7.10163e-05
3 3 13 100 0.644982
4 3 13 100 0.152197
5 3 13 100 0.0999999
7 3 13 100 0.1
9 3 13 100 0.000421138
0 4 13 100 0.00109858
2 4 13 100 1.71075e-06
3 4 13 100 0.198927
4 4 13 100 0.3
5 4 13 100 0.0999557
7 4 13 100 0.200017
8 4 13 100 0.2
0 5 13 100 0.00613097
4 5 13 100 0.196902
5 5 13 100 0.2
6 5 13 100 0.497044
7 5 13 100 1.77736e-05
9 5 13 100 0.099901
11 5 13 100 4.25883e-06
0 6 13 100 0.00303343
5 6 13 100 0.299884
6 6 13 100 0.197082
7 6 13 100 0.2
8 6 13 100 0.1
10 6 13 100 0.1
11 6 13 100 0.1
0 7 13 100 3.29028e-05
3 7 13 100 0.000202587
5 7 13 100 0.0998906
6 7 13 100 0.2
7 7 13 100 0.300007
8 7 13 100 0.0876766
9 7 13 100 0.112429
10 7 13 100 0.0997938
11 7 13 100 2.29031e-05
12 7 13 100 0.0999443
0 8 13 100 0.0796192
2 8 13 100 0.0988195
3 8 13 100 0.100848
4 8 13 100 0.00294793
7 8 13 100 0.1
8 8 13 100 0.297657
9 8 13 100 0.217027
10 8 13 100 0.103075
11 8 13 100 6.43582e-06
0 9 13 100 0.00258252
2 9 13 100 5.65886e-05
4 9 13 100 0.0999431
5 9 13 100 0.1
7 9 13 100 1.88337e-06
8 9 13 100 0.197684
9 9 13 100 0.299891
10 9 13 100 0.000124369
11 9 13 100 0.200003
12 9 13 100 0.099714
0 10 13 100 0.00312644
5 10 13 100 0.099998
9 10 13 100 0.0891352
10 10 13 100 0.307679
11 10 13 100 0.101534
12 10 13 100 0.298787
13 10 13 100 0.0997398
0 11 13 100 0.00324191
7 11 13 100 0.111111
10 11 13 100 0.111111
11 11 13 100 0.441202
12 11 13 100 0.000268381
13 11 13 100 0.333065
0 12 13 100 0.000126282
11 12 13 100 0.142856
12 12 13 100 0.570968
13 12 13 100 0.286049
5 13 13 100 0.024127
10 13 13 100 4.09645e-06
12 13 13 100 0.25
13 13 13 100 0.725869
0 14 13 100 1.81883e-05
11 14 13 100 0.00186493
12 14 13 100 2.02215e-05
13 14 13 100 0.998097
1 1 14 100 0.753039
2 1 14 100 0.0802941
4 1 14 100 0.166667
0 2 14 100 0.000313081
1 2 14 100 0.0833332
2 2 14 100 0.582842
3 2 14 100 0.249986
4 2 14 100 1.41784e-05
7 2 14 100 0.0833299
9 2 14 100 0.000182355
0 3 14 100 0.00237272
2 3 14 100 0.0811447
3 3 14 100 0.583503
4 3 14 100 0.083296
7 3 14 100 0.0833341
8 3 14 100 0.0833325
9 3 14 100 0.0829796
13 3 14 100 3.7216e-05
0 4 14 100 0.00317481
3 4 14 100 0.165842
4 4 14 100 0.66383
5 4 14 100 0.000486864
6 4 14 100 0.0833332
10 4 14 100 0.0833334
0 5 14 100 0.0812645
4 5 14 100 0.166537
5 5 14 100 0.333463
6 5 14 100 0.0833334
8 5 14 100 0.166667
9 5 14 100 0.00152555
11 5 14 100 0.0833334
12 5 14 100 0.000543295
14 5 14 100 0.0833333
0 6 14 100 8.32582e-05
5 6 14 100 0.249991
6 6 14 100 0.5
7 6 14 100 0.0832592
9 6 14 100 0.0833334
14 6 14 100 0.0833333
0 7 14 100 0.000193606
5 7 14 100 2.83989e-05
6 7 14 100 0.333324
7 7 14 100 0.246328
8 7 14 100 0.170176
10 7 14 100 0.163027
11 7 14 100 0.00352641
12 7 14 100 0.0833333
13 7 14 100 6.28851e-05
0 8 14 100 0.0813058
7 8 14 100 0.00379568
8 8 14 100 0.414986
9 8 14 100 0.333163
11 8 14 100 0.0834639
12 8 14 100 0.0832847
13 8 14 100 9.88259e-07
0 9 14 100 0.00212898
5 9 14 100 0.240897
6 9 14 100 0.000169829
7 9 14 100 0.248034
9 9 14 100 0.247183
10 9 14 100 0.143713
13 9 14 100 0.0831635
14 9 14 100 0.0347103
0 10 14 100 4.56249e-06
5 10 14 100 0.0833333
6 10 14 100 0.083599
7 10 14 100 0.0656133
8 10 14 100 0.1664
9 10 14 100 0.101056
10 10 14 100 0.499995
0 11 14 100 0.000883952
6 11 14 100 0.0115392
7 11 14 100 0.0909073
10 11 14 100 0.271843
11 11 14 100 0.545456
14 11 14 100 0.0793701
0 12 14 100 0.000341543
3 12 14 100 1.1628e-05
4 12 14 100 6.0122e-06
6 12 14 100 0.0909086
8 12 14 100 0.0909093
11 12 14 100 0.272389
12 12 14 100 0.361545
13 12 14 100 0.0927762
14 12 14 100 0.091113
0 13 14 100 1.03121e-06
4 13 14 100 2.92263e-05
6 13 14 100 0.0999989
8 13 14 100 0.1
10 13 14 100 4.4033e-06
11 13 14 100 1.5315e-06
12 13 14 100 0.399558
13 13 14 100 0.200406
14 13 14 100 0.2
8 14 14 100 0.224149
13 14 14 100 0.706908
14 14 14 100 0.0689427
6 15 14 100 0.2
14 15 14 100 0.8
0 1 15 100 2.17554e-06
1 1 15 100 0.75001
3 1 15 100 0.125
13 1 15 100 0.124969
14 1 15 100 1.90902e-05
2 2 15 100 0.625
3 2 15 100 0.25
12 2 15 100 0.125
0 3 15 100 0.0131986
3 3 15 100 0.736781
4 3 15 100 0.25
10 3 15 100 2.03793e-05
4 4 15 100 0.606699
5 4 15 100 0.250272
7 4 15 100 0.125
10 4 15 100 0.0176578
14 4 15 100 0.000370991
0 5 15 100 0.00403734
3 5 15 100 0.125
4 5 15 100 0.124984
5 5 15 100 0.370995
6 5 15 100 0.249983
12 5 15 100 0.125
0 6 15 100 0.12459
3 6 15 100 0.125412
4 6 15 100 0.124787
5 6 15 100 0.125063
6 6 15 100 0.374627
7 6 15 100 0.000211524
8 6 15 100 5.8404e-05
13 6 15 100 0.124882
15 6 15 100 0.000369724
0 7 15 100 1.58601e-06
1 7 15 100 0.125
6 7 15 100 0.125
7 7 15 100 0.748611
9 7 15 100 0.000868671
13 7 15 100 0.000148851
14 7 15 100 0.000370072
0 8 15 100 0.00421101
1 8 15 100 0.142857
6 8 15 100 0.142857
7 8 15 100 6.75902e-05
8 8 15 100 0.426454
9 8 15 100 0.142857
10 8 15 100 0.140686
15 8 15 100 1.06365e-05
0 9 15 100 0.138415
7 9 15 100 0.142857
8 9 15 100 0.142971
9 9 15 100 0.561064
10 9 15 100 0.0102505
14 9 15 100 0.00444216
0 10 15 100 0.00026907
8 10 15 100 0.142752
9 10 15 100 0.000468997
10 10 15 100 0.570799
11 10 15 100 0.285705
12 10 15 100 5.89742e-06
0 11 15 100 0.000626063
9 11 15 100 0.132994
10 11 15 100 6.41845e-05
11 11 15 100 0.42013
12 11 15 100 0.27075
13 11 15 100 0.175436
5 12 15 100 2.61571e-05
8 12 15 100 0.139095
11 12 15 100 0.142846
12 12 15 100 0.285721
13 12 15 100 0.432312
3 13 15 100 1.98719e-05
10 13 15 100 0.142837
11 13 15 100 6.56266e-05
12 13 15 100 0.285715
13 13 15 100 0.142862
14 13 15 100 0.428501
0 14 15 100 2.26926e-06
8 14 15 100 0.00376951
12 14 15 100 0.142857
14 14 15 100 0.519962
15 14 15 100 0.333409
12 15 15 100 0.333333
14 15 15 100 0.666667
12 16 15 100 0.333333
15 16 15 100 0.666667
12 17 15 100 1
0 18 15 100 0.000104816
7 18 15 100 1.09218e-05
13 18 15 100 0.999884
12 19 15 100 1
12 20 15 100 1
0 1 16 100 0.000611099
1 1 16 100 0.756979
2 1 16 100 0.000170547
3 1 16 100 0.0624984
4 1 16 100 1.009e-06
6 1 16 100 0.0623305
7 1 16 100 0.0624996
11 1 16 100 1.27658e-05
12 1 16 100 1.20543e-05
14 1 16 100 0.0548847
0 2 16 100 0.127308
1 2 16 100 0.060318
2 2 16 100 0.579939
3 2 16 100 0.0642355
4 2 16 100 0.0859423
5 2 16 100 2.21681e-06
12 2 16 100 9.82131e-05
16 2 16 100 0.0821569
0 3 16 100 0.00264531
1 3 16 100 0.0625001
3 3 16 100 0.436821
4 3 16 100 0.185533
5 3 16 100 0.0625
6 3 16 100 0.0625001
7 3 16 100 0.0625
14 3 16 100 0.125
0 4 16 100 0.0682058
1 4 16 100 0.0625
3 4 16 100 0.0588039
4 4 16 100 0.378433
5 4 16 100 0.180554
6 4 16 100 0.0628554
7 4 16 100 0.0625001
8 4 16 100 0.0622802
9 4 16 100 0.0624976
12 4 16 100 0.000472498
15 4 16 100 0.000897717
0 5 16 100 0.0639306
1 5 16 100 0.0716033
3 5 16 100 2.16237e-05
4 5 16 100 0.124898
5 5 16 100 0.18793
6 5 16 100 0.310732
8 5 16 100 0.125
11 5 16 100 6.26106e-05
12 5 16 100 0.0624798
16 5 16 100 0.0533421
0 6 16 100 8.36172e-07
1 6 16 100 0.0625
2 6 16 100 0.0625
4 6 16 100 1.50522e-06
5 6 16 100 0.187532
6 6 16 100 0.249678
7 6 16 100 0.125323
9 6 16 100 0.312465
0 7 16 100 1.09752e-05
1 7 16 100 0.124664
3 7 16 100 0.0624796
4 7 16 100 0.0622293
5 7 16 100 1.32559e-06
6 7 16 100 0.062625
7 7 16 100 0.37511
8 7 16 100 0.125
9 7 16 100 3.65051e-05
10 7 16 100 0.1875
12 7 16 100 8.1792e-06
13 7 16 100 5.90774e-06
16 7 16 100 0.000329512
0 8 16 100 0.00060801
4 8 16 100 0.0965918
6 8 16 100 2.01452e-05
7 8 16 100 0.0866514
8 8 16 100 0.314913
9 8 16 100 0.187499
10 8 16 100 0.124753
12 8 16 100 0.126463
14 8 16 100 0.0625001
0 9 16 100 0.0127929
3 9 16 100 8.09315e-06
4 9 16 100 0.0625001
5 9 16 100 8.65618e-06
6 9 16 100 0.0451161
7 9 16 100 0.0624758
8 9 16 100 0.0625
9 9 16 100 0.12498
10 9 16 100 0.125
11 9 16 100 0.124991
12 9 16 100 0.0624947
13 9 16 100 0.239098
14 9 16 100 0.0155349
16 9 16 100 0.0625001
0 10 16 100 0.00323657
4 10 16 100 0.000165181
6 10 16 100 5.92066e-05
8 10 16 100 0.0625099
9 10 16 100 0.187313
10 10 16 100 0.235016
11 10 16 100 0.260176
12 10 16 100 0.0639319
13 10 16 100 0.125092
16 10 16 100 0.0625
0 11 16 100 0.035854
5 11 16 100 0.0714317
9 11 16 100 0.00635168
10 11 16 100 0.131873
11 11 16 100 0.450313
12 11 16 100 0.0897156
13 11 16 100 9.38777e-05
14 11 16 100 0.142523
15 11 16 100 0.0465142
16 11 16 100 0.0253304
0 12 16 100 5.92083e-05
1 12 16 100 0.000147894
5 12 16 100 0.00030215
6 12 16 100 0.0769231
10 12 16 100 0.0777439
11 12 16 100 0.075954
12 12 16 100 0.307376
13 12 16 100 0.307646
14 12 16 100 0.0769253
15 12 16 100 0.0767403
16 12 16 100 0.000182623
7 13 16 100 0.0445935
8 13 16 100 0.0387398
11 13 16 100 0.0833334
12 13 16 100 0.0833335
13 13 16 100 0.166679
14 13 16 100 0.416147
15 13 16 100 0.0563247
16 13 16 100 0.110849
0 14 16 100 0.1
1 14 16 100 0.1
12 14 16 100 0.2
15 14 16 100 0.268562
16 14 16 100 0.331438
0 15 16 100 3.32625e-05
1 15 16 100 1.10969e-05
9 15 16 100 0.142857
12 15 16 100 0.142857
13 15 16 100 0.142845
14 15 16 100 0.142539
15 15 16 100 0.143143
16 15 16 100 0.285715
1 16 16 100 0.2
14 16 16 100 0.2
15 16 16 100 0.2
16 16 16 100 0.4
0 17 16 100 0.0281874
8 17 16 100 0.333334
10 17 16 100 0.220033
11 17 16 100 0.00957205
12 17 16 100 0.0651104
14 17 16 100 0.333334
15 17 16 100 6.46647e-05
16 17 16 100 0.0103648
0 18 16 100 0.0249763
6 18 16 100 0.333334
9 18 16 100 0.641627
11 18 16 100 4.6126e-05
15 18 16 100 1.66084e-05
0 19 16 100 0.0108212
12 19 16 100 0.322512
15 19 16 100 0.333333
16 19 16 100 0.333333
2 20 16 100 0.000953741
3 20 16 100 0.500002
10 20 16 100 0.00671772
11 20 16 100 0.00861407
13 20 16 100 0.483713
9 21 16 100 0.5
10 21 16 100 0.5
0 22 16 100 7.76579e-05
2 22 16 100 0.499921
9 22 16 100 0.500002
0 23 16 100 0.45817
9 23 16 100 0.503313
11 23 16 100 0.0384619
15 23 16 100 5.47479e-05
9 24 16 100 0.5
12 24 16 100 0.5
1 25 16 100 1
1 26 16 100 1
1 27 16 100 1
1 1 17 100 0.997394
2 1 17 100 0.00260635
2 2 17 100 0.7495
3 2 17 100 0.2505
3 3 17 100 0.500001
4 3 17 100 0.249718
5 3 17 100 0.250281
0 4 17 100 0.00128676
3 4 17 100 0.245856
4 4 17 100 0.499409
5 4 17 100 0.250591
15 4 17 100 0.00285765
4 5 17 100 0.25
5 5 17 100 0.5
6 5 17 100 0.25
5 6 17 100 0.25
6 6 17 100 0.5
7 6 17 100 0.249386
8 6 17 100 0.000614128
7 7 17 100 0.498712
8 7 17 100 0.501288
6 8 17 100 0.25
8 8 17 100 0.5
9 8 17 100 0.25
0 9 17 100 0.000169866
7 9 17 100 0.25
9 9 17 100 0.499816
10 9 17 100 0.24983
11 9 17 100 0.000183112
0 10 17 100 0.00184024
9 10 17 100 0.248302
10 10 17 100 0.249815
11 10 17 100 0.23299
13 10 17 100 0.267031
14 10 17 100 1.26947e-05
15 10 17 100 8.43784e-06
10 11 17 100 0.25
11 11 17 100 0.232799
13 11 17 100 0.267182
14 11 17 100 0.250012
15 11 17 100 7.50797e-06
12 12 17 100 0.25
13 12 17 100 0.249981
14 12 17 100 0.250012
15 12 17 100 7.36257e-06
16 12 17 100 0.161343
17 12 17 100 0.0886572
13 13 17 100 0.333333
14 13 17 100 0.333333
16 13 17 100 0.224419
17 13 17 100 0.108915
14 14 17 100 0.5
16 14 17 100 0.334892
17 14 17 100 0.165108
5 15 17 100 1
16 16 17 100 1
5 17 17 100 1
17 18 17 100 1
0 1 18 100 2.54928e-06
1 1 18 100 0.752824
4 1 18 100 1.11167e-05
5 1 18 100 0.124997
9 1 18 100 0.121997
12 1 18 100 0.000167638
0 2 18 100 0.00142548
1 2 18 100 0.125
2 2 18 100 0.748575
6 2 18 100 0.125
0 3 18 100 0.115049
1 3 18 100 0.125
3 3 18 100 0.624753
5 3 18 100 0.000242595
7 3 18 100 0.00995561
12 3 18 100 0.125
0 4 18 100 0.000100016
4 4 18 100 0.449746
5 4 18 100 0.285219
6 4 18 100 0.125
11 4 18 100 0.0149353
13 4 18 100 0.124999
0 5 18 100 0.00797274
2 5 18 100 0.117027
5 5 18 100 0.375001
6 5 18 100 0.25
7 5 18 100 0.116325
11 5 18 100 0.124998
12 5 18 100 0.00867559
0 6 18 100 9.45547e-05
3 6 18 100 0.125
6 6 18 100 0.624995
7 6 18 100 0.124902
9 6 18 100 0.125004
13 6 18 100 4.34527e-06
4 7 18 100 0.125
6 7 18 100 0.125011
7 7 18 100 0.375288
8 7 18 100 0.124991
9 7 18 100 0.000387487
10 7 18 100 0.124613
12 7 18 100 0.124711
0 8 18 100 6.2854e-05
5 8 18 100 0.125
6 8 18 100 0.125
8 8 18 100 0.5
9 8 18 100 1.96145e-05
10 8 18 100 0.124976
11 8 18 100 0.0122751
12 8 18 100 0.112667
0 9 18 100 0.00158834
6 9 18 100 0.124912
7 9 18 100 0.125
8 9 18 100 0.000134458
9 9 18 100 0.347055
10 9 18 100 0.0269206
11 9 18 100 3.70871e-06
13 9 18 100 0.249862
18 9 18 100 0.124523
3 10 18 100 0.000428381
7 10 18 100 0.125
9 10 18 100 0.0204237
10 10 18 100 0.479148
11 10 18 100 0.125
14 10 18 100 0.25
0 11 18 100 0.0268795
7 11 18 100 0.00838245
8 11 18 100 0.0981823
11 11 18 100 0.375
12 11 18 100 0.116618
13 11 18 100 0.122609
14 11 18 100 0.00232782
15 11 18 100 0.250001
0 12 18 100 0.0961831
1 12 18 100 0.0261294
2 12 18 100 0.125
6 12 18 100 4.05087e-06
9 12 18 100 0.0281757
10 12 18 100 0.00220936
12 12 18 100 0.394534
13 12 18 100 5.05725e-05
14 12 18 100 0.0775416
15 12 18 100 0.125168
16 12 18 100 0.124996
17 12 18 100 7.95698e-06
0 13 18 100 2.68941e-06
3 13 18 100 0.125
9 13 18 100 0.000445891
11 13 18 100 0.124997
12 13 18 100 0.279295
13 13 18 100 0.125
14 13 18 100 0.124999
15 13 18 100 1.77526e-05
16 13 18 100 0.124511
17 13 18 100 0.0945132
18 13 18 100 0.00121779
0 14 18 100 0.116143
4 14 18 100 0.00490676
11 14 18 100 0.125
12 14 18 100 0.00179556
13 14 18 100 0.000209848
14 14 18 100 0.253727
15 14 18 100 0.000247431
16 14 18 100 0.249663
17 14 18 100 0.236002
18 14 18 100 0.0123051
3 15 18 100 3.20311e-06
10 15 18 100 4.5751e-05
12 15 18 100 5.05321e-05
14 15 18 100 0.166679
16 15 18 100 0.33333
17 15 18 100 0.333225
18 15 18 100 0.166667
14 16 18 100 1.13048e-05
17 16 18 100 0.599642
18 16 18 100 0.400346
0 17 18 100 0.333249
4 17 18 100 8.36771e-05
17 17 18 100 0.333334
18 17 18 100 0.333334
0 18 18 100 0.0438361
8 18 18 100 1.30523e-05
15 18 18 100 0.456151
18 18 18 100 0.5
0 19 18 100 0.000105514
15 19 18 100 0.499893
16 19 18 100 0.500001
17 20 18 100 1
17 21 18 100 1
1 1 19 100 1
1 2 19 100 0.000553053
2 2 19 100 0.999447
2 3 19 100 2.69708e-05
3 3 19 100 0.999973
3 4 19 100 0.33333
4 4 19 100 0.66667
5 5 19 100 0.889119
6 5 19 100 0.108969
9 5 19 100 0.000438939
19 5 19 100 0.00147232
5 6 19 100 0.333334
6 6 19 100 0.313136
7 6 19 100 0.333333
11 6 19 100 0.00646865
12 6 19 100 0.00264829
15 6 19 100 0.00620982
16 6 19 100 0.00487072
4 7 19 100 1.41706e-05
7 7 19 100 0.583918
8 7 19 100 0.334563
12 7 19 100 0.0247201
15 7 19 100 0.0251692
16 7 19 100 0.031616
7 8 19 100 0.0235312
8 8 19 100 0.976469
3 9 19 100 0.000322048
8 9 19 100 0.499678
9 9 19 100 0.5
4 10 19 100 1.09228e-05
9 10 19 100 0.982471
11 10 19 100 0.0175185
9 11 19 100 0.000457542
10 11 19 100 0.5
11 11 19 100 0.499542
11 12 19 100 0.5
13 12 19 100 0.5
0 13 19 100 0.497143
6 13 19 100 2.05012e-05
12 13 19 100 0.499976
14 13 19 100 5.17931e-05
17 13 19 100 0.00280828
5 14 19 100 5.21021e-05
15 14 19 100 0.499947
19 14 19 100 0.500001
14 15 19 100 0.5
16 15 19 100 0.5
0 16 19 100 0.0358296
16 16 19 100 0.5
17 16 19 100 0.46417
0 17 19 100 3.48411e-05
10 17 19 100 0.497331
14 17 19 100 0.0010821
16 17 19 100 0.133415
17 17 19 100 0.366581
18 17 19 100 0.00155017
19 17 19 100 5.8771e-06
11 18 19 100 0.000166093
18 18 19 100 0.999834
0 19 19 100 0.000112349
15 19 19 100 0.499888
19 19 19 100 0.5
12 20 19 100 1
12 21 19 100 1
1 1 20 100 0.75
3 1 20 100 0.25
0 2 20 100 0.00115171
2 2 20 100 0.498848
3 2 20 100 0.25
7 2 20 100 0.25
0 3 20 100 0.000877533
4 3 20 100 0.74998
7 3 20 100 2.13949e-05
14 3 20 100 0.249121
0 4 20 100 0.0869798
3 4 20 100 0.25
4 4 20 100 0.249999
5 4 20 100 0.413021
0 5 20 100 0.00255044
4 5 20 100 0.25
6 5 20 100 0.49744
9 5 20 100 0.25
10 5 20 100 9.75001e-06
6 6 20 100 0.25
7 6 20 100 0.499004
8 6 20 100 0.000996391
10 6 20 100 0.25
7 7 20 100 0.25
8 7 20 100 0.75
5 8 20 100 0.000666259
8 8 20 100 0.169046
9 8 20 100 0.580267
10 8 20 100 0.25
18 8 20 100 2.07427e-05
0 9 20 100 0.00541735
8 9 20 100 7.38871e-05
9 9 20 100 0.492631
10 9 20 100 0.250001
11 9 20 100 0.00167512
12 9 20 100 0.000203093
19 9 20 100 0.249999
0 10 20 100 0.022225
9 10 20 100 0.025336
11 10 20 100 0.702545
13 10 20 100 0.204616
20 10 20 100 0.0452788
0 11 20 100 0.247484
6 11 20 100 6.66388e-05
10 11 20 100 0.50245
12 11 20 100 0.25
0 12 20 100 9.43132e-06
8 12 20 100 5.17512e-06
10 12 20 100 0.499872
12 12 20 100 0.13765
13 12 20 100 0.0810274
14 12 20 100 0.25
17 12 20 100 0.0314359
0 13 20 100 0.00152863
8 13 20 100 0.089394
9 13 20 100 0.152184
13 13 20 100 0.488081
14 13 20 100 0.0104059
18 13 20 100 0.258406
10 14 20 100 0.25
15 14 20 100 0.5
16 14 20 100 0.25
8 15 20 100 1.1103e-05
10 15 20 100 0.25
14 15 20 100 1.45502e-05
15 15 20 100 0.25
16 15 20 100 0.499974
0 16 20 100 0.000350525
2 16 20 100 9.91729e-05
10 16 20 100 0.500001
14 16 20 100 0.249483
17 16 20 100 0.250066
10 17 20 100 0.25
13 17 20 100 0.25
18 17 20 100 0.499999
17 18 20 100 0.25
18 18 20 100 0.000120438
19 18 20 100 0.74988
15 19 20 100 0.333333
20 19 20 100 0.666667
17 20 20 100 1
16 21 20 100 1
8 22 20 100 8.29718e-05
9 22 20 100 0.00644788
18 22 20 100 0.993469
10 23 20 100 1
10 24 20 100 1
5 25 20 100 0.00142936
20 25 20 100 0.998571
1 1 21 100 0.170553
2 1 21 100 0.662781
9 1 21 100 0.166666
1 2 21 100 3.86155e-06
2 2 21 100 0.333334
3 2 21 100 0.666662
1 3 21 100 0.333332
3 3 21 100 0.308527
4 3 21 100 0.192617
14 3 21 100 0.165523
0 4 21 100 5.91492e-06
3 4 21 100 0.193978
4 4 21 100 0.0155093
5 4 21 100 0.48449
6 4 21 100 0.000823567
13 4 21 100 0.166661
15 4 21 100 0.0872027
16 4 21 100 0.0513292
0 5 21 100 1.31042e-05
4 5 21 100 0.166667
5 5 21 100 0.166667
6 5 21 100 0.666423
11 5 21 100 0.000230046
3 6 21 100 0.166665
6 6 21 100 0.333629
7 6 21 100 0.499706
0 7 21 100 0.0215099
4 7 21 100 0.330207
7 7 21 100 0.31495
8 7 21 100 0.333333
0 8 21 100 0.172236
8 8 21 100 0.523606
9 8 21 100 0.304158
0 9 21 100 1.12045e-05
2 9 21 100 1.34968e-05
4 9 21 100 2.54284e-06
6 9 21 100 0.00294302
7 9 21 100 0.162817
8 9 21 100 0.16721
9 9 21 100 0.16056
10 9 21 100 0.339785
20 9 21 100 0.166657
0 10 21 100 0.16374
6 10 21 100 0.000308441
7 10 21 100 0.333333
9 10 21 100 0.169593
11 10 21 100 0.333025
0 11 21 100 0.165412
4 11 21 100 0.162823
10 11 21 100 0.170318
11 11 21 100 0.166667
13 11 21 100 0.000184698
15 11 21 100 0.33334
16 11 21 100 0.00125449
0 12 21 100 0.166667
11 12 21 100 0.166667
12 12 21 100 0.5
13 12 21 100 0.166667
5 13 21 100 0.166667
8 13 21 100 0.166667
12 13 21 100 0.166667
13 13 21 100 0.499999
10 14 21 100 0.166202
13 14 21 100 0.000442549
14 14 21 100 0.664021
15 14 21 100 0.00264538
18 14 21 100 2.21325e-05
19 14 21 100 0.166667
0 15 21 100 8.4294e-05
5 15 21 100 6.54642e-06
8 15 21 100 0.134787
11 15 21 100 0.166654
12 15 21 100 5.28768e-06
14 15 21 100 0.168326
15 15 21 100 5.50072e-05
16 15 21 100 0.16667
17 15 21 100 0.331624
21 15 21 100 0.0317892
0 16 21 100 5.40611e-06
9 16 21 100 3.29645e-05
12 16 21 100 0.166626
16 16 21 100 0.50003
17 16 21 100 0.166269
18 16 21 100 0.000371995
20 16 21 100 0.166665
10 17 21 100 2.21347e-05
13 17 21 100 0.00410483
15 17 21 100 0.166642
17 17 21 100 0.167155
18 17 21 100 0.329207
19 17 21 100 0.332869
0 18 21 100 0.000694345
10 18 21 100 6.98247e-06
13 18 21 100 4.62608e-05
14 18 21 100 0.159371
15 18 21 100 0.166614
17 18 21 100 0.000103692
18 18 21 100 0.495593
19 18 21 100 0.170721
21 18 21 100 0.00684982
4 19 21 100 3.68864e-06
9 19 21 100 4.78378e-06
10 19 21 100 2.55681e-06
15 19 21 100 0.166667
16 19 21 100 0.166667
17 19 21 100 0.000710786
19 19 21 100 0.207382
20 19 21 100 0.291896
21 19 21 100 0.166666
16 20 21 100 0.0139812
17 20 21 100 0.186038
20 20 21 100 0.799981
12 21 21 100 0.2
17 21 21 100 4.78529e-06
21 21 21 100 0.799995
8 22 21 100 1
10 23 21 100 0.00265541
13 23 21 100 0.972716
18 23 21 100 0.0246288
0 24 21 100 0.000147611
5 24 21 100 0.992451
11 24 21 100 0.000334437
12 24 21 100 0.00131955
16 24 21 100 0.00299181
20 24 21 100 0.00275544
5 25 21 100 1
1 1 22 100 0.333334
2 1 22 100 0.166667
4 1 22 100 0.0791029
12 1 22 100 0.166667
15 1 22 100 0.0210407
16 1 22 100 0.166666
21 1 22 100 0.0332616
22 1 22 100 0.0332616
1 2 22 100 0.166665
2 2 22 100 0.666668
5 2 22 100 0.166667
0 3 22 100 0.000249535
2 3 22 100 0.166667
3 3 22 100 0.499152
4 3 22 100 0.167113
12 3 22 100 0.166667
18 3 22 100 0.000151705
0 4 22 100 0.0457801
3 4 22 100 0.333327
4 4 22 100 0.454211
5 4 22 100 1.12285e-05
6 4 22 100 0.166667
11 4 22 100 4.15437e-06
4 5 22 100 0.166667
5 5 22 100 0.661068
6 5 22 100 0.172261
8 5 22 100 4.56245e-06
0 6 22 100 0.000350052
1 6 22 100 0.166316
6 6 22 100 0.666662
7 6 22 100 0.166667
9 6 22 100 5.3267e-06
0 7 22 100 0.00924198
2 7 22 100 0.166667
5 7 22 100 0.166666
6 7 22 100 4.02653e-06
8 7 22 100 0.441688
9 7 22 100 0.215727
12 7 22 100 6.16106e-06
1 8 22 100 0.166666
2 8 22 100 0.166667
7 8 22 100 0.166667
9 8 22 100 0.333334
10 8 22 100 0.166667
0 9 22 100 0.000330412
2 9 22 100 0.166667
7 9 22 100 6.55982e-06
9 9 22 100 0.166666
10 9 22 100 0.499071
11 9 22 100 0.000591947
14 9 22 100 0.166667
0 10 22 100 0.000209686
8 10 22 100 0.333333
11 10 22 100 0.515041
12 10 22 100 0.151416
0 11 22 100 0.191449
6 11 22 100 1.27793e-05
8 11 22 100 0.000283436
9 11 22 100 0.166383
10 11 22 100 0.10403
11 11 22 100 0.178993
12 11 22 100 0.204379
13 11 22 100 0.154327
14 11 22 100 5.54553e-05
15 11 22 100 2.52342e-06
17 11 22 100 7.68037e-05
18 11 22 100 3.79147e-06
19 11 22 100 4.15466e-06
7 12 22 100 3.25673e-06
9 12 22 100 1.69285e-06
10 12 22 100 0.333333
12 12 22 100 0.166664
13 12 22 100 0.166667
15 12 22 100 0.166665
16 12 22 100 0.00622105
17 12 22 100 0.160446
0 13 22 100 0.000434411
10 13 22 100 0.000316775
11 13 22 100 0.333017
12 13 22 100 1.82437e-05
13 13 22 100 0.166667
14 13 22 100 0.0656061
15 13 22 100 0.00298532
18 13 22 100 0.262107
19 13 22 100 0.00219624
22 13 22 100 0.166652
11 14 22 100 2.59531e-05
13 14 22 100 0.166667
14 14 22 100 0.333299
15 14 22 100 8.06846e-06
16 14 22 100 0.0142497
17 14 22 100 0.166666
19 14 22 100 0.179382
21 14 22 100 0.139701
0 15 22 100 0.00187972
5 15 22 100 0.166667
9 15 22 100 5.6218e-06
12 15 22 100 5.99567e-06
14 15 22 100 0.333391
15 15 22 100 0.333337
18 15 22 100 0.00047191
19 15 22 100 0.164063
20 15 22 100 0.000178734
0 16 22 100 3.60955e-06
1 16 22 100 0.166667
5 16 22 100 0.166667
8 16 22 100 1.58131e-05
15 16 22 100 0.165074
18 16 22 100 0.333317
20 16 22 100 0.00158901
22 16 22 100 0.166667
1 17 22 100 0.166603
2 17 22 100 0.166667
15 17 22 100 6.40179e-05
17 17 22 100 0.166667
20 17 22 100 0.5
0 18 22 100 0.156884
13 18 22 100 0.166666
17 18 22 100 0.00978266
19 18 22 100 0.166667
21 18 22 100 0.333334
22 18 22 100 0.166667
5 19 22 100 0.166667
16 19 22 100 0.333333
19 19 22 100 0.0429157
20 19 22 100 0.123751
22 19 22 100 0.333333
5 20 22 100 0.25
7 20 22 100 0.249999
18 20 22 100 0.25
21 20 22 100 0.25
2 21 22 100 0.333334
12 21 22 100 0.333334
22 21 22 100 0.333332
0 22 22 100 0.331462
2 22 22 100 0.333333
15 22 22 100 0.333333
17 22 22 100 0.00187111
12 23 22 100 0.5
15 23 22 100 0.5
20 24 22 100 1
12 25 22 100 1
12 26 22 100 1
21 27 22 100 1
22 28 22 100 1
1 1 23 100 1
2 2 23 100 1
2 3 23 100 0.000919626
3 3 23 100 0.99908
4 4 23 100 0.5
12 4 23 100 0.5
0 5 23 100 0.49998
4 5 23 100 2.0188e-05
7 5 23 100 0.5
4 6 23 100 0.00023329
8 6 23 100 0.5
15 6 23 100 0.499766
5 7 23 100 0.5
8 7 23 100 0.00395398
9 7 23 100 0.496046
6 8 23 100 0.5
10 8 23 100 0.5
3 9 23 100 0.5
11 9 23 100 0.5
4 10 23 100 0.5
13 10 23 100 0.5
0 11 23 100 0.281754
7 11 23 100 0.218246
13 11 23 100 0.5
0 12 23 100 0.499999
14 12 23 100 0.500001
0 13 23 100 2.12257e-05
9 13 23 100 0.0503341
10 13 23 100 0.449633
15 13 23 100 0.5
18 13 23 100 1.1339e-05
0 14 23 100 0.0779974
8 14 23 100 0.5
16 14 23 100 0.422003
4 15 23 100 0.5
13 15 23 100 0.5
13 16 23 100 0.500001
18 16 23 100 0.499999
11 17 23 100 0.5
17 17 23 100 0.0712213
18 17 23 100 0.428779
0 18 23 100 6.99238e-05
13 18 23 100 0.5
19 18 23 100 0.49993
17 19 23 100 0.499999
19 19 23 100 0.5
13 20 23 100 0.5
20 20 23 100 0.5
0 21 23 100 0.00066796
5 21 23 100 6.93743e-06
16 21 23 100 6.6085e-06
19 21 23 100 0.499994
21 21 23 100 0.499324
16 22 23 100 0.499999
22 22 23 100 0.500001
13 23 23 100 0.5
23 23 23 100 0.5
0 24 23 100 1.52133e-05
18 24 23 100 0.999985
23 25 23 100 1
13 26 23 100 1
14 27 23 100 1
0 28 23 100 1.12789e-05
12 28 23 100 0.000130559
21 28 23 100 0.999858
13 29 23 100 1
0 1 24 100 1.00221e-05
1 1 24 100 0.49999
6 1 24 100 0.5
6 2 24 100 0.5
13 2 24 100 0.5
3 3 24 100 0.5
14 3 24 100 0.5
7 4 24 100 0.500001
22 4 24 100 0.499999
4 5 24 100 0.5
5 5 24 100 0.5
6 6 24 100 1
7 7 24 100 0.5
8 7 24 100 0.5
9 8 24 100 0.5
10 8 24 100 0.5
10 9 24 100 0.49999
11 9 24 100 0.5
23 9 24 100 1.05297e-05
4 10 24 100 0.499942
10 10 24 100 5.74922e-05
11 10 24 100 0.5
3 11 24 100 0.500001
11 11 24 100 0.499999
0 12 24 100 0.502588
9 12 24 100 0.000544694
11 12 24 100 0.496666
17 12 24 100 0.000201674
13 13 24 100 0.5
18 13 24 100 0.5
11 14 24 100 0.499999
14 14 24 100 0.500001
4 15 24 100 0.499996
11 15 24 100 0.500004
12 16 24 100 0.5
15 16 24 100 0.492226
16 16 24 100 0.00230546
22 16 24 100 5.36023e-06
23 16 24 100 0.000286634
24 16 24 100 0.00517702
11 17 24 100 0.500001
15 17 24 100 0.49989
23 17 24 100 0.00010921
0 18 24 100 0.497408
6 18 24 100 8.98245e-06
9 18 24 100 6.1873e-06
17 18 24 100 0.488806
19 18 24 100 0.0137714
12 19 24 100 0.000440723
15 19 24 100 0.484511
18 19 24 100 0.499548
19 19 24 100 1.16408e-05
21 19 24 100 0.0154888
17 20 24 100 0.5
20 20 24 100 0.5
16 21 24 100 0.499998
21 21 24 100 0.500002
0 22 24 100 0.00346763
8 22 24 100 0.00591752
15 22 24 100 3.95239e-05
22 22 24 100 0.484197
23 22 24 100 0.506212
24 22 24 100 0.000166576
11 23 24 100 0.5
15 23 24 100 0.000187512
23 23 24 100 0.499813
11 24 24 100 1
0 25 24 100 0.0185352
5 25 24 100 0.981444
24 25 24 100 2.09863e-05
1 1 25 100 1
2 2 25 100 1
3 3 25 100 1
4 4 25 100 0.965228
7 4 25 100 0.034772
5 5 25 100 1
6 6 25 100 0.999988
8 6 25 100 1.20814e-05
0 7 25 100 6.44061e-05
7 7 25 100 1.27224e-05
8 7 25 100 0.999923
7 8 25 100 0.999976
9 8 25 100 2.44342e-05
0 9 25 100 1.55097e-05
7 9 25 100 0.999877
9 9 25 100 0.000107807
10 10 25 100 1
0 11 25 100 0.00106023
11 11 25 100 0.99894
7 12 25 100 0.383361
12 12 25 100 0.616639
13 13 25 100 1
14 14 25 100 1
15 15 25 100 1
16 16 25 100 1
17 17 25 100 1
19 18 25 100 1
20 19 25 100 1
0 20 25 100 0.00106023
21 20 25 100 0.973944
22 20 25 100 0.0249959
23 21 25 100 1
24 22 25 100 0.994829
25 22 25 100 0.00517114
25 23 25 100 1
1 1 26 100 0.799997
2 1 26 100 0.199975
21 1 26 100 1.04722e-05
23 1 26 100 1.69573e-05
1 2 26 100 0.0086509
2 2 26 100 0.796797
3 2 26 100 0.00281875
6 2 26 100 0.000128812
16 2 26 100 0.00544463
21 2 26 100 0.0123771
23 2 26 100 0.0175536
25 2 26 100 0.153737
26 2 26 100 0.00249213
0 3 26 100 1.78791e-05
3 3 26 100 0.600685
20 3 26 100 0.199266
21 3 26 100 1.00705e-05
23 3 26 100 1.58773e-05
25 3 26 100 0.2
26 3 26 100 4.45678e-06
3 4 26 100 0.2
4 4 26 100 0.4
8 4 26 100 3.12568e-06
17 4 26 100 0.199958
21 4 26 100 9.07931e-06
23 4 26 100 2.94973e-05
24 4 26 100 0.199997
26 4 26 100 3.30819e-06
0 5 26 100 0.010383
4 5 26 100 0.2
8 5 26 100 6.19657e-06
9 5 26 100 0.2
14 5 26 100 0.199991
23 5 26 100 2.49453e-06
25 5 26 100 0.2
26 5 26 100 0.189617
0 6 26 100 0.000197594
4 6 26 100 0.199636
5 6 26 100 0.0915002
6 6 26 100 0.308523
7 6 26 100 0.000216176
12 6 26 100 3.24001e-05
15 6 26 100 0.178132
16 6 26 100 0.0172896
19 6 26 100 0.19978
21 6 26 100 0.00100898
23 6 26 100 0.00175252
25 6 26 100 4.36984e-05
26 6 26 100 0.00188879
4 7 26 100 0.199577
5 7 26 100 0.2
7 7 26 100 0.399399
9 7 26 100 0.00102373
19 7 26 100 0.2
0 8 26 100 0.178464
1 8 26 100 3.36335e-06
5 8 26 100 0.2
6 8 26 100 0.399625
8 8 26 100 0.198413
10 8 26 100 0.0231229
16 8 26 100 3.79805e-05
21 8 26 100 6.89338e-05
23 8 26 100 9.77644e-05
25 8 26 100 0.000151115
26 8 26 100 1.56238e-05
5 9 26 100 0.000349667
6 9 26 100 0.199692
7 9 26 100 0.399962
9 9 26 100 3.79334e-05
11 9 26 100 0.199959
15 9 26 100 0.2
0 10 26 100 8.98714e-05
6 10 26 100 2.38279e-05
7 10 26 100 0.00985217
8 10 26 100 0.390366
13 10 26 100 0.197213
20 10 26 100 0.00247228
25 10 26 100 0.2
26 10 26 100 0.199982
7 11 26 100 0.0108113
9 11 26 100 0.4
11 11 26 100 0.2
12 11 26 100 0.0105522
15 11 26 100 0.00209463
16 11 26 100 0.0302641
20 11 26 100 0.2
21 11 26 100 0.00724387
23 11 26 100 0.012582
25 11 26 100 0.00235812
26 11 26 100 0.124094
10 12 26 100 0.249836
12 12 26 100 0.250001
13 12 26 100 0.249998
14 12 26 100 0.000164897
20 12 26 100 0.250001
0 13 26 100 1.92657e-05
10 13 26 100 0.249577
11 13 26 100 0.250001
13 13 26 100 0.250001
14 13 26 100 0.000402124
20 13 26 100 0.250001
8 14 26 100 0.155275
12 14 26 100 0.0323812
13 14 26 100 0.312342
14 14 26 100 0.250001
20 14 26 100 0.250001
18 15 26 100 0.25
20 15 26 100 0.5
25 15 26 100 0.25
0 16 26 100 0.238777
10 16 26 100 0.0117376
14 16 26 100 0.249485
16 16 26 100 0.00476966
19 16 26 100 0.24523
25 16 26 100 0.25
13 17 26 100 0.25
15 17 26 100 0.249999
25 17 26 100 0.500001
9 18 26 100 0.249999
16 18 26 100 0.249715
17 18 26 100 0.170958
20 18 26 100 0.25
22 18 26 100 0.0790342
24 18 26 100 1.54808e-05
25 18 26 100 0.000278174
0 19 26 100 0.0138
10 19 26 100 0.0161551
14 19 26 100 0.219695
16 19 26 100 0.245242
17 19 26 100 0.5
19 19 26 100 0.00476967
21 19 26 100 8.27804e-06
22 19 26 100 2.39221e-05
26 19 26 100 0.00030642
3 20 26 100 9.04249e-05
16 20 26 100 0.249999
17 20 26 100 0.249843
18 20 26 100 6.74039e-05
25 20 26 100 0.25
26 20 26 100 0.25
0 21 26 100 0.249983
12 21 26 100 0.25
17 21 26 100 1.59611e-05
19 21 26 100 0.25
21 21 26 100 0.25
20 22 26 100 0.5
22 22 26 100 0.5
20 23 26 100 0.25
21 23 26 100 0.25
23 23 26 100 0.25
25 23 26 100 0.25
18 24 26 100 0.25
20 24 26 100 0.249921
22 24 26 100 7.78479e-05
23 24 26 100 0.25
24 24 26 100 0.25
0 25 26 100 0.00179574
21 25 26 100 0.33177
23 25 26 100 0.660215
24 25 26 100 0.00621981
17 26 26 100 5.75652e-05
22 26 26 100 0.345551
24 26 26 100 0.00655372
25 26 26 100 0.647838
0 27 26 100 0.000355237
5 27 26 100 0.317712
14 27 26 100 0.333334
22 27 26 100 0.325165
24 27 26 100 0.0152635
25 27 26 100 0.00817087
21 28 26 100 0.333332
22 28 26 100 0.333089
24 28 26 100 0.333334
26 28 26 100 0.00024527
25 29 26 100 0.99913
26 29 26 100 0.000869752
11 30 26 100 0.0190149
14 30 26 100 0.00278727
18 30 26 100 0.0132201
26 30 26 100 0.964978
7 1 27 100 1
2 2 27 100 0.981773
4 2 27 100 0.000114076
8 2 27 100 0.0181131
3 3 27 100 1
2 4 27 100 9.47477e-05
3 4 27 100 0.00736838
4 4 27 100 0.992479
8 4 27 100 5.7786e-05
5 5 27 100 1
0 6 27 100 0.184549
6 6 27 100 0.815451
19 7 27 100 1
2 8 27 100 0.0170446
4 8 27 100 9.56726e-05
8 8 27 100 0.980415
9 8 27 100 0.00244482
9 9 27 100 1
23 10 27 100 1
23 11 27 100 1
10 12 27 100 0.00296132
11 12 27 100 0.997039
12 13 27 100 0.000400715
16 13 27 100 0.999599
0 14 27 100 0.0792212
13 14 27 100 0.920779
14 15 27 100 1
1 16 27 100 1
1 17 27 100 0.951552
15 17 27 100 0.0484481
26 18 27 100 0.993713
27 18 27 100 0.00628676
23 19 27 100 1
26 20 27 100 1
24 21 27 100 1
27 22 27 100 1
26 23 27 100 1
0 24 27 100 0.998041
6 24 27 100 0.0013882
13 24 27 100 0.000571024
23 25 27 100 1
25 26 27 100 1
21 27 27 100 1
21 28 27 100 0.00336086
22 28 27 100 0.996639
1 1 29 100 1
2 2 29 100 1
3 3 29 100 0.999938
28 3 29 100 6.15123e-05
4 4 29 100 0.500001
29 4 29 100 0.499999
4 5 29 100 0.5
7 5 29 100 0.000288475
9 5 29 100 0.499712
0 6 29 100 0.497678
6 6 29 100 0.00232259
7 6 29 100 0.499673
11 6 29 100 0.000326532
9 7 29 100 0.499999
13 7 29 100 0.500001
0 8 29 100 2.39951e-05
7 8 29 100 0.0226785
14 8 29 100 0.500002
17 8 29 100 0.477296
9 9 29 100 0.5
15 9 29 100 0.5
8 10 29 100 0.00208064
10 10 29 100 0.497919
16 10 29 100 0.500001
15 11 29 100 0.5
17 11 29 100 0.5
15 12 29 100 0.5
18 12 29 100 0.5
15 13 29 100 0.5
19 13 29 100 0.5
15 14 29 100 0.5
20 14 29 100 0.499987
21 14 29 100 1.30827e-05
15 15 29 100 0.5
20 15 29 100 7.34289e-06
21 15 29 100 0.499993
24 16 29 100 0.499999
29 16 29 100 0.500001
13 17 29 100 0.492851
17 17 29 100 0.0071485
25 17 29 100 0.5
15 18 29 100 0.499995
20 18 29 100 5.42358e-06
26 18 29 100 0.499999
9 19 29 100 0.000186515
19 19 29 100 0.5
27 19 29 100 0.497452
28 19 29 100 0.00236122
16 20 29 100 1
12 21 29 100 0.996967
14 21 29 100 2.42216e-05
18 21 29 100 0.00300879
15 22 29 100 0.999828
20 22 29 100 0.000172111
15 23 29 100 0.964764
20 23 29 100 0.0352364
22 24 29 100 1
21 25 29 100 0.0273615
23 25 29 100 0.972638
27 26 29 100 1
0 27 29 100 0.00202146
24 27 29 100 0.978145
25 27 29 100 0.0198334
26 28 29 100 0.94214
28 28 29 100 0.0578596
9 29 29 100 1
11 30 29 100 0.650504
14 30 29 100 0.078924
18 30 29 100 0.270572
0 1 31 100 4.80231e-06
2 1 31 100 0.333322
27 1 31 100 0.666667
31 1 31 100 6.73023e-06
3 2 31 100 0.666668
29 2 31 100 0.333332
3 3 31 100 0.333432
23 3 31 100 0.666568
3 4 31 100 0.666581
4 4 31 100 7.69545e-05
7 4 31 100 0.333335
24 4 31 100 6.9603e-06
2 5 31 100 0.000493317
5 5 31 100 0.666667
8 5 31 100 1.30446e-05
29 5 31 100 0.332826
3 6 31 100 0.666667
8 6 31 100 0.0528902
9 6 31 100 0.280443
0 7 31 100 0.333333
6 7 31 100 0.666667
3 8 31 100 0.666667
10 8 31 100 0.333333
0 9 31 100 0.0337646
7 9 31 100 0.632777
11 9 31 100 0.333458
3 10 31 100 0.666672
28 10 31 100 0.0799144
30 10 31 100 0.253414
15 11 31 100 0.333333
27 11 31 100 0.666667
0 12 31 100 0.663826
10 12 31 100 3.11984e-05
16 12 31 100 0.336142
17 13 31 100 0.333333
27 13 31 100 0.666667
0 14 31 100 0.00010251
13 14 31 100 9.06024e-06
18 14 31 100 0.0140295
19 14 31 100 0.319192
27 14 31 100 0.666667
20 15 31 100 0.333333
27 15 31 100 0.666667
21 16 31 100 0.0320128
22 16 31 100 0.301319
26 16 31 100 0.666668
23 17 31 100 0.333333
27 17 31 100 0.666667
4 18 31 100 0.00188528
8 18 31 100 1.11691e-05
13 18 31 100 3.17383e-05
20 18 31 100 0.00584489
24 18 31 100 0.343747
25 18 31 100 0.00797234
28 18 31 100 0.640507
0 19 31 100 0.124282
10 19 31 100 2.91748e-05
16 19 31 100 0.542355
26 19 31 100 0.333329
28 19 31 100 4.53787e-06
0 20 31 100 0.00458047
15 20 31 100 0.0238191
17 20 31 100 0.618532
18 20 31 100 0.0197359
29 20 31 100 0.333333
3 21 31 100 0.666651
20 21 31 100 1.54676e-05
29 21 31 100 0.333333
0 22 31 100 1.59962e-05
3 22 31 100 0.666667
8 22 31 100 0.0255055
24 22 31 100 0.0115135
29 22 31 100 0.296293
30 22 31 100 5.09664e-06
3 23 31 100 0.666667
29 23 31 100 0.333333
27 24 31 100 1
27 25 31 100 1
21 26 31 100 1
21 27 31 100 1
27 28 31 100 1
8 29 31 100 1
14 30 31 100 1
0 31 31 100 0.00029506
2 31 31 100 0.999705
1 32 31 100 1
1 1 33 100 1
0 2 33 100 1.26444e-05
5 2 33 100 0.999987
31 3 33 100 1
4 4 33 100 1
32 5 33 100 1
0 6 33 100 0.000241408
6 6 33 100 0.890658
7 6 33 100 0.109101
13 7 33 100 1
14 8 33 100 1
15 9 33 100 1
16 10 33 100 1
2 11 33 100 2.33899e-05
17 11 33 100 0.999977
18 12 33 100 1
19 13 33 100 1
20 14 33 100 0.999974
21 14 33 100 2.56565e-05
20 15 33 100 2.23622e-05
21 15 33 100 0.999978
0 16 33 100 0.146321
24 16 33 100 1.38727e-05
32 16 33 100 0.853665
28 17 33 100 0.191331
30 17 33 100 0.808669
28 18 33 100 0.661058
30 18 33 100 0.338942
27 19 33 100 1
3 20 33 100 1
29 21 33 100 1
2 22 33 100 0.000189711
22 22 33 100 0.983455
24 22 33 100 0.0147495
26 22 33 100 0.00160559
26 23 33 100 1
33 24 33 100 1
1 1 40 100 1
39 2 40 100 1
37 3 40 100 1
9 4 40 100 0.0035284
10 4 40 100 0.0038711
11 4 40 100 0.00495006
12 4 40 100 0.00634372
14 4 40 100 0.0080519
15 4 40 100 0.00338593
17 4 40 100 0.00751593
38 4 40 100 0.962353
7 5 40 100 1
7 6 40 100 1
5 7 40 100 0.999942
6 7 40 100 5.81782e-05
0 8 40 100 0.957459
4 8 40 100 0.0423493
19 8 40 100 0.000191751
5 9 40 100 0.999977
6 9 40 100 2.32944e-05
5 10 40 100 1
5 11 40 100 0.99997
6 11 40 100 2.9796e-05
18 12 40 100 1
0 13 40 100 0.0182511
4 13 40 100 0.000410951
19 13 40 100 0.981338
20 14 40 100 1
0 15 40 100 0.00853693
21 15 40 100 0.991463
7 16 40 100 1
0 17 40 100 0.000213783
6 17 40 100 2.69725e-05
7 17 40 100 5.18716e-05
8 17 40 100 3.8196e-05
9 17 40 100 3.36109e-05
10 17 40 100 3.68754e-05
11 17 40 100 4.71534e-05
12 17 40 100 6.04291e-05
13 17 40 100 1.90647e-05
14 17 40 100 7.67009e-05
15 17 40 100 3.22538e-05
16 17 40 100 6.03966e-05
17 17 40 100 7.15954e-05
33 17 40 100 0.999231
22 18 40 100 0.997274
34 18 40 100 0.00272609
24 19 40 100 0.997796
25 19 40 100 0.00220396
25 20 40 100 0.999815
34 20 40 100 0.000185316
7 21 40 100 1
0 22 40 100 0.00010644
26 22 40 100 0.62287
27 22 40 100 0.375262
40 22 40 100 0.00176128
28 23 40 100 1
29 24 40 100 1
30 25 40 100 1
31 26 40 100 1
32 27 40 100 1
32 28 40 100 1
35 29 40 100 1
36 30 40 100 1
5 31 40 100 0.999883
6 31 40 100 0.000116801
7 32 40 100 1
7 33 40 100 1
1 1 41 100 0.5
7 1 41 100 0.5
7 2 41 100 1
4 3 41 100 0.5
24 3 41 100 0.5
0 4 41 100 0.00343173
4 4 41 100 0.496568
7 4 41 100 0.5
0 5 41 100 1.5229e-05
5 5 41 100 0.499892
6 5 41 100 0.500004
24 5 41 100 8.8279e-05
7 6 41 100 0.500005
10 6 41 100 0.499995
0 7 41 100 0.473404
9 7 41 100 0.444227
16 7 41 100 7.71464e-05
23 7 41 100 0.00313089
24 7 41 100 0.0346859
31 7 41 100 0.000948872
37 7 41 100 1.68624e-05
38 7 41 100 0.043378
39 7 41 100 6.51792e-05
40 7 41 100 6.61264e-05
10 8 41 100 0.499999
24 8 41 100 0.500001
11 9 41 100 0.499002
17 9 41 100 0.000335234
18 9 41 100 0.000424431
24 9 41 100 0.500006
27 9 41 100 0.000232379
10 10 41 100 0.500001
12 10 41 100 0.383962
13 10 41 100 0.116024
17 10 41 100 5.69249e-06
18 10 41 100 7.20713e-06
10 11 41 100 0.000308002
11 11 41 100 0.499692
14 11 41 100 0.5
0 12 41 100 0.00162749
12 12 41 100 0.0822559
15 12 41 100 0.499229
17 12 41 100 0.000303455
18 12 41 100 0.000384198
19 12 41 100 0.416117
27 12 41 100 8.21173e-05
7 13 41 100 0.5
20 13 41 100 0.5
9 14 41 100 0.00317826
16 14 41 100 0.500004
23 14 41 100 0.491731
24 14 41 100 0.00164528
31 14 41 100 4.66092e-05
38 14 41 100 0.00338483
39 14 41 100 5.08601e-06
40 14 41 100 5.15992e-06
24 15 41 100 1
24 16 41 100 1
5 17 41 100 5.36018e-05
24 17 41 100 0.999946
7 18 41 100 0.500003
17 18 41 100 0.0727995
37 18 41 100 0.263871
39 18 41 100 0.0810699
40 18 41 100 0.0822562
7 19 41 100 0.5
17 19 41 100 0.5
18 20 41 100 0.5
19 20 41 100 0.5
0 21 41 100 0.0010353
8 21 41 100 0.5
12 21 41 100 0.416709
19 21 41 100 0.0822558
13 22 41 100 0.5
26 22 41 100 0.5
9 23 41 100 8.13836e-05
16 23 41 100 0.495198
23 23 41 100 4.01784e-05
24 23 41 100 0.00096683
25 23 41 100 0.500002
31 23 41 100 0.000109519
38 23 41 100 0.00359104
39 23 41 100 5.39586e-06
40 23 41 100 5.47427e-06
24 24 41 100 1
24 25 41 100 1
7 26 41 100 1
0 27 41 100 0.5
31 27 41 100 0.5
26 28 41 100 0.5
32 28 41 100 0.5
7 29 41 100 0.00717263
27 29 41 100 0.5
37 29 41 100 0.492827
24 30 41 100 0.5
28 30 41 100 0.5
29 31 41 100 1
0 32 41 100 0.497704
9 32 41 100 0.00229588
30 32 41 100 0.5
7 33 41 100 1
0 34 41 100 0.00054708
20 34 41 100 0.499998
32 34 41 100 0.499455
21 35 41 100 0.157229
22 35 41 100 0.333926
23 35 41 100 0.00348583
28 35 41 100 0.0052538
33 35 41 100 0.5
35 35 41 100 7.54083e-05
37 35 41 100 2.92208e-05
34 36 41 100 1
35 37 41 100 1
7 38 41 100 1
7 39 41 100 1
7 40 41 100 1
7 41 41 100 1
0 42 41 100 1.18836e-05
3 42 41 100 0.999988
7 1 44 100 0.880162
12 1 44 100 2.77323e-05
13 1 44 100 0.00357165
15 1 44 100 3.03943e-05
16 1 44 100 2.72472e-05
23 1 44 100 0.0309138
25 1 44 100 0.0798424
36 1 44 100 0.00540256
38 1 44 100 1.11684e-05
44 1 44 100 1.11684e-05
12 2 44 100 2.12618e-05
15 2 44 100 1.86587e-05
27 2 44 100 0.99996
11 3 44 100 0.0192876
12 3 44 100 0.0526314
14 3 44 100 0.00202885
15 3 44 100 0.0497033
16 3 44 100 0.0649233
29 3 44 100 0.609067
31 3 44 100 0.0922949
37 3 44 100 0.084374
38 3 44 100 0.00983155
41 3 44 100 0.00602626
44 3 44 100 0.00983155
11 4 44 100 0.0182915
12 4 44 100 0.0644069
14 4 44 100 0.0567802
15 4 44 100 0.0565363
16 4 44 100 0.0107601
17 4 44 100 0.0302889
18 4 44 100 0.62509
38 4 44 100 0.0545928
41 4 44 100 0.0286605
44 4 44 100 0.0545928
19 5 44 100 0.999716
23 5 44 100 0.000184148
25 5 44 100 9.97465e-05
8 6 44 100 0.998098
11 6 44 100 0.000194875
12 6 44 100 4.54488e-05
15 6 44 100 0.000109882
16 6 44 100 0.000124012
23 6 44 100 0.000678364
25 6 44 100 0.000749477
9 7 44 100 0.993477
11 7 44 100 0.000448149
12 7 44 100 0.00152134
14 7 44 100 6.92725e-05
15 7 44 100 0.00159712
16 7 44 100 0.00288667
0 1 45 100 0.00133755
1 1 45 100 0.997934
4 1 45 100 0.00040596
22 1 45 100 3.11408e-05
25 1 45 100 9.99666e-06
37 1 45 100 0.000281413
4 2 45 100 0.000929589
7 2 45 100 0.5
38 2 45 100 0.49907
0 3 45 100 0.49998
5 3 45 100 0.499893
14 3 45 100 0.000106188
32 3 45 100 2.09803e-05
4 4 45 100 0.000237673
5 4 45 100 0.49992
14 4 45 100 1.37305e-05
38 4 45 100 0.499762
43 4 45 100 6.61425e-05
4 5 45 100 0.000269574
6 5 45 100 0.499924
36 5 45 100 2.92098e-05
38 5 45 100 0.499735
42 5 45 100 4.24487e-05
3 6 45 100 0.503423
24 6 45 100 0.495254
37 6 45 100 0.00132307
0 7 45 100 0.496842
1 7 45 100 0.00217369
4 7 45 100 0.00173554
8 7 45 100 0.00142212
23 7 45 100 0.497827
0 8 45 100 0.000167856
7 8 45 100 0.500001
36 8 45 100 3.72347e-05
39 8 45 100 0.483173
40 8 45 100 0.0131663
41 8 45 100 0.00339152
45 8 45 100 6.37977e-05
10 9 45 100 0.5
42 9 45 100 0.5
11 10 45 100 0.5
40 10 45 100 9.05488e-06
43 10 45 100 0.499983
45 10 45 100 7.48027e-06
9 11 45 100 0.5
17 11 45 100 0.5
6 12 45 100 0.00101524
13 12 45 100 2.59689e-05
18 12 45 100 0.0824636
25 12 45 100 0.5
29 12 45 100 3.53279e-05
36 12 45 100 0.00296813
42 12 45 100 0.413467
43 12 45 100 2.51081e-05
7 13 45 100 0.5
10 13 45 100 0.498728
40 13 45 100 5.04741e-05
41 13 45 100 0.000378546
45 13 45 100 0.000843319
5 14 45 100 0.500061
14 14 45 100 2.05741e-05
43 14 45 100 0.499919
2 15 45 100 0.500001
6 15 45 100 5.18847e-05
18 15 45 100 0.447513
29 15 45 100 8.05e-06
36 15 45 100 9.94307e-05
42 15 45 100 0.0523199
43 15 45 100 6.22758e-06
0 16 45 100 0.00512102
3 16 45 100 4.76174e-05
6 16 45 100 0.0331466
7 16 45 100 8.76313e-05
16 16 45 100 5.9009e-06
19 16 45 100 0.49488
33 16 45 100 0.466712
7 17 45 100 0.5
21 17 45 100 0.5
7 18 45 100 1
0 19 45 100 0.0193767
1 19 45 100 8.91327e-05
4 19 45 100 0.000111335
6 19 45 100 0.00113399
16 19 45 100 0.498868
22 19 45 100 0.12395
23 19 45 100 0.00564018
25 19 45 100 0.321657
27 19 45 100 7.03401e-05
37 19 45 100 0.0291027
17 20 45 100 0.500001
45 20 45 100 0.499999
7 21 45 100 0.5
18 21 45 100 0.381725
19 21 45 100 0.118274
7 22 45 100 1
9 23 45 100 0.500001
11 23 45 100 0.454848
20 23 45 100 0.0443238
24 23 45 100 0.00082805
6 24 45 100 0.00151086
13 24 45 100 0.000831204
18 24 45 100 0.000479644
21 24 45 100 0.5
29 24 45 100 0.00349507
36 24 45 100 0.488493
42 24 45 100 0.00515318
43 24 45 100 3.73813e-05
7 25 45 100 1
7 26 45 100 0.5
32 26 45 100 0.5
13 27 45 100 0.000224599
33 27 45 100 0.499992
43 27 45 100 9.57473e-06
44 27 45 100 0.499773
0 28 45 100 0.0538127
15 28 45 100 0.500015
34 28 45 100 0.446172
7 29 45 100 1
0 30 45 100 0.00197884
4 30 45 100 7.39574e-06
22 30 45 100 9.20337e-05
25 30 45 100 7.63261e-05
27 30 45 100 0.96209
30 30 45 100 0.00546989
37 30 45 100 0.030286
28 31 45 100 0.5
31 31 45 100 0.5
29 32 45 100 0.5
39 32 45 100 0.5
30 33 45 100 0.5
40 33 45 100 0.5
0 34 45 100 0.00010422
7 34 45 100 0.500001
28 34 45 100 0.0137551
30 34 45 100 0.0010435
31 34 45 100 0.48506
32 34 45 100 3.65701e-05
12 35 45 100 0.5
31 35 45 100 0.445583
36 35 45 100 0.0489175
40 35 45 100 1.09314e-05
45 35 45 100 0.00548843
16 36 45 100 0.500001
22 36 45 100 0.499999
26 37 45 100 1
0 38 45 100 0.442669
34 38 45 100 0.0573316
44 38 45 100 0.499999
1 39 45 100 1
3 40 45 100 0.00240561
24 40 45 100 0.00343736
37 40 45 100 0.994157
1 41 45 100 0.995653
23 41 45 100 0.00434736
0 42 45 100 0.0275984
32 42 45 100 1.43417e-05
35 42 45 100 1.5357e-05
36 42 45 100 0.947395
39 42 45 100 7.50954e-05
40 42 45 100 2.52835e-05
43 42 45 100 0.0166007
45 42 45 100 0.00827569
1 43 45 100 1
1 44 45 100 1
1 45 45 100 1
1 46 45 100 1
1 47 45 100 1
1 48 45 100 1
7 1 48 100 0.0600402
19 1 48 100 0.939936
30 1 48 100 2.37265e-05
7 2 48 100 0.109637
19 2 48 100 0.890343
30 2 48 100 2.07211e-05
1 3 48 100 0.998303
2 3 48 100 0.00162873
12 3 48 100 1.02972e-05
16 3 48 100 5.77906e-05
7 4 48 100 0.977429
19 4 48 100 0.0225707
7 5 48 100 0.994252
19 5 48 100 0.00574774
7 6 48 100 0.996207
19 6 48 100 0.0037933
1 7 48 100 0.00900721
2 7 48 100 0.787415
3 7 48 100 0.119689
4 7 48 100 0.0803717
10 7 48 100 1.72467e-05
12 7 48 100 0.00339817
13 7 48 100 1.29868e-05
18 7 48 100 2.18168e-05
32 7 48 100 1.31014e-05
34 7 48 100 2.81497e-05
35 7 48 100 2.5687e-05
6 8 48 100 0.994896
9 8 48 100 0.00510384
6 9 48 100 0.00512185
9 9 48 100 0.994878
7 10 48 100 0.997535
19 10 48 100 0.00246462
44 11 48 100 1
7 12 48 100 0.995262
19 12 48 100 0.00473802
7 13 48 100 0.984514
19 13 48 100 0.0154863
0 14 48 100 0.998054
20 14 48 100 0.00114712
31 14 48 100 0.000787162
37 14 48 100 1.18044e-05
44 15 48 100 1
0 16 48 100 1.89547e-05
10 16 48 100 0.0807516
11 16 48 100 0.0409207
12 16 48 100 2.97409e-05
13 16 48 100 0.0608064
18 16 48 100 0.0308616
28 16 48 100 5.87673e-05
32 16 48 100 0.010256
34 16 48 100 0.0217322
35 16 48 100 0.0198309
45 16 48 100 0.0579783
48 16 48 100 0.676755
7 17 48 100 0.850863
19 17 48 100 0.149137
1 18 48 100 0.995975
2 18 48 100 0.00371535
12 18 48 100 2.94789e-05
16 18 48 100 0.000280064
0 19 48 100 0.0675465
15 19 48 100 1.21388e-05
20 19 48 100 0.931822
31 19 48 100 0.000619283
21 20 48 100 1
46 21 48 100 1
47 22 48 100 1
1 23 48 100 1
1 24 48 100 0.997376
2 24 48 100 0.00260906
16 24 48 100 1.44554e-05
7 25 48 100 0.00283951
19 25 48 100 0.997115
30 25 48 100 4.52557e-05
7 26 48 100 0.00209343
19 26 48 100 0.997867
30 26 48 100 3.93182e-05
1 27 48 100 1
21 28 48 100 1
1 29 48 100 0.9995
14 29 48 100 0.000499959
1 30 48 100 0.999839
2 30 48 100 0.000107669
16 30 48 100 5.3355e-05
0 31 48 100 0.996237
15 31 48 100 0.00017314
20 31 48 100 0.00186191
31 31 48 100 0.00168224
37 31 48 100 4.60944e-05
1 32 48 100 1
21 33 48 100 1
1 34 48 100 0.00049996
14 34 48 100 0.9995
1 35 48 100 0.000613332
10 35 48 100 1.51018e-05
12 35 48 100 0.00297556
13 35 48 100 1.13717e-05
16 35 48 100 0.996096
18 35 48 100 1.70297e-05
32 35 48 100 5.10127e-05
34 35 48 100 0.000109606
35 35 48 100 0.000100017
40 35 48 100 1.04732e-05
44 36 48 100 1
7 37 48 100 0.0136837
19 37 48 100 0.973804
30 37 48 100 0.0125123
17 38 48 100 1
36 39 48 100 1
38 40 48 100 1
39 41 48 100 1
1 42 48 100 1.51971e-05
41 42 48 100 0.999985
7 43 48 100 0.00433101
19 43 48 100 0.991477
30 43 48 100 0.00419187
42 44 48 100 1
43 45 48 100 1
44 46 48 100 1
7 47 48 100 0.0113124
19 47 48 100 0.987071
30 47 48 100 0.00161666
22 48 48 100 1
24 49 48 100 1
7 50 48 100 1.57294e-05
19 50 48 100 0.0187551
30 50 48 100 0.981229
