0 6 7.1688e-06
0 7 0.696342
0 8 0.0449025
0 11 3.63759e-06
0 14 4.68453e-07
0 18 1.09691e-06
181 175 0.333293
0 19 1.59041e-05
181 176 0.333293
181 183 0.333293
0 26 0.0001967
0 29 1.09231e-06
0 35 6.84781e-07
543 522 0.999878
0 54 0.000637841
0 55 0.161685
0 60 0.0775483
0 61 0.00532785
0 64 2.08495e-07
0 66 1.26615e-06
0 71 2.1607e-06
0 77 7.72386e-06
0 80 0.000141524
0 89 9.42596e-06
724 722 0.496401
905 880 0.999878
0 97 1.48568e-06
1086 1047 0.000306766
1086 1052 0.999571
0 132 3.03014e-06
0 133 2.8553e-05
0 140 0.00474458
0 146 2.46693e-07
0 166 1.02031e-05
1203 179 0.111098
1203 180 0.111098
1203 181 0.111098
0 174 1.60106e-07
621 43 0.0772244
0 215 9.83019e-05
1164 539 0.499939
0 218 0.000263133
0 227 1.7994e-06
220 79 5.92813e-05
0 241 9.87691e-07
0 249 0.00386362
0 283 4.17384e-07
0 306 4.69662e-05
0 310 1.44633e-06
0 314 4.71816e-07
0 347 5.32863e-05
39 40 0.291558
0 352 2.20742e-06
220 211 0.999818
39 61 5.1734e-05
0 372 7.45811e-07
401 382 0.999878
0 384 8.17062e-07
582 561 0.999878
0 404 0.00132068
763 734 0.199975
763 735 0.200444
763 736 0.199507
763 738 0.199976
763 739 0.199976
0 438 1.68441e-07
944 918 0.999878
1125 1084 0.999878
621 306 0.0159059
0 456 1.05144e-06
0 462 2.95449e-06
0 471 1.46167e-07
802 500 0.999878
0 502 8.99685e-06
841 210 0.499939
0 526 0.000265832
0 539 1.00396e-05
39 237 0.708268
0 554 2.07077e-07
0 570 1.56857e-07
0 582 6.80223e-07
880 19 0.499663
78 59 0.999878
259 241 0.999878
0 709 1.51055e-05
440 423 0.999878
1203 753 0.111098
621 600 0.453559
1164 1072 0.499939
621 604 0.453189
983 955 0.999314
983 956 0.000563715
0 793 5.03036e-07
0 834 0.00021053
0 836 1.12571e-06
0 851 8.32658e-05
0 854 9.12902e-07
0 856 2.19838e-07
0 861 0.000782417
0 900 1.47869e-06
880 298 0.500214
0 931 3.04962e-07
0 951 2.99115e-06
0 969 6.80203e-07
0 975 1.98039e-07
0 995 5.34727e-07
0 1021 3.4181e-07
0 1027 0.00121523
117 113 0.00781855
117 114 0.992059
699 291 1.83132e-05
298 298 0.499939
298 299 0.499939
479 458 0.999878
518 155 0.999878
660 634 0.999878
337 26 0.999878
841 820 0.499939
1203 1144 0.111097
1022 987 0.99678
1022 988 0.00309741
1203 1147 0.111098
1203 1150 0.111098
1203 1152 0.111098
1203 1153 0.111098
0 1168 2.20148e-06
0 1221 1.89634e-07
156 137 0.993525
958 169 0.683081
699 671 0.124985
699 672 0.124968
699 673 0.124985
699 674 0.124985
376 50 0.999878
699 675 0.124985
699 682 0.124982
699 683 0.124985
699 684 0.124985
1061 1014 0.999878
1242 1194 2.55105e-05
1242 1199 0.999852
958 286 0.316797
596 132 0.00943454
156 450 2.82817e-06
156 478 0.00634994
14 14 0.942736
195 191 0.999878
14 45 9.53915e-05
557 537 0.999878
738 713 0.999878
919 895 0.999878
1100 1056 0.999878
234 54 1.08865e-05
234 55 0.770452
997 378 0.999878
53 18 0.999878
234 230 0.229414
415 392 0.999878
596 577 0.990443
777 753 0.999878
1139 1179 0.999878
14 548 0.0570297
454 249 0.411737
1075 170 0.500443
92 6 2.78442e-06
92 10 0.166614
92 60 6.7272e-06
92 68 0.000186548
273 277 0.999878
454 439 0.391337
635 613 0.999878
816 777 0.999878
1178 1133 0.999878
1075 404 0.499435
855 563 0.999878
713 178 0.999878
14 1004 1.01175e-06
131 134 0.999878
312 310 0.0344541
312 311 0.964247
312 312 0.00117639
493 475 0.50008
493 476 0.499797
674 649 0.911874
674 654 0.0880034
1036 999 0.989456
1036 1000 0.0104214
1217 1173 0.999878
92 545 0.666455
933 248 0.999878
14 1216 1.554e-05
170 61 9.41559e-06
1256 1027 0.000193933
454 1026 0.000830101
454 1061 0.19568
170 164 0.499934
170 165 0.499934
454 1116 0.000293491
351 341 0.999878
532 510 0.500093
532 511 0.499785
1153 378 0.999878
894 872 0.999878
1256 1213 0.999684
1114 892 0.999878
28 28 0.999878
209 204 0.999878
92 1135 0.166614
390 368 0.00491649
390 370 0.994961
610 230 0.142516
571 550 0.999878
752 725 0.999878
791 456 0.998621
830 186 0.999878
1270 55 0.427823
67 65 0.999878
248 246 0.999878
429 411 0.999878
610 590 0.428681
610 591 0.428681
791 758 0.00125699
972 948 0.999878
688 23 0.999837
287 190 0.153909
106 99 0.999878
468 440 0.999878
287 288 0.153915
287 300 0.153584
649 626 0.666693
649 641 0.333185
287 335 0.384669
287 342 0.153802
1011 977 0.00375857
1011 978 0.49806
1192 1143 0.999878
1011 1024 0.49806
1128 105 0.447846
1270 645 0.572054
145 147 0.999878
326 310 0.173712
326 311 0.826166
1167 13 0.124985
507 489 0.999878
365 29 1.57014e-05
365 30 0.874645
688 661 4.09286e-05
1167 74 0.124985
869 850 0.999878
1050 1009 0.999878
1231 1187 0.499939
1231 1190 0.499939
1167 220 0.124985
766 224 0.999878
1167 306 0.124985
3 3 0.999878
184 179 0.999878
546 524 0.504673
546 526 0.495205
727 704 0.999878
908 883 0.999878
1089 1047 0.0109964
1089 1052 0.988881
585 283 0.106545
223 85 0.999878
1128 911 0.552031
1245 6 0.0025887
365 657 0.000271607
42 43 0.999878
404 381 2.51587e-05
404 388 0.999853
585 565 0.446666
585 566 0.446666
947 922 0.999878
805 456 0.999878
663 6 7.51449e-06
1167 955 0.124985
81 75 0.249969
81 76 0.249969
81 78 0.249969
81 79 0.249969
365 1021 0.124946
262 262 0.640338
262 263 0.335311
443 429 0.999878
1025 596 0.333293
624 603 0.504327
624 608 0.49555
262 306 0.000150652
1167 1116 0.124985
986 959 0.999878
1167 1120 0.124985
1167 1121 0.124985
120 105 0.999878
301 302 0.333294
482 461 0.999878
301 305 0.333294
301 308 0.33329
663 635 0.629562
844 822 0.49994
844 823 0.499937
1025 990 0.333293
1025 991 0.333293
1206 1166 0.499939
1206 1201 0.499939
521 287 0.425993
883 648 0.623358
560 54 0.388865
1245 1027 0.0152677
1103 596 0.999878
159 140 0.999797
159 149 8.06779e-05
379 6 0.249969
340 332 0.999878
262 956 0.0240596
262 957 1.82622e-05
521 502 0.00598989
521 513 0.0378296
1064 1022 0.999878
883 865 0.37652
780 105 0.999878
1245 1200 0.982021
560 268 0.192909
663 1132 0.370308
702 844 0.999878
599 132 0.00943454
17 17 0.999878
198 193 0.999878
379 358 0.749908
560 540 0.418103
741 716 0.999763
741 718 0.000114957
922 897 0.999878
521 931 0.530066
1039 82 0.999878
56 52 0.999878
418 385 0.124985
418 389 0.124985
418 390 0.124985
237 234 0.999878
418 391 0.124985
418 394 0.124985
418 395 0.124985
418 397 0.124985
418 400 0.124985
599 577 0.990443
457 114 0.15108
961 935 0.999878
1142 1100 0.333293
1142 1101 0.333293
1142 1102 0.333292
457 282 0.137794
95 89 0.999878
276 279 0.989268
276 280 0.0106093
638 614 0.999878
858 482 0.537775
819 796 0.999878
1000 965 0.999878
1181 1137 0.999878
1220 853 0.999878
457 659 0.435417
134 64 0.0625094
134 132 1.09064e-06
134 133 0.937367
496 450 0.331508
315 311 0.999322
496 478 0.325404
496 479 0.333675
496 483 0.00929133
677 651 0.00478235
677 653 0.995095
858 837 0.462103
354 61 0.0897709
354 68 0.303369
1156 149 0.999878
1259 1027 0.999878
393 6 0.599903
173 167 0.841649
173 168 0.158229
354 345 0.606738
535 513 0.999878
457 1145 0.137793
716 694 0.999878
457 1158 0.137794
897 872 0.999878
1078 1036 0.999878
315 919 0.000555716
31 30 0.024465
31 31 0.975317
393 347 0.399935
31 35 9.57722e-05
393 362 3.95509e-05
212 213 0.999878
574 551 0.982528
574 554 0.0173496
755 729 0.999878
936 910 0.999878
1117 1079 0.999878
1053 55 0.0016433
1053 61 0.759952
1053 133 0.238282
1014 469 0.999878
70 56 0.0101592
70 57 0.44802
70 58 0.44802
70 71 0.093652
251 239 0.999878
432 415 0.999878
613 576 0.999878
70 132 2.70582e-05
471 146 0.499939
975 946 0.999878
691 178 0.386784
109 105 0.999878
290 290 0.581933
471 452 0.499939
652 629 0.999878
833 813 0.996529
833 814 0.0033492
1195 1174 0.999722
1195 1175 0.000155675
730 146 0.124985
549 66 0.66538
911 392 0.49599
148 152 0.999878
329 309 0.000173304
329 310 0.152561
290 621 0.417677
329 311 0.847144
290 623 0.000267332
510 490 0.999878
691 661 0.0348945
368 38 0.953585
691 662 0.578199
1131 387 0.999878
872 852 0.999878
1234 1191 0.999878
549 268 0.00163131
950 311 0.385447
549 392 0.332867
730 619 0.124985
730 620 0.124985
6 7 0.999823
187 182 0.999878
368 349 0.0462927
730 700 0.124985
730 701 0.124985
730 702 0.124985
730 706 0.124985
730 707 0.124985
911 886 0.00789785
911 887 0.49599
1092 1050 0.999878
1273 1224 0.999878
6 152 6.50717e-07
1170 476 0.666585
950 637 0.576489
45 45 0.781715
226 220 0.82645
407 388 0.0252477
1248 93 0.497818
588 568 0.999878
769 743 0.999878
950 925 0.0379414
407 497 0.97463
265 65 0.999878
6 554 5.38016e-05
84 70 0.999878
446 432 0.999878
627 606 0.999878
808 782 0.999878
989 960 0.999878
1170 1118 0.333293
304 55 0.00257388
705 60 0.963019
1067 398 0.3459
6 861 7.0688e-07
847 622 0.999878
925 40 0.499827
123 121 0.999878
1106 310 0.999878
666 616 0.999878
485 464 0.999878
304 307 0.997304
1028 995 0.999878
1209 1167 0.999878
343 140 7.67745e-06
226 1115 0.173427
1184 6 0.0318415
162 156 0.330471
162 157 8.63584e-06
382 11 0.000432303
524 505 0.999878
886 867 0.999878
1067 1027 0.345863
1067 1029 0.308115
1248 1204 0.50206
45 1215 0.218154
45 1216 9.04031e-06
162 287 0.0166562
162 450 0.167992
162 453 0.315165
20 6 0.736988
20 25 0.0440128
201 191 0.520175
162 502 1.25089e-05
201 192 0.008833
201 194 0.47087
20 38 0.0440128
382 362 0.359605
382 363 0.639841
563 543 0.999878
343 696 0.99987
744 720 0.999878
705 1051 0.0368587
925 899 0.499911
925 900 0.00014004
822 140 0.906294
240 68 0.999878
20 348 0.0440128
20 351 0.0440128
964 834 0.271559
59 55 0.999715
1042 229 0.999878
421 402 0.999878
602 584 0.999878
783 758 0.999878
1223 455 0.999878
861 149 0.999878
964 937 0.728319
162 931 0.00163677
1145 1105 0.999878
162 941 0.167936
20 545 0.0867138
59 295 0.000162932
1262 378 0.00179709
1081 234 0.999878
98 88 0.124985
98 90 0.124985
98 91 0.124985
98 93 0.124985
98 95 0.124985
98 98 0.124985
98 100 0.124985
98 102 0.124985
680 272 0.999878
279 281 0.749909
460 442 0.999878
641 617 0.999878
822 794 0.0935839
1184 1139 0.322679
1184 1140 0.322679
1184 1141 0.322679
318 65 0.00579449
1003 1067 0.999336
279 571 0.249969
318 264 0.0213457
1003 1203 0.000542029
137 139 0.999878
318 309 0.972738
357 11 0.999878
499 482 0.999878
20 1216 0.000124939
1159 149 0.903124
1262 951 0.998081
176 26 0.999878
1198 6 0.550666
538 515 0.999878
719 697 0.499234
719 698 0.500643
900 877 0.999878
1198 114 7.78211e-05
758 439 0.499939
215 90 0.000548318
577 497 0.999878
34 30 3.12558e-06
34 33 0.399131
34 35 0.208074
396 364 0.999878
215 210 0.999329
836 72 0.500726
758 732 0.499939
939 913 0.999878
797 456 0.99358
1120 1080 0.999878
1237 178 0.999878
1056 55 0.97222
1056 61 0.0276574
836 262 0.248789
1159 955 0.0967534
875 23 1.20808e-05
474 23 0.261298
34 355 0.19957
73 70 0.666571
73 81 0.333306
254 257 0.999878
435 418 0.999878
616 596 0.526747
616 597 0.473131
797 758 0.00629803
978 943 0.333292
978 944 0.333293
978 947 0.333293
34 484 0.1931
694 89 0.333282
474 310 0.73858
112 108 0.999878
655 603 0.999878
293 293 0.999878
836 810 0.250363
1017 981 0.999878
1198 1139 0.000529011
1198 1140 0.000495319
1198 1142 0.00092022
1198 1143 0.44719
733 222 0.999878
151 151 0.999878
332 319 0.999878
513 493 0.999878
694 668 0.333298
694 669 0.333298
1095 678 0.249969
875 854 0.999866
371 170 0.000631188
1095 939 0.249969
9 10 0.999878
371 351 0.993755
552 532 0.499938
552 533 0.499939
914 890 0.999878
1095 1053 0.249969
1095 1054 0.249969
371 454 0.00485849
630 7 0.999878
190 333 0.250076
1031 155 0.999385
371 657 0.000632755
449 50 0.999814
48 47 0.999878
229 223 0.999878
410 382 0.999878
591 572 0.952944
591 573 0.0469333
190 570 0.749802
772 746 0.999878
953 927 0.999878
1134 1097 0.999878
87 83 0.499939
449 423 6.38924e-05
268 271 0.999878
1173 1064 0.999878
811 781 0.999878
992 963 0.999878
488 205 0.999849
488 291 2.88243e-05
307 264 0.999878
126 125 0.999878
669 609 0.999878
1031 931 0.000487448
850 829 0.999878
1031 1013 5.304e-06
1212 1170 0.999878
1251 943 0.999878
165 160 0.999878
889 792 0.999855
346 337 0.999878
527 504 0.999878
708 672 0.000667122
708 681 0.999211
889 871 2.3166e-05
1070 1030 0.999878
23 21 0.999878
747 678 0.0150658
385 365 0.999878
204 215 0.999878
87 1158 0.499939
566 547 0.999878
605 249 0.999878
928 904 0.999878
1109 1068 0.999878
786 456 0.999477
62 58 0.00155082
243 218 0.999878
62 62 0.998327
747 1017 0.984812
424 403 0.374954
424 405 0.124985
424 406 0.124985
424 407 0.124985
424 408 0.124985
424 413 0.124985
1045 276 0.999878
786 758 0.00040038
967 940 0.999878
1148 1108 0.999878
502 93 0.999878
101 96 0.10882
101 97 0.761452
282 283 0.999878
463 445 0.999878
101 133 0.129606
644 619 0.999878
825 778 0.999878
1006 966 0.999858
1006 969 2.01092e-05
1187 1143 0.999878
683 542 0.499936
722 238 0.999878
140 141 0.999878
321 316 0.999878
360 45 0.999878
864 841 0.999878
1226 1184 0.999878
1162 121 0.999878
903 593 0.999878
1265 1070 0.999854
179 173 0.999878
541 520 0.122368
1084 1047 0.999878
1265 1221 2.408e-05
1201 146 5.60467e-05
683 1109 0.499941
541 687 0.438754
541 688 0.438755
218 79 0.999878
37 36 0.199982
37 38 0.799896
399 379 0.999878
580 559 0.999878
619 262 0.479468
761 735 0.997535
761 736 0.0023423
942 916 0.999878
1123 1083 0.999878
76 73 0.863311
438 420 0.124985
438 422 0.124985
438 426 0.124985
438 430 0.124985
438 434 0.124985
438 435 0.124985
438 436 0.124985
438 437 0.124985
619 597 2.31914e-05
619 598 0.520387
800 758 0.999878
981 952 0.999878
1201 816 0.499959
1098 65 0.999878
76 334 0.136564
115 96 0.999878
296 297 0.507964
477 459 0.999878
658 633 0.999878
257 644 0.999878
335 26 0.999878
839 818 0.999878
1020 984 0.999878
1201 1149 0.499862
154 105 0.0601177
516 496 0.999878
697 667 0.999878
374 44 0.999878
296 678 0.491913
1059 1015 0.999878
878 859 0.999878
76 861 2.8586e-06
1240 1196 0.783896
1240 1197 0.215981
775 130 0.999878
736 497 0.999878
594 132 8.64392e-06
12 12 0.999878
193 203 0.999878
154 528 0.31848
555 534 0.999878
917 893 0.999878
452 50 0.998945
51 48 0.964761
51 50 0.0351168
594 526 0.166645
232 227 0.199087
232 228 0.700707
413 396 0.999878
995 563 0.995174
594 578 0.166645
594 579 0.166645
594 586 0.166645
594 594 0.166645
594 595 0.166645
956 930 0.999878
1137 1096 0.999878
154 933 0.318384
1073 55 0.00155278
232 360 0.100083
853 245 0.333293
154 1087 0.00170067
1073 246 0.998325
90 85 0.999847
154 1189 0.301196
452 423 0.000932209
271 275 0.249969
633 612 0.999878
814 787 0.999878
995 964 0.00470394
1176 1130 0.999878
711 73 0.111098
1215 879 0.999878
90 308 6.79746e-07
931 7 0.697324
530 34 0.967594
310 264 0.000382989
129 128 0.999878
310 291 0.00017917
491 466 0.172671
310 309 0.000233694
310 310 0.443516
310 311 0.542747
310 312 0.0128201
491 472 0.136505
672 645 0.999757
672 646 0.000120754
853 832 0.333293
853 833 0.333293
1034 998 0.999878
271 733 0.749908
892 648 0.0353778
1254 1027 0.397578
569 133 0.0106798
168 132 0.551112
168 133 0.448743
569 146 0.989198
168 145 2.22114e-05
90 791 2.99418e-05
349 335 0.333041
530 509 0.0322839
711 670 0.111098
711 676 0.111098
711 677 0.111098
711 678 0.111098
711 680 0.111098
711 685 0.111098
711 686 0.111098
711 689 0.111098
168 238 1.17747e-06
892 875 0.9645
1254 1211 0.602299
207 79 0.00692255
207 82 0.992955
491 1065 0.172674
491 1066 0.518025
26 25 0.998576
26 42 0.00130132
388 369 0.999878
750 724 0.999878
931 907 0.302554
491 1221 2.3614e-06
1112 1078 0.999878
789 456 0.999477
349 803 0.666837
65 26 4.7946e-06
1190 659 0.999878
65 54 0.0384762
65 55 0.00154157
246 215 0.999878
65 60 0.356673
65 61 0.00212338
65 66 0.040224
65 80 0.00442554
1229 410 0.999878
427 410 0.999878
466 101 0.649052
608 588 0.999878
789 758 0.00040038
65 133 0.0396369
65 137 0.109313
65 155 0.249321
970 949 0.999878
1151 1112 0.999878
466 262 0.0271428
686 114 0.697317
65 270 3.77143e-06
906 132 0.00273282
285 286 0.999878
65 450 0.000259313
647 621 0.999767
647 623 0.000110288
828 807 0.51235
828 808 0.487528
1009 974 0.751169
1009 975 0.248709
686 410 0.232108
65 597 0.00216775
65 648 0.155708
725 238 0.999878
143 144 0.999878
324 310 0.0799686
104 500 0.823159
104 501 0.176718
867 847 0.999878
1048 1007 0.999878
466 855 3.96476e-06
466 856 1.7493e-05
505 582 0.500359
505 607 0.25018
466 986 0.000145739
466 988 0.323516
686 850 0.0704528
544 414 0.999878
182 177 0.999878
505 814 0.249339
363 348 0.855699
363 352 0.144178
803 94 0.599927
906 881 0.997145
1087 1039 0.125541
1087 1040 0.125541
1087 1041 0.125541
1087 1042 0.125541
1087 1043 0.125541
1087 1045 0.125539
1087 1048 0.125519
1087 1049 0.121117
1268 1221 0.999878
764 455 0.333293
984 306 0.485714
945 617 0.999878
764 543 0.333294
1165 622 0.999878
441 18 0.123838
40 18 3.12079e-06
40 40 2.42371e-05
40 41 0.309129
402 383 0.999878
1204 410 0.333312
583 560 0.999878
324 1026 0.919909
764 740 0.333291
221 282 0.803575
1126 1085 0.999878
40 218 3.24371e-06
40 287 0.536154
221 454 0.196302
1062 158 0.499938
260 215 0.999856
79 74 0.999878
260 246 2.14593e-05
441 421 0.123829
441 423 0.00923712
441 424 0.371487
441 425 0.371487
622 601 0.999878
803 773 0.399951
480 169 0.499939
984 954 0.000611542
984 958 0.513552
1062 389 0.499939
881 310 0.33601
480 389 0.499939
118 97 0.00162497
118 115 0.499126
299 301 0.999878
661 627 0.00604784
661 634 0.99383
842 821 0.999878
1023 989 0.999878
1204 1154 0.333283
1204 1155 0.333283
739 171 0.333293
40 1013 0.154564
157 153 0.999878
338 323 0.999878
519 499 0.999878
700 672 0.0392127
700 681 0.960665
1140 387 0.999878
881 863 0.000102823
881 864 0.663765
1243 1194 0.499974
1243 1195 0.499904
959 272 0.999878
1179 169 0.249967
998 28 3.08158e-05
597 132 0.00943454
118 753 0.499126
15 10 0.166611
15 11 0.167526
15 15 0.499303
15 17 0.166437
196 192 0.999878
377 353 0.999878
739 676 0.333293
558 538 0.999878
817 92 0.975876
739 714 0.333293
920 895 1.78844e-05
920 896 0.99986
1101 1057 0.999878
778 508 0.999878
817 262 0.00388739
416 262 0.999878
998 469 0.912395
54 50 0.985194
1218 392 0.166646
235 232 0.999878
597 577 0.990443
1218 663 0.166646
93 86 0.999878
1037 570 0.49994
274 278 0.999878
455 441 0.999878
1257 455 0.333801
636 612 0.999878
998 969 0.0874517
1179 1134 0.749911
817 826 0.0201146
54 545 0.0146834
313 264 0.00101734
856 753 0.499974
313 291 0.000172752
132 135 0.999878
313 309 0.000281403
313 310 0.460177
313 311 0.523442
313 312 0.014787
494 476 0.000565378
494 477 0.999312
352 19 0.999878
675 651 0.0493606
675 652 0.950509
675 654 7.78743e-06
1076 666 1.17526e-05
1076 667 0.999866
856 834 0.499904
1218 1154 0.166646
1037 1001 0.499938
1115 389 0.999878
1218 1172 0.166646
1218 1178 0.166646
1218 1180 0.166646
753 100 0.999878
171 61 0.000434849
714 545 0.571359
1257 1027 0.333293
1193 6 0.103362
171 162 0.999443
792 14 0.399846
533 511 0.000615756
533 512 0.999262
714 693 0.428519
895 874 0.999878
1257 1216 0.332784
611 132 0.999878
430 5 0.999878
792 328 0.200189
29 29 0.999878
210 191 0.738801
210 194 0.261077
391 371 0.999878
572 553 0.999878
934 908 0.999878
831 149 0.999878
1271 40 0.500495
1012 527 0.999878
68 65 0.208096
68 66 0.791782
249 247 0.142976
249 249 0.142022
249 251 0.142976
249 252 0.142976
249 254 0.142976
249 258 0.142976
249 259 0.142976
1051 293 0.999763
288 7 0.608512
973 945 0.999878
1154 1115 0.999878
689 89 0.999878
107 103 0.999878
508 137 0.652538
469 449 0.00017008
469 450 0.999642
469 454 6.61104e-05
288 300 0.00083899
650 627 0.999851
650 641 2.64367e-05
1051 648 0.000114702
792 1117 0.199922
288 336 1.35343e-05
792 1119 0.199921
288 339 0.390228
288 342 0.000286
1193 1143 0.896516
1232 861 0.999878
327 257 0.199976
146 148 0.999878
366 29 0.14294
366 34 0.856937
870 827 0.999878
1168 60 7.36309e-05
508 597 0.0155419
4 4 0.814715
586 170 0.499366
185 180 0.999878
547 525 0.499939
4 54 6.26403e-07
547 529 0.499939
728 703 0.999878
909 884 0.999878
1090 1045 0.000306211
1090 1048 0.00485865
1090 1049 0.994713
1271 1225 0.499383
806 203 0.111098
327 839 0.199976
4 219 0.185162
1129 879 0.501277
1246 6 0.333293
224 158 0.00372699
508 1103 0.331798
43 23 0.267398
1207 352 1.84201e-05
43 43 0.0016266
43 44 0.730854
224 216 0.43773
224 217 0.145912
224 218 0.145908
405 386 0.999878
625 241 0.00154783
586 564 0.500511
767 741 0.999878
224 283 0.111033
948 923 0.999878
1129 1087 0.498601
327 1126 0.199976
664 43 0.293224
327 1127 0.199976
327 1128 0.199976
1026 392 0.999878
224 564 0.145061
263 266 0.999878
444 423 0.999878
82 132 4.87704e-06
625 604 0.99833
806 776 0.111098
806 777 0.111098
806 797 0.111098
806 798 0.111098
806 799 0.111098
806 800 0.111098
806 801 0.111098
806 802 0.111098
987 959 0.999878
1168 1122 0.999593
1168 1124 4.603e-05
1168 1125 0.000165319
82 216 6.16086e-06
1246 648 0.333293
121 106 0.499939
121 115 0.499939
302 303 0.999878
483 463 0.999878
82 466 0.128436
82 467 0.127688
664 638 0.353327
664 639 0.353327
845 825 0.997212
845 826 0.00266571
1207 1156 0.999859
224 1000 0.0105076
82 573 0.121399
341 189 0.999878
82 726 0.255375
1143 319 0.249969
160 156 0.340549
160 157 0.659329
380 12 0.255537
380 28 0.255537
522 501 0.066435
522 502 0.463148
522 503 0.470295
1104 669 0.333293
703 681 0.999878
380 64 0.233684
884 861 0.00061217
884 862 0.499455
1065 1023 0.999878
884 866 0.499811
1246 1202 0.333293
781 111 0.124967
1143 458 0.749909
82 992 0.249822
82 1000 0.117147
1182 243 0.999878
1104 865 0.333292
600 132 0.00943454
18 9 0.99945
199 194 0.999878
380 357 0.255119
561 540 0.460422
561 541 0.539455
742 717 0.49994
742 719 0.499937
923 897 0.000587523
923 898 0.541847
1104 1059 0.333293
923 906 0.457444
238 68 0.433622
18 223 0.000427242
419 249 0.989652
1040 196 0.244708
57 39 0.207972
238 234 0.566255
600 577 0.990443
781 758 0.500008
781 768 0.249935
781 769 0.124967
820 462 0.521146
962 936 0.999878
678 54 0.327123
678 55 0.0184658
1079 61 0.182679
1079 65 0.00173492
57 224 0.198032
859 249 0.0111833
1079 169 0.815464
96 92 0.999854
898 111 0.999878
277 269 0.999878
458 448 0.999878
639 616 0.999878
820 794 0.478732
1040 702 0.755169
57 546 0.593874
678 466 0.327145
419 975 0.0102255
135 66 0.0871786
135 136 0.23841
316 311 0.999878
497 480 0.999878
678 656 0.327144
859 836 0.81369
859 837 0.000251538
859 838 0.174731
859 839 2.20202e-05
756 77 0.447289
1221 1177 0.999878
135 238 0.276753
135 268 0.397537
1157 158 0.221986
174 36 0.38823
394 7 0.17219
1157 328 0.388685
96 784 2.37692e-05
394 11 0.000565636
174 169 0.498172
174 170 0.0580698
355 346 0.999878
536 514 0.999878
717 709 0.999878
1260 1217 0.999878
1157 476 0.389206
756 483 0.0429229
32 32 0.506485
32 35 0.493392
394 362 3.64309e-06
394 368 0.0582261
394 375 0.202278
575 552 0.335879
575 554 0.328121
575 555 0.335879
394 427 0.189061
937 911 0.999878
1118 1073 0.999878
394 453 0.188495
756 857 0.507623
1015 471 0.499939
873 6 0.284088
1196 659 0.999878
71 68 0.833231
252 240 0.999878
433 416 0.999878
614 577 0.999878
756 1067 1.88995e-05
976 950 0.999878
756 1113 0.00202437
174 954 0.055407
213 715 0.999878
71 260 0.166646
110 106 0.999878
653 604 3.70351e-05
291 291 0.999878
472 451 0.999878
834 768 0.249969
653 628 0.999841
834 806 0.249969
834 809 0.249969
834 812 0.249969
1015 1025 0.499939
394 1219 0.189059
330 289 0.111098
149 148 0.999878
330 313 0.111098
330 315 0.111098
330 316 0.111098
330 320 0.111098
330 322 0.111098
511 485 0.999878
330 329 0.111098
330 330 0.111098
330 331 0.111098
369 38 4.774e-05
692 663 0.996451
1054 1010 0.999878
873 853 0.715746
1235 1192 0.999878
951 311 0.261816
7 8 0.999877
369 350 0.99983
550 530 0.499939
550 531 0.499939
873 1170 4.44043e-05
731 708 0.999878
912 888 0.999878
188 264 0.499889
188 265 0.499989
1093 1051 0.999878
7 146 9.3582e-07
1029 41 0.333639
692 1206 0.00342695
46 11 0.000643686
46 53 0.883649
227 221 0.999878
408 387 0.800306
408 388 0.199572
1249 93 0.00838084
589 569 0.999878
770 744 0.999878
951 925 0.738062
1132 1091 0.999878
85 7 0.999878
46 368 0.115585
266 249 0.332583
266 269 0.333536
266 270 0.000222235
447 433 0.999878
628 607 0.992921
628 608 0.00695663
809 784 2.92059e-05
809 785 0.166642
809 786 0.166642
809 788 0.166642
809 789 0.166642
809 790 0.166642
809 793 0.166642
990 961 0.999878
1171 1123 0.999878
1210 853 0.199976
305 90 0.999846
926 40 0.499971
124 122 0.999878
486 466 0.999878
667 642 0.999878
1029 975 0.332599
848 827 0.999878
1029 996 0.33364
1210 1161 0.199976
1210 1162 0.199976
1210 1163 0.199976
1210 1169 0.199976
1107 404 0.999878
525 249 0.999878
266 752 0.333536
163 158 0.856488
383 10 0.725469
344 336 0.999878
887 869 0.999878
1068 1027 0.000221821
1068 1029 0.999656
1249 1205 0.991497
305 903 3.20604e-05
21 19 0.999878
202 191 0.520175
202 192 0.008833
202 194 0.47087
1146 687 0.499939
564 544 0.999878
1004 240 5.67744e-05
823 94 0.000694956
745 721 0.999878
706 1051 0.999878
926 900 0.000102305
926 901 0.499804
823 140 0.730485
383 651 0.129327
965 834 0.000786267
60 56 0.999878
163 839 0.14339
241 248 0.999878
422 414 0.999878
603 585 0.999878
784 758 0.999878
965 938 0.999091
1146 1106 0.499938
681 18 0.999878
280 155 0.999878
1082 234 0.999878
99 101 0.999878
461 443 0.999878
500 146 0.499939
642 618 0.999878
823 781 0.0375652
823 794 0.231133
1121 22 0.00431085
1004 966 0.999821
383 1131 0.145082
1185 1139 0.999878
319 65 0.00123601
1263 561 0.999878
901 384 0.999878
319 264 0.00928711
138 133 0.982876
1121 310 0.000346555
319 309 0.989355
358 16 0.499884
1121 357 0.995203
862 840 0.999878
500 528 0.499939
1043 1002 0.999878
1224 1182 0.999878
1160 149 0.802004
1199 6 0.984512
397 11 0.0027477
177 171 0.533068
539 516 0.499932
358 360 8.88503e-05
539 517 0.499929
358 361 0.4999
539 518 1.69369e-05
358 362 5.36497e-06
979 230 0.999878
720 699 0.999878
177 362 0.466809
35 36 0.999878
397 372 0.99713
578 557 0.990026
578 558 0.00985204
759 737 0.999878
940 914 0.999878
798 456 0.99358
1121 1080 1.70801e-05
617 310 0.00464909
1057 140 0.00012028
1160 955 0.197873
617 523 0.995229
1018 528 0.999878
74 56 0.663034
74 72 0.336844
255 256 0.999878
138 1189 0.0170016
436 419 0.999878
798 758 0.00629803
475 249 0.198324
475 310 0.202071
113 109 0.999878
475 439 0.599483
294 294 0.999878
656 631 0.999878
837 810 0.999878
1199 1143 0.0153658
876 659 0.841167
514 436 0.999878
152 150 0.617307
333 319 0.999878
695 665 0.792195
695 666 0.207683
1135 379 0.999878
1057 1012 0.999757
876 861 0.158711
1238 1194 0.999878
553 392 0.999878
10 8 1.44013e-06
10 10 8.2473e-06
10 11 0.998981
191 188 0.999878
993 196 0.999878
372 351 0.721258
734 711 0.999878
915 891 0.999878
1096 1055 0.999878
230 45 0.667602
10 227 0.0008875
1032 133 0.999878
49 8 0.499695
372 654 0.27862
49 39 0.500172
152 843 0.382571
230 225 0.331954
230 227 0.000321945
411 392 0.999878
592 580 0.198267
592 581 0.19816
592 582 0.207152
592 583 0.198158
773 748 0.480952
773 749 0.518925
592 593 0.198141
49 132 9.95639e-06
954 928 0.999878
269 79 3.43626e-05
269 133 0.297605
88 80 0.3051
88 82 0.347346
88 84 0.347432
450 423 0.999878
1174 1065 0.999878
631 603 0.274499
631 610 0.275449
812 792 0.999878
631 679 0.176576
1213 868 0.999878
1110 108 0.111098
631 756 0.273354
489 291 0.748139
1110 158 0.111098
929 7 0.272574
528 61 0.460472
670 576 0.999878
127 124 0.999878
308 312 0.999878
489 469 0.251739
851 830 0.999878
748 146 0.499713
567 33 0.999878
748 228 0.500164
386 7 3.61092e-05
166 161 0.999878
347 338 0.999878
528 506 0.539406
709 681 0.999878
890 870 0.999878
1071 1031 0.999878
1252 1207 0.999878
386 140 4.8244e-06
269 1124 0.351139
269 1125 0.3511
205 79 0.999878
1227 5 0.00118378
24 22 0.284154
24 23 0.146595
24 27 0.37942
386 366 0.672782
24 63 0.0948548
24 64 0.0948531
1007 249 3.22266e-06
826 94 0.98355
606 249 0.999878
1110 1064 0.111098
1110 1069 0.111098
929 912 0.727303
1110 1071 0.111098
1110 1072 0.111098
826 140 0.016328
1110 1074 0.111098
1110 1075 0.111098
1110 1076 0.111098
787 456 0.999878
386 462 2.46037e-05
244 7 0.493516
386 478 5.89511e-06
425 170 0.549269
386 483 0.327024
1007 440 3.48671e-06
968 827 0.999466
63 59 0.999878
244 243 0.506362
425 404 0.450608
968 941 0.000411892
1149 1110 0.999878
684 225 0.999878
102 94 0.999878
283 284 0.999878
464 446 0.999859
464 447 1.85219e-05
645 620 0.999878
1007 971 0.999871
1188 1132 0.999878
503 368 0.166646
1085 607 0.999878
141 142 0.999878
503 466 0.166646
322 310 0.999878
361 11 0.499532
503 486 0.166646
503 492 0.166646
503 494 0.166646
503 495 0.166646
1227 1155 0.499319
865 845 0.999878
1046 1003 0.999878
1227 1185 5.55206e-05
1227 1214 0.499319
1163 152 0.142871
180 174 0.999878
361 356 0.499532
361 357 0.000813465
542 521 0.999878
723 705 0.999878
1202 97 5.46707e-06
904 879 0.999878
1266 1222 0.999878
1202 310 0.499303
38 39 0.849786
38 40 0.150092
400 380 0.999878
581 558 0.997075
581 560 0.00280261
762 737 0.999878
943 917 0.999878
1124 1081 0.999878
620 306 0.490795
1163 839 0.142869
659 97 0.999878
77 56 0.000480797
1163 999 0.142871
77 71 0.28351
77 72 0.715735
258 255 0.999878
620 599 0.508617
620 600 0.000465428
801 758 0.999878
1099 5 0.999878
982 953 0.999878
1163 1116 0.285527
1163 1118 0.285741
297 55 0.000134826
116 113 0.993042
116 114 0.00683598
478 460 0.999878
297 319 0.999743
336 26 0.999878
840 819 0.999878
1021 985 0.500051
1021 986 0.499826
1202 1146 0.50057
77 539 0.000151488
439 983 0.999878
155 137 0.568811
1060 931 0.999878
517 498 0.999878
375 44 0.999878
698 692 0.999878
879 860 0.999878
1241 1197 0.42006
1241 1198 0.579817
957 272 0.506035
155 295 0.431067
996 85 0.501123
595 132 0.00943454
13 13 0.666685
194 189 0.666516
194 190 0.333362
556 536 0.999878
737 718 0.499914
1216 105 0.999878
737 722 0.499964
918 894 0.999878
634 7 0.999878
957 723 0.493843
1177 574 0.499919
52 49 0.999878
233 229 0.999878
854 82 0.999878
414 399 0.999878
595 577 0.990443
776 751 0.999878
1138 1094 0.999878
1177 881 0.499918
453 310 0.999878
13 622 0.333193
91 38 0.500399
91 58 0.499479
272 276 0.758552
815 795 0.999878
996 964 0.498755
1177 1131 4.0484e-05
272 453 0.241326
531 66 0.154687
130 129 0.333293
130 130 0.333293
130 131 0.333293
1035 931 0.999878
751 3 0.999878
311 309 0.999878
492 472 0.0947917
492 473 0.452543
492 474 0.452543
673 646 0.49991
673 647 0.499968
1255 1027 0.00948014
570 145 0.999878
169 163 0.999878
389 11 0.498055
350 340 0.999878
531 509 0.149541
712 681 0.999878
893 876 0.999878
1074 1034 0.499939
1074 1035 0.499939
1191 114 0.999878
1255 1209 0.330132
1255 1210 0.330133
971 276 0.999878
1255 1212 0.330133
531 666 0.228289
27 26 0.999203
208 197 0.166646
208 198 0.166646
208 199 0.166646
208 206 0.166646
208 207 0.166646
208 212 0.166646
389 377 0.501823
932 907 0.999878
1113 1070 0.999878
27 137 0.000558179
27 158 3.54697e-06
531 973 0.00325251
531 1032 0.464108
27 283 2.21239e-05
66 61 0.966772
66 65 0.0331052
247 245 0.999878
428 412 0.999878
609 589 0.999878
790 769 0.999878
1152 1114 0.999878
27 502 2.05671e-05
27 564 7.09823e-05
829 582 0.324964
829 607 0.674913
687 178 0.333319
506 55 0.999835
467 439 0.000122417
286 287 0.999878
467 448 0.00469913
648 623 0.333183
648 624 0.333347
648 625 0.333347
1010 976 0.999878
907 249 0.496809
687 410 0.504457
467 711 0.995056
144 145 0.999878
325 309 0.000173304
325 310 0.152561
325 311 0.847144
506 487 3.26585e-05
506 490 1.0379e-05
364 29 0.772541
868 847 0.991243
868 849 0.00145866
1049 1008 0.999878
868 851 0.00717603
1230 1186 0.999878
1166 158 0.177284
2 2 0.999878
584 170 0.499939
183 178 0.999878
364 348 0.11754
545 523 0.999878
907 882 0.503069
1088 1046 0.999878
1269 1223 0.999878
687 1148 0.000155217
687 1151 0.161946
765 546 0.999878
623 80 0.499883
222 97 0.246718
584 445 0.499939
1205 352 0.499933
364 657 0.109797
41 42 0.888355
41 43 0.111523
105 1157 0.999878
403 384 0.999878
222 264 4.97529e-05
946 919 0.333165
946 920 0.333356
946 921 0.333356
804 456 0.999878
1127 1086 0.999878
222 306 0.0124538
1166 887 0.822594
261 133 0.410199
261 154 0.0825685
1063 169 0.111098
985 805 0.999878
80 55 0.00024482
80 77 0.927341
80 89 0.000160833
261 261 0.50711
442 428 0.999878
623 637 0.499995
1244 545 0.999878
481 249 0.999878
80 249 0.000794825
80 293 0.0713361
300 255 0.999878
119 116 0.199976
119 117 0.199976
119 118 0.199976
119 119 0.199976
119 120 0.199976
662 635 0.999878
843 805 0.999878
222 957 0.246875
1024 992 0.999878
1205 1168 0.499945
222 1063 0.493778
882 648 0.0821668
222 1124 2.71656e-06
1063 827 0.555488
520 427 0.99984
559 133 2.80137e-05
520 453 3.72257e-05
559 154 0.455619
158 154 0.999878
701 690 0.999878
1141 387 0.999878
882 861 2.20909e-05
1063 1018 0.111098
1063 1019 0.111098
1063 1020 0.111098
882 863 0.461656
882 864 0.000106537
882 865 0.225227
882 866 0.2307
339 562 0.512096
339 563 0.487782
598 132 0.00943454
16 16 0.999878
197 192 0.999878
378 354 0.999878
559 539 0.54423
740 712 0.999878
921 898 0.000170639
921 900 0.999707
1102 1058 0.999878
1038 69 0.500328
999 469 0.999878
1258 19 0.999878
55 51 0.999878
456 68 0.333167
417 381 0.999878
236 233 0.999878
598 577 0.990443
779 754 0.999878
960 933 0.00047929
960 934 0.999398
1077 61 0.277333
1077 238 0.361269
495 79 0.999878
94 87 0.999878
275 279 7.02041e-05
275 280 0.497212
275 282 0.502596
456 442 0.333385
456 449 0.333326
637 615 0.999878
818 780 0.999878
715 12 1.20048e-05
1180 1136 0.999878
715 132 0.999866
1038 803 0.499549
314 264 0.00157514
133 132 0.999878
314 309 0.000346078
314 310 0.824622
314 311 0.13667
314 312 0.0366652
676 650 0.999878
754 40 0.199976
1219 1149 0.000383894
857 835 0.999878
1219 1175 4.83839e-05
1219 1176 0.999445
896 648 0.999878
172 61 0.252566
534 404 0.999878
172 166 0.253107
353 344 0.999878
392 44 0.333294
1155 378 0.340163
1077 1037 0.361276
793 174 7.51042e-05
211 79 0.999878
172 448 0.252
793 319 0.999717
573 497 0.999878
30 29 0.405115
30 30 0.593002
30 35 0.00176102
392 373 0.333293
392 376 0.333291
754 727 0.199976
754 728 0.199976
754 730 0.199976
754 731 0.199976
1116 1066 0.99974
935 909 0.999878
1116 1067 0.0001374
651 7 0.996793
1052 55 0.0129455
1155 955 0.659715
470 34 0.499623
172 826 0.242204
470 66 0.500255
69 67 0.999878
250 253 0.999878
431 414 0.999878
612 592 0.999878
974 949 0.999878
1052 423 0.492391
793 995 8.55118e-05
108 104 0.999878
289 289 0.999878
651 604 0.00308448
871 481 0.503219
1052 648 0.0021554
1052 649 0.492386
832 804 0.999878
1013 979 0.999878
1194 1142 0.999878
1091 439 0.999878
949 43 0.499939
729 238 0.999878
147 150 0.999878
509 488 0.999878
367 34 0.126633
367 35 0.873244
690 660 0.515485
690 661 0.484393
871 851 0.496659
1233 1188 0.999878
328 468 0.325357
328 471 0.325354
1130 528 0.124985
5 6 0.0833905
186 181 0.499939
5 54 0.0833323
548 527 0.999878
910 885 0.999878
328 747 0.325357
328 748 0.0238101
1272 1225 0.00222469
1272 1226 0.997653
225 6 0.249838
1169 539 0.535306
1169 598 0.464572
406 291 0.999834
5 347 0.66664
44 44 0.999872
5 378 0.166515
587 567 0.999878
44 110 5.75817e-06
768 742 0.999878
949 924 0.499939
1130 1088 0.124985
1130 1089 0.124985
1130 1092 0.124985
1130 1093 0.124985
1130 1095 0.124985
1130 1098 0.124985
1130 1099 0.124985
406 528 4.4142e-05
83 60 0.000131281
83 61 2.18924e-06
83 68 0.919604
885 114 0.999878
264 267 0.999878
445 431 0.999878
626 602 0.999878
484 137 0.999878
83 137 0.00717222
225 605 0.75004
1066 310 0.500173
807 783 0.999878
83 155 2.13816e-06
988 960 0.999878
83 270 0.0728149
186 1052 0.499939
1066 456 0.499705
924 97 0.314314
924 146 0.314273
303 304 0.499939
303 306 0.499938
665 636 0.999878
846 824 0.999878
1027 993 0.999878
1208 1164 0.999878
83 564 0.00013905
122 274 0.999878
743 146 0.999878
1247 1027 0.374079
161 155 0.400635
342 334 0.999878
523 507 0.999878
83 836 1.22727e-05
381 64 0.0787713
704 691 0.999878
1247 1201 0.625799
161 287 0.426676
601 132 0.00943454
19 18 0.3999
19 24 0.0666519
19 28 0.0667505
19 29 0.0666519
19 30 0.0666519
19 34 0.0666519
19 35 0.0666519
19 36 0.0666519
200 196 0.999878
381 359 0.921106
562 542 0.999878
1002 240 0.999878
924 898 9.10775e-06
1105 1060 0.999878
924 906 0.0490073
1041 133 0.999878
19 349 0.0666519
19 350 0.0666519
963 827 0.999878
924 1148 0.314055
58 54 0.999878
924 1151 0.00822015
239 231 0.249968
239 235 0.249972
239 236 0.249972
239 237 0.249966
420 401 0.999878
601 577 0.990443
782 758 0.999878
860 149 0.000341242
161 931 0.172567
1144 1104 0.499939
1183 868 0.999878
860 249 0.553601
1144 1220 0.499939
19 660 1.27473e-05
498 55 5.19183e-06
97 59 0.999558
97 66 0.000320119
278 249 0.999878
640 608 0.999878
821 784 0.999878
317 65 0.999878
136 60 9.88622e-05
136 137 3.26745e-05
136 138 0.890446
498 481 0.999873
136 169 0.0173692
356 23 0.142997
679 655 0.999878
356 54 0.42899
860 838 0.445935
1222 1181 0.999878
757 132 0.999878
175 79 0.158547
1197 6 0.600357
899 793 0.999878
175 170 0.753703
1119 648 0.999878
356 347 0.285492
537 515 0.499947
537 518 0.49993
718 696 0.999878
1080 1038 0.999878
1261 1218 0.999863
1261 1219 1.47849e-05
356 455 0.142398
33 33 9.84026e-06
33 34 0.799874
33 35 1.75283e-05
395 362 2.9441e-05
214 209 0.714969
136 834 0.0919165
395 375 0.999848
576 549 0.999878
136 868 1.46223e-05
938 912 0.999878
796 456 0.993701
175 784 0.0101095
1158 955 0.999878
175 834 0.0775182
72 69 0.458905
253 255 0.999878
434 417 0.999878
615 575 0.999878
796 758 0.00617655
977 951 0.999878
72 196 0.0842024
874 334 0.172905
292 205 0.666564
111 107 0.999878
292 292 0.333314
473 455 0.999878
654 630 0.999878
331 26 0.999878
835 811 0.999878
1016 980 0.999878
1197 1139 0.000505145
1197 1140 0.000485771
1197 1142 0.000437957
214 977 0.284909
1197 1143 0.398092
72 582 0.456771
33 903 0.199977
150 149 0.630759
512 491 0.999878
370 38 0.00038972
693 664 0.999878
874 854 5.26089e-06
1055 1011 0.999878
874 855 0.413505
874 856 0.413464
370 89 0.999488
1236 1193 0.999878
590 69 0.333835
551 392 0.999878
8 5 0.999878
409 29 0.00160572
189 186 0.999878
732 709 0.0223799
732 710 0.977498
1094 1044 0.999878
913 889 0.999743
913 949 0.000134773
1030 26 0.999878
448 7 5.17278e-05
47 19 1.26797e-05
47 46 0.886772
47 47 0.113093
228 222 0.999878
409 398 0.998272
590 571 0.333021
771 745 0.999878
952 926 0.999878
1133 1090 0.999878
1250 188 0.334361
150 956 0.369119
448 241 0.00108073
590 805 0.333021
86 89 0.902876
267 272 0.499938
629 609 0.999878
810 779 0.999878
1172 1119 0.999878
991 962 0.999878
86 205 0.0968004
1211 890 0.249969
526 5 0.154252
526 66 0.152059
448 722 0.998745
125 123 0.49994
125 126 0.499938
668 609 0.99865
487 465 0.999878
86 462 0.000201538
306 309 0.999878
345 7 0.00426141
668 641 0.00122721
267 640 0.49994
849 828 0.999878
1147 60 0.000347224
1211 1159 0.24997
1211 1160 0.24997
1211 1165 0.249969
526 249 0.13
565 23 0.407711
888 669 0.999878
565 64 0.592166
526 440 0.154616
526 456 0.000134872
164 159 0.999878
345 336 0.124854
345 343 0.870763
707 681 0.997239
707 682 0.00263904
785 90 0.0666587
1069 1028 0.999878
1250 1203 0.333454
1250 1206 0.332062
1005 28 0.169576
1005 50 0.169834
604 133 0.999878
1225 7 0.00175682
22 20 0.999878
203 202 0.999878
746 678 0.498975
384 364 0.497833
384 365 0.502044
526 868 0.309238
746 723 0.500903
927 900 0.192446
927 902 0.807431
1108 1062 0.999878
824 140 0.899482
526 971 0.0995782
1044 133 0.000228445
1044 196 0.109933
61 57 0.666522
61 58 0.333356
1044 231 0.0154517
423 384 0.902468
242 242 0.999878
423 404 0.0974098
785 757 0.0666587
785 759 0.0666586
785 760 0.0666586
785 761 0.0666586
785 762 0.0666586
785 763 0.0666586
785 764 0.0666586
785 765 0.0666583
785 766 0.0666587
785 767 0.0666587
785 770 0.0666587
785 772 0.0666587
785 774 0.0666587
785 775 0.0666584
966 939 0.499939
682 6 0.999878
1147 1107 0.99953
966 1138 0.499939
281 216 0.999878
100 68 0.999878
643 570 0.00168912
462 444 0.999878
643 604 0.998189
824 781 0.100396
1122 23 0.0429995
1005 967 0.169835
1005 968 0.169835
1005 969 0.150963
1005 970 0.169835
1186 1140 0.999878
501 276 0.968479
139 140 0.999878
320 310 0.999878
501 484 0.0313986
760 55 0.999878
359 53 0.999878
863 842 0.999878
1044 1005 0.874265
1225 1183 0.998121
1161 149 0.866401
980 132 0.335265
1200 6 0.0195126
178 172 0.999878
1264 1122 0.999878
540 519 0.859511
540 520 0.140367
980 231 0.329345
721 695 0.996694
721 697 0.00299481
721 698 0.00018904
902 878 0.999878
1083 1052 0.999878
36 37 0.999878
398 374 0.999878
579 556 0.999878
941 915 0.999878
1122 1082 0.956878
618 310 0.999878
1161 955 0.133477
75 16 5.142e-06
1200 659 4.39595e-05
75 89 0.521663
256 250 0.999878
437 438 0.999878
75 140 0.116491
799 771 0.999878
980 1004 0.335267
476 262 0.165886
75 262 0.167866
877 310 0.00356023
75 365 0.0011522
75 368 0.0275081
114 77 0.166647
114 96 0.166647
114 97 0.166647
696 262 0.999878
114 110 0.166643
114 111 0.166647
114 112 0.166647
295 291 0.499929
295 296 0.499949
476 456 0.165885
476 457 0.497658
476 462 0.170449
657 632 0.999878
838 815 0.333293
838 816 0.333293
838 817 0.333292
1019 982 0.999878
1200 1140 3.46778e-05
1200 1142 2.57408e-05
1200 1143 0.980261
735 102 0.999878
515 314 0.999878
1097 482 0.999878
554 89 0.000152056
153 146 0.999878
334 314 0.111094
334 317 0.111097
334 318 0.111098
334 321 0.111098
334 324 0.111097
334 325 0.111098
334 326 0.111098
334 327 0.111098
334 328 0.111098
916 528 1.48579e-05
1136 387 0.999878
877 858 0.996317
1058 1016 0.999878
1239 1195 0.999878
75 886 0.165193
373 137 0.0769137
373 283 0.0769137
593 132 6.74269e-06
373 286 0.0769137
11 12 0.0710583
192 184 0.124761
192 185 0.124761
192 187 0.124761
192 195 0.124761
373 352 0.230741
192 200 0.124761
192 201 0.124761
192 208 0.124761
11 54 0.317356
192 211 0.00178973
192 214 0.12476
554 535 0.999726
916 892 0.666571
916 895 5.03367e-06
11 132 0.187514
916 932 0.333287
11 149 0.0628725
11 220 0.329113
11 225 0.0319644
373 564 0.0769137
373 574 0.384569
373 658 0.0769137
50 36 0.00012561
50 39 0.599554
451 50 0.998945
231 226 0.588935
231 227 0.000202126
412 393 0.999878
994 562 0.999878
593 580 0.249861
593 581 0.249995
593 583 0.249997
593 593 0.250018
774 750 0.999878
955 929 0.999878
50 170 0.000595892
270 133 0.00170358
50 349 0.399602
231 548 0.116334
89 82 0.000175131
270 249 0.326372
451 423 0.000932302
270 273 0.335901
632 611 0.999878
813 787 0.999878
1175 1129 0.999878
529 14 0.150883
529 77 0.00100733
1072 564 0.333292
309 264 0.00509787
128 127 0.999878
309 310 0.504557
309 311 0.4785
309 312 0.0117235
490 470 0.999878
671 643 0.999878
852 831 0.999878
1033 997 0.999878
1214 1171 0.999878
89 554 0.00152638
749 150 0.999878
568 23 0.499939
89 679 0.253213
568 64 0.499939
231 1175 0.294407
167 133 0.999878
89 755 0.705422
89 756 0.00536492
529 483 0.136509
348 338 0.999878
89 808 0.0341763
529 508 0.301768
710 679 0.999878
270 994 0.335901
529 539 0.127739
891 871 0.499934
891 873 0.499944
1072 1033 0.666585
1253 1208 0.999878
206 79 0.999878
25 24 0.889811
25 42 0.110067
387 367 0.999878
529 857 0.131765
930 905 0.999878
1111 1077 0.999878
788 456 2.96501e-05
529 1113 0.150206
64 60 0.998877
64 61 5.11148e-06
64 66 2.91177e-06
245 244 0.999878
426 409 0.999878
607 587 0.999878
788 758 0.999848
969 942 0.999878
64 168 0.00097459
1150 1111 0.999878
64 237 4.04065e-07
1267 293 0.999878
1228 725 0.499967
103 96 0.999878
284 285 0.999878
465 446 2.59076e-05
465 447 0.999852
646 622 0.999878
827 791 0.999878
1008 972 0.50525
1008 973 0.494628
1189 1143 0.999878
142 143 0.999878
323 309 0.999878
504 487 0.999878
362 26 0.166646
362 28 0.833232
685 659 0.999878
866 846 0.199103
866 847 0.402859
866 848 0.199103
1047 1006 0.999878
866 849 0.198813
1228 1185 0.499911
64 995 1.83109e-05
724 617 0.503477
