2 0.128525 0.731107 0.100792 0.005817 0.00562642 0 0.0225418 0.00559011 0 0 
3 0.26891 0.693293 0.0253168 0.00450841 3.83911e-07 0.0031885 0 0 0.0014754 0.0033079 
4 0.101675 0.799152 0.0712121 0.00410984 0.00397519 0 0.0159263 0.00394954 0 0 
5 0.118146 0.876883 0.00497138 0 0 0 0 0 0 0 
6 0.413913 0.584346 1.03704e-05 0 0 0.0017302 0 0 0 0 
7 0.288114 0.708705 2.78006e-06 0 0 0.00317792 0 0 0 0 
8 0.128525 0.731107 0.100792 0.005817 0.00562642 0 0.0225418 0.00559011 0 0 
9 0.180264 0.739925 0.0430746 0.0262314 0.00532244 0 0 0 0.00514505 3.72098e-05 
10 0.322819 0.631701 0.0305033 0.0054101 4.60693e-07 0.0038262 0 0 0.00177048 0.00396948 
11 0.343455 0.624517 0.0222965 0.00324346 0.00162211 0 0 0.00324364 0.00162259 0 
12 0.282951 0.712465 4.00656e-06 0 0 0.00457995 0 0 0 0 
13 0.251749 0.702484 0.0318237 0.00464734 0.00232422 0 0 0.0046476 0.0023249 0 
14 0.269133 0.69204 0.0270008 0.00394141 0.00197117 0 0 0.00394164 0.00197175 0 
15 0.204461 0.689924 0.0490192 0.0297996 0.0209182 0 0 0 0.00583617 4.22081e-05 
16 0.331456 0.619948 0.0325502 0.00579653 4.93599e-07 0.0040995 0 0 0.00189695 0.00425301 
17 0.163609 0.740436 0.0861106 0.00672687 7.84654e-05 0 0 0 0.00303899 0 
18 0.139601 0.724221 0.0977839 0.00564336 0.00545847 0 0.0218689 0.00542325 0 0 
19 0.208613 0.703917 0.0458994 0.0156397 0.00900794 0 0 0 0 0.0169227 
20 0.225967 0.694199 0.0462034 0.0126524 0.0185232 0 0 0 0 0.00245431 
21 0.269163 0.726446 3.83727e-06 0 0 0.00438643 0 0 0 0 
22 0.124689 0.739133 0.0977837 0.00564336 0.00545847 0 0.0218689 0.00542325 0 0 
23 0.150535 0.722573 0.0890393 0.014554 0 0.000875121 0.0146571 0 0 0.0077661 
24 0.147702 0.730379 0.113032 0.00607287 7.08368e-05 0 0 0 0.00274353 0 
25 0.317977 0.635423 0.0312125 0.00555832 4.73315e-07 0.00393102 0 0 0.00181899 0.00407823 
26 0.275343 0.720387 3.73214e-06 0 0 0.00426625 0 0 0 0 
27 0.360138 0.581784 0.0406996 0.00322213 0 0 0 1.29467e-06 0.0106116 0.00354415 
28 0.304704 0.690573 4.12797e-06 0 0 0.00471873 0 0 0 0 
29 0.357186 0.590479 0.035054 0.00624242 5.31569e-07 0.00441484 0 0 0.00204287 0.00458016 
30 0.209276 0.682315 0.0785412 0.0169272 0.00968018 0 0 0 0 0.0032602 
31 0.16113 0.743606 0.085569 0.00662494 7.72766e-05 0 0 0 0.00299294 0 
32 0.152816 0.68885 0.119908 0.0147745 0 0.000888381 0.0148792 0 0 0.00788377 
33 0.154129 0.755476 0.0811206 0.0063369 7.39167e-05 0 0 0 0.00286281 0 
34 0.336757 0.613296 0.0336673 0.00588054 5.00753e-07 0.00415891 0 0 0.00192444 0.00431465 
35 0.16113 0.744369 0.0848059 0.00662494 7.72766e-05 0 0 0 0.00299294 0 
36 0.255556 0.697983 0.0323058 0.00471775 0.00235943 0 0 0.00471802 0.00236013 0 
37 0.148321 0.71195 0.102433 0.01434 0 0.000862252 0.0144415 0 0 0.00765189 
38 0.280833 0.619676 0.0713163 0.00522376 0 0 0 2.09894e-06 0.0172036 0.00574582 
39 0.298105 0.697566 3.78398e-06 0 0 0.00432551 0 0 0 0 
40 0.266143 0.640929 0.0561922 0.0262314 0.00532244 0 0 0 0.00514505 3.72098e-05 
41 0.231051 0.726884 0.029267 0.00426537 0.00213319 0 0 0.00426561 0.00213381 0 
42 0.327188 0.626843 0.0307907 0.00548321 4.66918e-07 0.0038779 0 0 0.00179441 0.00402312 
43 0.285331 0.706083 1.06431e-06 0 0.00858487 0 0 0 0 0 
44 0.324172 0.671558 3.73214e-06 0 0 0.00426625 0 0 0 0 
45 0.160163 0.749444 0.0811193 0.0063369 7.39167e-05 0 0 0 0.00286281 0 
46 0.294062 0.701485 3.89209e-06 0 0 0.00444909 0 0 0 0 
47 0 0.870994 0.0350725 2.87877e-07 0.0313109 0 0 0 0 0.0626223 
48 0.33181 0.62159 0.0312125 0.00555832 4.73315e-07 0.00393102 0 0 0.00181899 0.00407823 
49 0.4355 0.514141 0.0353821 0.0054101 4.60693e-07 0.0038262 0 0 0.00177048 0.00396948 
50 0.284174 0.71188 3.45224e-06 0 0 0.00394223 0 0 0 0 
51 0.15639 0.749747 0.0844528 0.00643009 7.50037e-05 0 0 0 0.00290491 0 
52 0.201454 0.709346 0.0481421 0.0293175 0.00594861 0 0 0 0.00575035 4.15874e-05 
53 0.201455 0.709345 0.0481423 0.0293175 0.00594861 0 0 0 0.00575035 4.15874e-05 
54 0.126578 0.734729 0.0997169 0.00572887 0.00554117 0 0.0222003 0.00550542 0 0 
55 0 0.859745 0.0379091 3.13657e-07 0.0341149 0 0 0 0 0.0682303 
56 0.158725 0.748185 0.0835401 0.00652606 7.61232e-05 0 0 0 0.00294827 0 
57 0.155213 0.752594 0.0829196 0.0063369 7.39167e-05 0 0 0 0.00286281 0 
58 0.0898378 0.905384 0.00477864 0 0 0 0 0 0 0 
59 0.273585 0.723099 2.89836e-06 0 0 0.00331315 0 0 0 0 
60 0.257278 0.733888 6.22428e-07 0 0.00883371 0 0 0 0 0 
61 0.280833 0.609872 0.0811197 0.00522384 0 0 0 2.09894e-06 0.0172036 0.00574582 
62 0.0240157 0.951897 7.17406e-05 0 0 0 0 0 0.0240151 0 
63 0.0210952 0.957769 4.20095e-05 0 0 0 0 0 0.0210943 0 
64 0.177114 0.784579 0.0167149 0.0159791 0.00101896 0 0 0 0 0.00459441 
65 0.622812 0.357099 0.0136699 0.00231861 1.9744e-07 0.0016398 0 0 0.000758779 0.0017012 
66 0.351238 0.612674 0.0245081 0.00418307 3.56206e-07 0.0029584 0 0 0.00136893 0.00306918 
67 0.142247 0.774592 0.0746292 0.00582995 6.80034e-05 0 0 0 0.00263379 0 
68 0.25782 0.640611 0.08962 0.00431657 3.67574e-07 0.00305282 0 0 0.00141262 0.00316714 
69 0.259488 0.693336 0.0328029 0.00479033 0.00239573 0 0 0.00479061 0.00239644 0 
70 0.17628 0.714067 0.0964466 0.0101357 7.72766e-05 0 0 0 0.00299294 0 
71 0.200288 0.72405 0.0471896 0.0160865 0.00926531 0 0 0 0 0.00312048 
72 0.156385 0.755736 0.0788669 0.0061584 7.18346e-05 0 0 0 0.00278217 0 
73 0.209258 0.711691 0.049303 0.0168068 0.00968018 0 0 0 0 0.0032602 
74 0.154906 0.765046 0.0349294 0.0333892 0.00212917 0 0 0 0 0.00960027 
75 0.328074 0.633015 0.0270853 0.00394141 0.00197117 0 0 0.00394164 0.00197175 0 
76 0.292588 0.670466 0.0256894 0.00375147 0.00187618 0 0 0.00375168 0.00187673 0 
77 0.165454 0.695885 0.100808 0.0145547 0 0.000875121 0.0146571 0 0 0.0077661 
78 0.163609 0.740436 0.0861106 0.00672687 7.84654e-05 0 0 0 0.00303899 0 
79 0.215695 0.702823 0.0508196 0.0173239 0.00997803 0 0 0 0 0.00336052 
80 0.215771 0.710122 0.0400594 0.024312 0.00493299 0 0 0 0.00476858 3.44871e-05 
81 0.259488 0.677952 0.0328028 0.00479034 0.0177803 0 0 0.00479061 0.00239644 0 
82 0.239413 0.69082 0.0435419 0.0148165 0.00853384 0 0 0 0 0.00287413 
83 0.32384 0.642085 0.0236938 0.00345969 0.00173025 0 0 0.00345988 0.00173076 0 
84 0.215695 0.702821 0.0508216 0.0173239 0.00997803 0 0 0 0 0.00336052 
85 0.215769 0.702747 0.0508218 0.0173239 0.00997803 0 0 0 0 0.00336052 
86 0.232269 0.690894 0.0414957 0.0252353 0.00512032 0 0 0 0.00494966 3.57968e-05 
87 0.171279 0.527192 0.175827 1.09427e-05 0.0359042 0 0.0179574 0.000636112 0.0711934 0 
88 0.155167 0.698652 0.0936575 0.0285079 0 0.000902048 0.0151081 0 0 0.00800506 
89 0.20961 0.492338 0.176046 1.06208e-05 0.0348482 0 0.0174293 0.000617403 0.0690995 0 
90 0.166269 0.757669 0.0682584 0.00533227 6.21982e-05 0 0 0 0.00240895 0 
91 0.128525 0.71575 0.116149 0.00581701 0.00562642 0 0.0225418 0.00559011 0 0 
92 0.182935 0.743628 0.0320276 0.0306449 0.00195417 0 0 0 0 0.00881121 
93 0 0.947164 0.000257135 0.0525785 0 0 0 0 0 0 
94 0.159314 0.75821 0.0359691 0.0344166 0.00219468 0 0 0 0 0.00989567 
95 0.165158 0.738887 0.0861106 0.00672687 7.84654e-05 0 0 0 0.00303899 0 
96 0.267808 0.723484 6.17811e-07 0 0.00870751 0 0 0 0 0 
97 0.295981 0.609878 0.065966 0.00522376 0 0 0 2.09894e-06 0.0172036 0.00574582 
98 0.259488 0.677952 0.0328028 0.00479033 0.00239573 0 0 0.00479065 0.017781 0 
99 0.163608 0.740437 0.0861106 0.00672687 7.84654e-05 0 0 0 0.00303899 0 
100 0.259495 0.693329 0.0328028 0.00479033 0.00239573 0 0 0.00479061 0.00239644 0 
101 0.288448 0.70745 4.02719e-06 0 0 0.00409785 0 0 0 0 
102 0.128525 0.731107 0.100792 0.005817 0.00562642 0 0.0225418 0.00559011 0 0 
103 0.215695 0.702823 0.0508196 0.0173239 0.00997803 0 0 0 0 0.00336052 
104 0.303309 0.597086 0.0734134 0.0048559 0 0 0 1.95112e-06 0.0159921 0.00534119 
105 0.270708 0.682831 0.0323058 0.00471775 0.00235943 0 0 0.00471802 0.00236013 0 
106 0.210752 0.695931 0.0503641 0.0306706 0.00622316 0 0 0 0.00601575 4.35068e-05 
107 0.16113 0.744369 0.0848059 0.00662494 7.72766e-05 0 0 0 0.00299294 0 
108 0 0.974753 4.48027e-07 0 0 0.0252466 0 0 0 0 
109 0 0.947164 0.000257135 0.0525785 0 0 0 0 0 0 
110 0.155167 0.714037 0.091779 0.0150018 0 0.000902048 0.0151081 0 0 0.00800506 
111 0.215695 0.702823 0.0508196 0.0173239 0.00997803 0 0 0 0 0.00336052 
112 0.259488 0.693336 0.0328028 0.00479033 0.00239573 0 0 0.00479061 0.00239644 0 
113 0.259488 0.693336 0.0328028 0.00479033 0.00239573 0 0 0.00479061 0.00239644 0 
114 0.155167 0.698652 0.091779 0.0150018 0 0.000902454 0.0304923 0 0 0.00800506 
115 0.215695 0.702823 0.0508196 0.0173239 0.00997803 0 0 0 0 0.00336052 
116 0.21087 0.695711 0.0504666 0.0306706 0.00622316 0 0 0 0.00601575 4.35068e-05 
117 0.215797 0.702603 0.0509374 0.0173239 0.00997803 0 0 0 0 0.00336052 
118 0.291523 0.615739 0.0649838 0.0051458 0 0 0 2.06761e-06 0.0169468 0.00566006 
119 0 0.959368 4.48027e-07 0 0 0.0406312 0 0 0 0 
120 0 0.917758 0.0822411 0 0 0 0 0 0 0 
121 0.280833 0.625028 0.065964 0.00522376 0 0 0 2.09894e-06 0.0172036 0.00574582 
122 0.266667 0.687565 0.0318237 0.00464734 0.00232422 0 0 0.0046476 0.0023249 0 
123 0.257734 0.732888 6.60731e-07 0 0.00937732 0 0 0 0 0 
124 0.257734 0.732888 6.60731e-07 0 0.00937732 0 0 0 0 0 
125 0.056916 0.546203 0.321133 7.87141e-06 0.0757396 0 0 0 0 0 
126 0.0236518 0.95265 4.71016e-05 0 0 0 0 0 0.0236512 0 
127 0.215695 0.702823 0.0508196 0.0173239 0.00997803 0 0 0 0 0.00336052 
128 0.215695 0.702823 0.0508196 0.0173239 0.00997803 0 0 0 0 0.00336052 
129 0.234312 0.675157 0.0488607 0.029755 0.0060374 0 0 0 0.00583617 4.22081e-05 
130 0.210752 0.680546 0.0503641 0.0460552 0.00622316 0 0 0 0.00601574 4.35068e-05 
131 0.285153 0.619259 0.0669788 0.00530413 0 0 0 2.13123e-06 0.0174682 0.00583422 
132 0 0.976216 4.22055e-07 0 0 0.023783 0 0 0 0 
133 0.235089 0.724563 0.0280551 0.004097 0.00204898 0 0 0.00409723 0.00204958 0 
134 0.171291 0.752888 0.0409218 0.0249198 0.00505632 0 0 0 0.00488779 3.53493e-05 
135 0.191016 0.771188 0.0272989 0.00349856 0.00174969 0 0 0.00349876 0.00175021 0 
136 0.237273 0.683677 0.0493031 0.0168068 0.00968018 0 0 0 0 0.0032602 
137 0.257734 0.732888 6.60731e-07 0 0.00937732 0 0 0 0 0 
138 0.235677 0.677671 0.0467667 0.0284798 0.00577865 0 0 0 0.00558605 4.03992e-05 
139 0.356957 0.590708 0.035054 0.00624242 5.31569e-07 0.00441484 0 0 0.00204287 0.00458016 
140 0.280833 0.625028 0.065964 0.00522376 0 0 0 2.09894e-06 0.0172036 0.00574582 
141 0 0.975135 4.41239e-07 0 0 0.0248641 0 0 0 0 
142 0.0236518 0.95265 4.71016e-05 0 0 0 0 0 0.0236512 0 
143 0.294007 0.701197 4.19148e-06 0 0 0.00479133 0 0 0 0 
144 0.272577 0.636053 0.0640239 0.00507012 0 0 0 2.0372e-06 0.0166976 0.00557683 
145 0 0.947964 0.000253239 0.0517819 0 0 0 0 0 0 
146 0.242722 0.677031 0.0500496 0.0170615 0.00982685 0 0 0 0 0.0033096 
147 0.236875 0.682878 0.0500496 0.0170615 0.00982685 0 0 0 0 0.0033096 
148 0.186775 0.727785 0.0766738 0.00598968 6.98665e-05 0 0 0 0.00270595 0 
149 0.152824 0.718362 0.0903884 0.0147745 0 0.000888381 0.0148792 0 0 0.00788377 
150 0.235288 0.722123 0.0296137 0.00432461 0.00216281 0 0 0.00432485 0.00216345 0 
151 0.212427 0.707326 0.0500496 0.0170615 0.00982685 0 0 0 0 0.0033096 
152 0.113429 0.880794 0.00577716 0 0 0 0 0 0 0 
153 0.289553 0.705724 4.12797e-06 0 0 0.00471873 0 0 0 0 
154 0.261398 0.639096 0.0601832 0.0280787 0.00569726 0 0 0 0.00550737 3.98302e-05 
155 0.169013 0.737897 0.0835401 0.00652606 7.61232e-05 0 0 0 0.00294827 0 
156 0.303003 0.692544 3.89209e-06 0 0 0.00444909 0 0 0 0 
157 0.126578 0.735181 0.0992653 0.00572887 0.00554117 0 0.0222003 0.00550542 0 0 
158 0.207559 0.700538 0.049601 0.0302059 0.00612887 0 0 0 0.0059246 4.28476e-05 
159 0.162702 0.760713 0.0333999 0.0319582 0.00203792 0 0 0 0 0.00918883 
160 0.262986 0.691195 0.0320801 0.004579 0.00229004 0 0 0.00457926 0.00229071 0 
161 0.210333 0.702347 0.0580108 0.0165596 0.00953782 0 0 0 0 0.00321226 
162 0.244173 0.684255 0.0446394 0.015217 0.00876448 0 0 0 0 0.0029518 
163 0.16593 0.717607 0.0817211 0.0133578 0 0.000803193 0.0134524 0 0 0.00712779 
164 0.356952 0.590713 0.035054 0.00624242 5.31569e-07 0.00441484 0 0 0.00204287 0.00458016 
165 0.280833 0.625028 0.065964 0.00522376 0 0 0 2.09894e-06 0.0172036 0.00574582 
166 0 0.917758 0.0822411 0 0 0 0 0 0 0 
167 0.220264 0.699488 0.0500496 0.0170615 0.00982685 0 0 0 0 0.0033096 
168 0.220366 0.673617 0.0692812 0.0262314 0.00532244 0 0 0 0.00514505 3.72098e-05 
169 0 0.943736 0 0.0281319 0 0.0281318 1.04532e-07 0 0 0 
170 0.056916 0.546203 0.321133 8.16439e-06 0.0757396 0 0 0 0 0 
171 0.0240157 0.951914 5.45188e-05 0 0 0 0 0 0.024015 0 
172 0.125418 0.723532 0.112656 0.00564337 0.00545847 0 0.0218689 0.00542325 0 0 
173 0.255239 0.687527 0.0438883 0.00444817 0.00222461 0 0 0.00444842 0.00222526 0 
174 0.177483 0.748754 0.0401253 0.0240191 0.00487356 0 0 0 0.00471113 3.40716e-05 
175 0.303113 0.606801 0.0649574 0.00465903 0 0 0 1.87202e-06 0.0153437 0.00512465 
176 0.163608 0.740437 0.0861106 0.00672687 7.84654e-05 0 0 0 0.00303899 0 
177 0.257439 0.696099 0.0323059 0.00471775 0.00235943 0 0 0.00471802 0.00236013 0 
178 0.294007 0.701197 4.19148e-06 0 0 0.00479133 0 0 0 0 
179 0.056916 0.561587 0.305749 7.87141e-06 0.0757396 0 0 0 0 0 
180 0.250047 0.740855 6.41008e-07 0 0.0090974 0 0 0 0 0 
181 0 0.928351 0 0.0435165 0 0.0281318 1.04532e-07 0 0 0 
182 0.257734 0.732888 6.60731e-07 0 0.00937732 0 0 0 0 0 
183 0.056916 0.561587 0.305749 7.87141e-06 0.0757396 0 0 0 0 0 
184 0.210752 0.695931 0.0503641 0.0306706 0.00622316 0 0 0 0.00601575 4.35068e-05 
185 0 0.943736 0 0.0281319 0 0.0281318 1.04532e-07 0 0 0 
186 0.16113 0.744369 0.0848059 0.00662494 7.72766e-05 0 0 0 0.00299294 0 
187 0.159314 0.75821 0.0359691 0.0344166 0.00219468 0 0 0 0 0.00989567 
188 0.172051 0.731574 0.0505724 0.0338952 0.00216143 0 0 0 0 0.00974573 
189 0.212427 0.707326 0.0500496 0.0170615 0.00982685 0 0 0 0 0.0033096 
190 0.258963 0.696596 0.0309012 0.00451263 0.00225685 0 0 0.00451289 0.00225751 0 
191 0.207559 0.700538 0.049601 0.0302059 0.00612887 0 0 0 0.0059246 4.28476e-05 
192 0.210752 0.680546 0.0503641 0.0306706 0.00622316 0 0 0 0.0211797 0.0002642 
193 0.128525 0.731107 0.100792 0.005817 0.00562642 0 0.0225418 0.00559011 0 0 
194 0.152824 0.70321 0.10554 0.0147745 0 0.000888381 0.0148792 0 0 0.00788377 
195 0.215726 0.702792 0.0508196 0.0173239 0.00997803 0 0 0 0 0.00336052 
196 0.214323 0.69236 0.0503641 0.0306706 0.00622316 0 0 0 0.00601575 4.35068e-05 
197 0.296968 0.607444 0.0669788 0.00530413 0 0 0 2.13123e-06 0.0174682 0.00583422 
198 0.265423 0.730247 3.78398e-06 0 0 0.00432551 0 0 0 0 
199 0.163632 0.740413 0.0861106 0.00672687 7.84654e-05 0 0 0 0.00303899 0 
200 0.346297 0.60293 0.0340076 0.00605608 5.15701e-07 0.00428306 0 0 0.00198188 0.00444344 
201 0.274853 0.677971 0.0328028 0.00479033 0.00239573 0 0 0.00479061 0.00239644 0 
202 0.231054 0.687464 0.0508196 0.0173239 0.00997803 0 0 0 0 0.00336052 
203 0.128525 0.731107 0.100792 0.005817 0.00562642 0 0.0225418 0.00559011 0 0 
204 0.128525 0.731107 0.100792 0.005817 0.00562642 0 0.0225418 0.00559011 0 0 
205 0.2957 0.608712 0.0669788 0.00530413 0 0 0 2.13123e-06 0.0174682 0.00583422 
206 0.264598 0.688226 0.0328028 0.00479033 0.00239573 0 0 0.00479061 0.00239644 0 
207 0.141624 0.720135 0.0992653 0.00572887 0.00554117 0 0.0222003 0.00550542 0 0 
208 0.128525 0.715722 0.100792 0.005817 0.00562642 0 0.0379264 0.00559011 0 0 
209 0.128525 0.731107 0.100792 0.005817 0.00562642 0 0.0225418 0.00559011 0 0 
210 0.226127 0.680556 0.0503641 0.0306706 0.00622316 0 0 0 0.00601575 4.35068e-05 
211 0.230917 0.6876 0.0508196 0.0173239 0.00997803 0 0 0 0 0.00336052 
212 0.128525 0.731107 0.100792 0.005817 0.00562642 0 0.0225418 0.00559011 0 0 
213 0.227578 0.692174 0.0500496 0.0170615 0.00982685 0 0 0 0 0.0033096 
214 0.146172 0.701739 0.115335 0.0141321 0 0.000849755 0.0142322 0 0 0.007541 
215 0.126578 0.735164 0.0992821 0.00572887 0.00554117 0 0.0222003 0.00550542 0 0 
216 0.274872 0.677952 0.0328028 0.00479033 0.00239573 0 0 0.00479061 0.00239644 0 
217 0.372337 0.575328 0.035054 0.00624242 5.31569e-07 0.00441484 0 0 0.00204287 0.00458016 
218 0.178991 0.725054 0.0861106 0.00672687 7.84654e-05 0 0 0 0.00303899 0 
219 0.231079 0.687439 0.0508196 0.0173239 0.00997803 0 0 0 0 0.00336052 
220 0.174134 0.519697 0.178533 1.1111e-05 0.0364566 0 0.0182337 0.000645899 0.0722887 0 
221 0.284597 0.707053 5.88323e-07 0 0.00834967 0 0 0 0 0 
222 0.176516 0.746176 0.0341233 0.0319582 0.00203792 0 0 0 0 0.00918883 
223 0.23972 0.685683 0.046525 0.0158599 0.00913481 0 0 0 0 0.00307653 
224 0.211614 0.675042 0.0583887 0.0433849 0.0058624 0 0 0 0.00566701 4.09847e-05 
225 0.283126 0.626828 0.063096 0.00499664 0 0 0 2.00768e-06 0.0164556 0.005496 
226 0.254948 0.701863 0.0300308 0.00438552 0.00219328 0 0 0.00438577 0.00219392 0 
227 0.356952 0.590713 0.035054 0.00624242 5.31569e-07 0.00441484 0 0 0.00204287 0.00458016 
228 0.152816 0.71837 0.0903884 0.0147745 0 0.000888381 0.0148792 0 0 0.00788377 
229 0.21244 0.707313 0.0500496 0.0170615 0.00982685 0 0 0 0 0.0033096 
230 0.124689 0.716874 0.120022 0.00566495 0.00545847 0 0.0218689 0.00542325 0 0 
231 0.107665 0.880652 0.0116839 0 0 0 0 0 0 0 
232 0.143827 0.754092 0.0600953 0.0310705 0.00198131 0 0 0 0 0.00893359 
233 0.215695 0.702823 0.0508196 0.0173239 0.00997803 0 0 0 0 0.00336052 
234 0.212323 0.710918 0.0478743 0.0163196 0.00939959 0 0 0 0 0.0031657 
235 0 0.975135 4.41239e-07 0 0 0.0248641 0 0 0 0 
236 0.289553 0.705725 4.12797e-06 0 0 0.00471873 0 0 0 0 
237 0.269881 0.721021 6.41008e-07 0 0.0090974 0 0 0 0 0 
238 0.275708 0.664302 0.0460464 0.00464734 0.00232422 0 0 0.0046476 0.0023249 0 
239 0.215695 0.687439 0.0508196 0.0173246 0.025362 0 0 0 0 0.00336052 
240 0.366762 0.580903 0.035054 0.00624242 5.31569e-07 0.00441484 0 0 0.00204287 0.00458016 
241 0.163608 0.740437 0.0861106 0.00672687 7.84654e-05 0 0 0 0.00303899 0 
242 0 0.947164 0.000257135 0.0525785 0 0 0 0 0 0 
243 0.128811 0.730821 0.100792 0.005817 0.00562642 0 0.0225418 0.00559011 0 0 
244 0.255877 0.697596 0.0323715 0.00471775 0.00235943 0 0 0.00471802 0.00236013 0 
245 0.210752 0.695931 0.0503641 0.0306706 0.00622316 0 0 0 0.00601575 4.35068e-05 
246 0.225955 0.680728 0.0503641 0.0306706 0.00622316 0 0 0 0.00601574 4.35068e-05 
247 0.128525 0.731107 0.100792 0.005817 0.00562642 0 0.0225418 0.00559011 0 0 
248 0.215695 0.702823 0.0508196 0.0173239 0.00997803 0 0 0 0 0.00336052 
249 0.128525 0.715722 0.100792 0.005817 0.00562642 0 0.0226445 0.0208719 2.03745e-07 0 
250 0.356952 0.590713 0.035054 0.00624242 5.31569e-07 0.00441484 0 0 0.00204287 0.00458016 
251 0.163608 0.740437 0.0861106 0.00672687 7.84654e-05 0 0 0 0.00303899 0 
252 0.259488 0.693336 0.0328028 0.00479033 0.00239573 0 0 0.00479061 0.00239644 0 
253 0.15979 0.757734 0.0359691 0.0344166 0.00219468 0 0 0 0 0.00989567 
254 0.356952 0.590713 0.035054 0.00624242 5.31569e-07 0.00441484 0 0 0.00204287 0.00458016 
255 0.155167 0.714037 0.091779 0.0150018 0 0.000902048 0.0151081 0 0 0.00800506 
256 0.294007 0.701197 4.19148e-06 0 0 0.00479133 0 0 0 0 
257 0.22271 0.685387 0.049601 0.0302059 0.00612887 0 0 0 0.0059246 4.28476e-05 
258 0.37186 0.575805 0.035054 0.00624242 5.31569e-07 0.00441484 0 0 0.00204287 0.00458016 
259 0.183727 0.519244 0.173203 1.07794e-05 0.0353683 0 0.0176894 0.000626618 0.0701308 0 
260 0.159603 0.757921 0.0359694 0.0344166 0.00219468 0 0 0 0 0.00989567 
261 0.258452 0.69262 0.0347729 0.00471775 0.00235943 0 0 0.00471802 0.00236013 0 
262 0.183917 0.504129 0.188128 1.07794e-05 0.0353683 0 0.0176894 0.000626618 0.0701308 0 
263 0.268623 0.641331 0.063096 0.00499664 0 0 0 2.00768e-06 0.0164556 0.005496 
264 0.289553 0.705725 4.12797e-06 0 0 0.00471873 0 0 0 0 
265 0.239226 0.681724 0.0493026 0.0168068 0.00968018 0 0 0 0 0.0032602 
266 0.152816 0.703262 0.105487 0.0147846 0 0.000888381 0.0148792 0 0 0.00788377 
267 0.16113 0.744369 0.0848059 0.00662494 7.72766e-05 0 0 0 0.00299294 0 
268 0.155167 0.714037 0.091779 0.0150018 0 0.000902048 0.0151081 0 0 0.00800506 
269 0.16344 0.726909 0.0999554 0.00662494 7.72766e-05 0 0 0 0.00299294 0 
270 0.16113 0.729571 0.0996043 0.00662494 7.72766e-05 0 0 0 0.00299294 0 
271 0.269524 0.686669 0.0304598 0.00444817 0.00222461 0 0 0.00444842 0.00222526 0 
272 0.193958 0.719414 0.0777404 0.00607287 7.08369e-05 0 0 0 0.00274353 0 
273 0.285153 0.619259 0.0669788 0.00530413 0 0 0 2.13123e-06 0.0174682 0.00583422 
274 0.0240157 0.951921 4.78262e-05 0 0 0 0 0 0.024015 0 
275 0.056916 0.546366 0.320969 8.402e-06 0.0757396 0 0 0 0 0 
276 0.215695 0.702659 0.0509829 0.0173239 0.00997803 0 0 0 0 0.00336052 
277 0.126578 0.735181 0.0992653 0.00572887 0.00554117 0 0.0222003 0.00550542 0 0 
278 0.240973 0.715221 0.0304598 0.00444817 0.00222461 0 0 0.00444842 0.00222526 0 
279 0.228859 0.695479 0.0471897 0.0160865 0.00926531 0 0 0 0 0.00312048 
280 0.26015 0.692675 0.0328029 0.00479033 0.00239573 0 0 0.00479061 0.00239644 0 
281 0.255556 0.697983 0.0323058 0.00471775 0.00235943 0 0 0.00471802 0.00236013 0 
282 0.233589 0.75839 5.73017e-07 0 0.00802008 0 0 0 0 0 
283 0.0240157 0.951921 4.78262e-05 0 0 0 0 0 0.024015 0 
284 0.210752 0.695931 0.0503641 0.0306706 0.00622316 0 0 0 0.00601575 4.35068e-05 
285 0.253611 0.737681 6.13536e-07 0 0.00870751 0 0 0 0 0 
286 0.163332 0.755442 0.0354241 0.0338951 0.00216143 0 0 0 0 0.00974573 
287 0.221953 0.694957 0.0448447 0.0273094 0.00554117 0 0 0 0.00535649 3.8739e-05 
288 0.317677 0.673972 5.88323e-07 0 0.00834967 0 0 0 0 0 
289 0 0.947164 0.000257135 0.0525785 0 0 0 0 0 0 
290 0.259833 0.693699 0.0323128 0.00471775 0.00235943 0 0 0.00471802 0.00236013 0 
291 0.128525 0.731107 0.100793 0.005817 0.00562642 0 0.0225418 0.00559011 0 0 
292 0.154561 0.765425 0.0348954 0.0333892 0.00212917 0 0 0 0 0.00960027 
293 0.159314 0.75821 0.0359691 0.0344166 0.00219468 0 0 0 0 0.00989567 
294 0 0.947164 0.000257135 0.0525785 0 0 0 0 0 0 
295 0.16113 0.744369 0.0848059 0.00662494 7.72766e-05 0 0 0 0.00299294 0 
296 0.267139 0.687093 0.0318238 0.00464734 0.00232422 0 0 0.0046476 0.0023249 0 
297 0.365239 0.58546 0.0330219 0.00588054 5.00753e-07 0.00415891 0 0 0.00192444 0.00431465 
298 0.285153 0.603875 0.0823631 0.00530414 0 0 0 2.13123e-06 0.0174682 0.00583422 
299 0.159314 0.75821 0.0359691 0.0344166 0.00219468 0 0 0 0 0.00989567 
300 0.304704 0.690573 4.12797e-06 0 0 0.00471873 0 0 0 0 
301 0.22271 0.670235 0.0496012 0.0453572 0.00612888 0 0 0 0.0059246 4.28476e-05 
302 0.227578 0.692174 0.0500496 0.0170615 0.00982685 0 0 0 0 0.0033096 
303 0.163608 0.725052 0.101495 0.00672687 7.84654e-05 0 0 0 0.00303899 0 
304 0.163608 0.740397 0.0861503 0.00672687 7.84654e-05 0 0 0 0.00303899 0 
305 0.366712 0.581746 0.0345234 0.00614784 5.23515e-07 0.00434795 0 0 0.00201191 0.00451077 
306 0.162945 0.742553 0.0848059 0.00662494 7.72766e-05 0 0 0 0.00299294 0 
307 0.155196 0.714008 0.091779 0.0150018 0 0.000902048 0.0151081 0 0 0.00800506 
308 0.128626 0.731006 0.100792 0.005817 0.00562642 0 0.0225418 0.00559011 0 0 
309 0.371749 0.575916 0.035054 0.00624242 5.31569e-07 0.00441484 0 0 0.00204287 0.00458016 
310 0.168726 0.700478 0.091779 0.0150018 0 0.000902048 0.0151081 0 0 0.00800506 
311 0.231024 0.687494 0.0508196 0.0173239 0.00997803 0 0 0 0 0.00336052 
312 0.230173 0.688344 0.0508196 0.0173239 0.00997803 0 0 0 0 0.00336052 
313 0.173037 0.744487 0.0359691 0.0344166 0.00219468 0 0 0 0 0.00989567 
314 0.271908 0.718714 6.60731e-07 0 0.00937732 0 0 0 0 0 
315 0.375687 0.57354 0.0340076 0.00605608 5.15701e-07 0.00428306 0 0 0.00198188 0.00444344 
316 0.134293 0.725339 0.100792 0.005817 0.00562642 0 0.0225418 0.00559011 0 0 
317 0.215699 0.702819 0.0508196 0.0173239 0.00997803 0 0 0 0 0.00336052 
318 0.371848 0.575817 0.035054 0.00624242 5.31569e-07 0.00441484 0 0 0.00204287 0.00458016 
319 0.177752 0.726293 0.0861106 0.00672687 7.84654e-05 0 0 0 0.00303899 0 
320 0.263749 0.726873 6.60731e-07 0 0.00937732 0 0 0 0 0 
321 0.0371162 0.940216 4.50537e-05 0 0 0 0 0 0.0226229 0 
322 0.299118 0.605294 0.0669788 0.00530413 0 0 0 2.13123e-06 0.0174682 0.00583422 
323 0.143827 0.715805 0.100792 0.005817 0.00562642 0 0.0225418 0.00559011 0 0 
324 0.170837 0.747903 0.0354572 0.0338951 0.00216143 0 0 0 0 0.00974573 
325 0.230088 0.68843 0.0508196 0.0173239 0.00997803 0 0 0 0 0.00336052 
326 0.371803 0.575862 0.035054 0.00624242 5.31569e-07 0.00441484 0 0 0.00204287 0.00458016 
327 0.366695 0.566611 0.0345229 0.00614784 5.23515e-07 0.0194995 0 0 0.00201191 0.00451077 
328 0.183648 0.503306 0.18922 1.07794e-05 0.0353683 0 0.0176894 0.000626618 0.0701308 0 
329 0.230088 0.68843 0.0508196 0.0173239 0.00997803 0 0 0 0 0.00336052 
330 0.356952 0.575328 0.035054 0.00624242 5.31569e-07 0.00441484 0 0 0.00204288 0.0199648 
331 0.372307 0.575358 0.035054 0.00624242 5.31569e-07 0.00441484 0 0 0.00204287 0.00458016 
332 0.17076 0.733285 0.0861106 0.00672687 7.84654e-05 0 0 0 0.00303899 0 
333 0.171841 0.732204 0.0861106 0.00672687 7.84654e-05 0 0 0 0.00303899 0 
334 0.285153 0.603874 0.0669788 0.00530413 0 0 0 2.13123e-06 0.0174693 0.0212178 
335 0.22593 0.680753 0.0503641 0.0306706 0.00622316 0 0 0 0.00601575 4.35068e-05 
336 0.178728 0.725317 0.0861106 0.00672687 7.84654e-05 0 0 0 0.00303899 0 
337 0.216196 0.702322 0.0508196 0.0173239 0.00997803 0 0 0 0 0.00336052 
338 0.163608 0.740437 0.0861106 0.00672687 7.84654e-05 0 0 0 0.00303899 0 
339 0.287279 0.579328 0.106047 0.00507013 0 0 0 2.0372e-06 0.0166976 0.00557683 
340 0.356952 0.590713 0.035054 0.00624242 5.31569e-07 0.00441484 0 0 0.00204287 0.00458016 
341 0.372328 0.575337 0.035054 0.00624242 5.31569e-07 0.00441484 0 0 0.00204287 0.00458016 
342 0.163608 0.740437 0.0861106 0.00672687 7.84654e-05 0 0 0 0.00303899 0 
343 0.330149 0.665398 3.89209e-06 0 0 0.00444909 0 0 0 0 
344 0.2146 0.705153 0.0500496 0.0170615 0.00982685 0 0 0 0 0.0033096 
345 0.174128 0.731276 0.0848999 0.00662494 7.72766e-05 0 0 0 0.00299294 0 
346 0 0.947164 0.000257135 0.0525785 0 0 0 0 0 0 
347 0.167006 0.750518 0.0359691 0.0344166 0.00219468 0 0 0 0 0.00989567 
348 0.167006 0.750518 0.0359691 0.0344166 0.00219468 0 0 0 0 0.00989567 
349 0.181062 0.725848 0.0835401 0.00652606 7.61232e-05 0 0 0 0.00294827 0 
350 0.215695 0.702823 0.0508196 0.0173239 0.00997803 0 0 0 0 0.00336052 
351 0.173914 0.519918 0.178532 1.1111e-05 0.0364566 0 0.0182337 0.000645899 0.0722887 0 
352 0.294007 0.701197 4.19148e-06 0 0 0.00479133 0 0 0 0 
353 0.356952 0.590713 0.035054 0.00624242 5.31569e-07 0.00441484 0 0 0.00204287 0.00458016 
354 0.066433 0.547826 0.312253 8.37487e-06 0.0734788 0 0 0 0 0 
355 0.210752 0.695931 0.0503641 0.0306706 0.00622316 0 0 0 0.00601575 4.35068e-05 
356 0.14147 0.85853 0 0 0 0 0 0 0 0 
357 0.128525 0.731107 0.100792 0.005817 0.00562642 0 0.0225418 0.00559011 0 0 
358 0.255557 0.697979 0.0323087 0.00471775 0.00235943 0 0 0.00471802 0.00236013 0 
359 0.210752 0.695931 0.0503641 0.0306706 0.00622316 0 0 0 0.00601575 4.35068e-05 
360 0.16998 0.735519 0.0848059 0.00662494 7.72766e-05 0 0 0 0.00299294 0 
361 0.126578 0.735156 0.09929 0.00572887 0.00554117 0 0.0222003 0.00550542 0 0 
362 0.151922 0.758977 0.0799598 0.00624638 7.28608e-05 0 0 0 0.00282192 0 
363 0.119429 0.736789 0.107034 0.0054015 0.00522453 0 0.0209317 0.00519082 0 0 
364 0.140153 0.726977 0.0976461 0.0135433 0 0.000814349 0.0136392 0 0 0.00722679 
365 0.357891 0.597347 0.0299822 0.00533891 4.54631e-07 0.00377585 0 0 0.00174719 0.00391725 
366 0.269398 0.726212 3.83727e-06 0 0 0.00438643 0 0 0 0 
367 0.208613 0.703728 0.0599775 0.0156397 0.00900794 0 0 0 0 0.0030338 
368 0.208621 0.7131 0.0505982 0.0156397 0.00900794 0 0 0 0 0.0030338 
369 0.336137 0.616611 0.0316506 0.00563552 4.79888e-07 0.00398562 0 0 0.00184425 0.00413487 
370 0.379898 0.615889 3.68171e-06 0 0 0.0042086 0 0 0 0 
371 0.225928 0.690911 0.0746292 0.00582995 6.80034e-05 0 0 0 0.00263379 0 
372 0.337163 0.622489 0.0280551 0.004097 0.00204898 0 0 0.00409723 0.00204958 0 
373 0.271763 0.710511 3.68171e-06 0 0 0.0177221 0 0 0 0 
374 0.296317 0.609544 0.065964 0.00522376 0 0 0 2.09894e-06 0.0172036 0.00574582 
375 0.304371 0.690906 4.12797e-06 0 0 0.00471873 0 0 0 0 
376 0.259488 0.693336 0.0328028 0.00479033 0.00239573 0 0 0.00479061 0.00239644 0 
377 0.259488 0.693336 0.0328028 0.00479033 0.00239573 0 0 0.00479061 0.00239644 0 
378 0.259488 0.693336 0.0328028 0.00479033 0.00239573 0 0 0.00479061 0.00239644 0 
379 0 0.975867 4.30813e-07 0 0 0.0241328 0 0 0 0 
380 0.227578 0.677023 0.0500496 0.018382 0.0236578 0 0 0 0 0.0033096 
381 0.356952 0.589397 0.0363697 0.00624242 5.31569e-07 0.00441484 0 0 0.00204287 0.00458016 
382 0.16113 0.727338 0.101816 0.00664545 7.72766e-05 0 0 0 0.00299294 0 
383 0.248076 0.743457 6.51218e-07 0 0.00846564 0 0 0 0 0 
384 0.161234 0.744033 0.0850381 0.00662494 7.72766e-05 0 0 0 0.00299294 0 
385 0.255788 0.697751 0.0323058 0.00471775 0.00235943 0 0 0.00471802 0.00236013 0 
386 0.263153 0.691751 0.0313566 0.004579 0.00229004 0 0 0.00457926 0.00229071 0 
387 0.215695 0.702823 0.0508196 0.0173239 0.00997803 0 0 0 0 0.00336052 
388 0.210752 0.695931 0.0503641 0.0306706 0.00622316 0 0 0 0.00601575 4.35068e-05 
389 0.128525 0.715838 0.11606 0.00581756 0.00562642 0 0.0225418 0.00559011 0 0 
390 0.163608 0.740361 0.0861866 0.00672687 7.84654e-05 0 0 0 0.00303899 0 
391 0.163608 0.740437 0.0861106 0.00672687 7.84654e-05 0 0 0 0.00303899 0 
392 0.356952 0.575328 0.0350541 0.0216269 5.31569e-07 0.00441484 0 0 0.00204287 0.00458016 
393 0.146172 0.730612 0.0864614 0.0141321 0 0.000849755 0.0142322 0 0 0.007541 
394 0.249487 0.741805 6.66481e-07 0 0.00870751 0 0 0 0 0 
395 0.211828 0.694855 0.0503645 0.0306706 0.00622316 0 0 0 0.00601575 4.35068e-05 
396 0.210752 0.695931 0.0503641 0.0306706 0.00622316 0 0 0 0.00601574 4.35068e-05 
397 0.155168 0.713994 0.0918215 0.0150018 0 0.000902048 0.0151081 0 0 0.00800506 
398 0.259488 0.693336 0.0328028 0.00479033 0.00239573 0 0 0.00479061 0.00239644 0 
399 0.147508 0.852492 0 0 0 0 0 0 0 0 
400 0 0.947964 0.000253239 0.0517819 0 0 0 0 0 0 
401 0.173942 0.51989 0.178532 1.1111e-05 0.0364566 0 0.0182337 0.000645898 0.0722887 0 
402 0 0.946218 0 0.0268908 0 0.0268907 0 0 0 0 
403 0 0.862926 0.0376947 3.04566e-07 0.033126 0 0 0 0 0.0662526 
404 0.221524 0.696994 0.0508198 0.0173239 0.00997803 0 0 0 0 0.00336052 
405 0.110974 0.883071 0.00595492 0 0 0 0 0 0 0 
406 0.365247 0.585452 0.0330219 0.00588054 5.00753e-07 0.00415891 0 0 0.00192444 0.00431465 
407 0.144009 0.727485 0.0922748 0.00532542 0.00515095 0 0.0206369 0.00511771 0 0 
408 0.210752 0.692094 0.0542005 0.0306706 0.00622316 0 0 0 0.00601575 4.35068e-05 
409 0.163609 0.740412 0.0861353 0.00672687 7.84654e-05 0 0 0 0.00303899 0 
410 0.231051 0.687467 0.0508196 0.0173239 0.00997803 0 0 0 0 0.00336052 
411 0.128543 0.731089 0.100792 0.005817 0.00562642 0 0.0225418 0.00559011 0 0 
412 0.356952 0.590713 0.035054 0.00624242 5.31569e-07 0.00441484 0 0 0.00204287 0.00458016 
413 0 0.917758 0.0822411 0 0 0 0 0 0 0 
414 0.163608 0.740436 0.0861106 0.00672687 7.84654e-05 0 0 0 0.00303899 0 
415 0.309374 0.68583 4.19148e-06 0 0 0.00479133 0 0 0 0 
416 0.291567 0.615699 0.0649794 0.0051458 0 0 0 2.06761e-06 0.0169468 0.00566006 
417 0.210752 0.695931 0.0503641 0.0306706 0.00622316 0 0 0 0.00601575 4.35068e-05 
418 0.210752 0.680546 0.0503641 0.0306706 0.00622316 0 0 0 0.0214003 4.35529e-05 
419 0.234914 0.674555 0.0488607 0.029755 0.0060374 0 0 0 0.00583617 4.22081e-05 
420 0.128525 0.731107 0.100792 0.005817 0.00562642 0 0.0225418 0.00559011 0 0 
421 0.110974 0.883071 0.00595493 0 0 0 0 0 0 0 
422 0.231057 0.687461 0.0508196 0.0173239 0.00997803 0 0 0 0 0.00336052 
423 0.142655 0.717568 0.100801 0.00572887 0.00554117 0 0.0222003 0.00550542 0 0 
424 0.173914 0.504533 0.178532 1.1111e-05 0.0364566 0 0.0182337 0.000645898 0.0876733 0 
425 0.210441 0.697495 0.049762 0.0302059 0.00612887 0 0 0 0.0059246 4.28476e-05 
426 0.163608 0.740437 0.0861106 0.00672687 7.84654e-05 0 0 0 0.00303899 0 
427 0 0.947755 0 0.0261225 0 0.0261224 0 0 0 0 
428 0 0.975135 4.52433e-07 0 0 0.0248641 0 0 0 0 
429 0 0.85762 0.0384835 3.1841e-07 0.0346318 0 0 0 0 0.0692641 
430 0.356952 0.590713 0.035054 0.00624242 5.31569e-07 0.00441484 0 0 0.00204287 0.00458016 
431 0.159336 0.758188 0.0359691 0.0344166 0.00219468 0 0 0 0 0.00989567 
432 0.356952 0.590713 0.035054 0.00624242 5.31569e-07 0.00441484 0 0 0.00204287 0.00458016 
433 0.110974 0.883071 0.00595492 0 0 0 0 0 0 0 
434 0.210752 0.695931 0.0503641 0.0306706 0.00622316 0 0 0 0.00601575 4.35068e-05 
435 0.215695 0.702823 0.0508196 0.0173239 0.00997803 0 0 0 0 0.00336052 
436 0.356952 0.590713 0.035054 0.00624242 5.31569e-07 0.00441484 0 0 0.00204287 0.00458016 
437 0.128526 0.731106 0.100792 0.005817 0.00562642 0 0.0225418 0.00559011 0 0 
438 0.188575 0.703409 0.0835401 0.00652606 7.61232e-05 0 0 0 0.0178736 0 
439 0.320441 0.675041 3.9485e-06 0 0 0.00451357 0 0 0 0 
440 0.254402 0.699824 0.0318296 0.00464734 0.00232422 0 0 0.0046476 0.0023249 0 
441 0.356952 0.575328 0.035054 0.00624242 5.31569e-07 0.00441484 0 0 0.0162788 0.00572886 
442 0.285231 0.710117 4.06636e-06 0 0 0.0046483 0 0 0 0 
443 0 0.975506 4.34654e-07 0 0 0.024493 0 0 0 0 
444 0.174664 0.74286 0.0359691 0.0344166 0.00219468 0 0 0 0 0.00989567 
445 0 0.948741 0.000249459 0.051009 0 0 0 0 0 0 
446 0.251742 0.70249 0.0318237 0.00464734 0.00232422 0 0 0.0046476 0.0023249 0 
447 0.300156 0.695191 4.06636e-06 0 0 0.0046483 0 0 0 0 
448 0.310415 0.685001 4.00656e-06 0 0 0.00457995 0 0 0 0 
449 0.181179 0.512652 0.178533 1.1111e-05 0.0364566 0 0.0182337 0.000645898 0.0722887 0 
450 0.142361 0.717271 0.100792 0.005817 0.00562642 0 0.0225418 0.00559011 0 0 
451 0.272376 0.680448 0.0328028 0.00479033 0.00239573 0 0 0.00479061 0.00239644 0 
452 0.186765 0.507067 0.178532 1.1111e-05 0.0364566 0 0.0182337 0.000645899 0.0722887 0 
453 0.34633 0.602898 0.0340076 0.00605608 5.15701e-07 0.00428306 0 0 0.00198189 0.00444344 
454 0.28829 0.655232 0.0435018 0.00432461 0.00216281 0 0 0.00432485 0.00216345 0 
455 0 0.946218 0 0.0268908 0 0.0268907 0 0 0 0 
456 0.161139 0.729211 0.0999548 0.00662494 7.72766e-05 0 0 0 0.00299294 0 
457 0.274886 0.684146 0.0285106 0.00415162 0.0020763 0 0 0.00415186 0.00207691 0 
458 0.156875 0.704883 0.0992653 0.00572887 0.00554117 0 0.0222003 0.00550542 0 0 
459 0.311136 0.594725 0.065964 0.00522376 0 0 0 2.09894e-06 0.0172036 0.00574582 
460 0 0.975506 4.34654e-07 0 0 0.024493 0 0 0 0 
461 0.201454 0.709346 0.0481421 0.0293175 0.00594861 0 0 0 0.00575035 4.15874e-05 
462 0.0232988 0.953357 4.63986e-05 0 0 0 0 0 0.0232982 0 
463 0 0.947755 0 0.0261225 0 0.0261224 0 0 0 0 
464 5.03178e-06 0.676762 0 0.323232 0 0 0 0 0 0 
465 0 0.975135 6.63999e-07 0 0 0.0248641 0 0 0 0 
466 0.216755 0.701167 0.0736591 0.00575324 6.71086e-05 0 0 0 0.00259913 0 
467 0.304631 0.690646 4.12797e-06 0 0 0.00471873 0 0 0 0 
468 0.163608 0.740437 0.0861106 0.00672687 7.84654e-05 0 0 0 0.00303899 0 
469 0.056916 0.561583 0.305752 7.87141e-06 0.0757396 0 0 0 0 0 
470 0 0.947935 0.000282727 0.0517819 0 0 0 0 0 0 
471 0.137664 0.713353 0.111154 0.00556037 0.0053782 0 0.0215473 0.00534349 0 0 
472 0.158725 0.748185 0.0835402 0.00652607 7.61232e-05 0 0 0 0.00294827 0 
473 0.184281 0.695976 0.084023 0.0137341 0 0.000825819 0.0138313 0 0 0.00732857 
474 0.214798 0.703689 0.0530409 0.0160865 0.00926531 0 0 0 0 0.00312048 
475 0.351389 0.584788 0.0475437 0.00588056 5.00753e-07 0.00415891 0 0 0.00192444 0.00431465 
476 0 0.844409 0.0383198 4.36797e-07 0.0490401 0 0 0 0 0.0682303 
477 0.257734 0.732888 6.60731e-07 0 0.00937732 0 0 0 0 0 
478 0.210752 0.695931 0.0503641 0.0306706 0.00622316 0 0 0 0.00601575 4.35068e-05 
479 0 0.943736 0 0.0281319 0 0.0281318 1.04532e-07 0 0 0 
480 0.1569 0.761874 0.0354241 0.0338951 0.00216143 0 0 0 0 0.00974573 
481 0.249053 0.660416 0.0488607 0.029755 0.0060374 0 0 0 0.00583617 4.22081e-05 
482 0.356952 0.590713 0.035054 0.00624242 5.31569e-07 0.00441484 0 0 0.00204287 0.00458016 
483 0.212427 0.707326 0.0500496 0.0170615 0.00982685 0 0 0 0 0.0033096 
484 0.352097 0.596361 0.0345229 0.00614784 5.23515e-07 0.00434795 0 0 0.00201191 0.00451077 
485 0.289553 0.705725 4.12797e-06 0 0 0.00471873 0 0 0 0 
486 0.357042 0.590623 0.035054 0.00624242 5.31569e-07 0.00441484 0 0 0.00204287 0.00458016 
487 0.270708 0.682831 0.0323058 0.00471775 0.00235943 0 0 0.00471802 0.00236013 0 
488 0.219419 0.690048 0.0488615 0.029755 0.0060374 0 0 0 0.00583617 4.22081e-05 
489 0.251742 0.687425 0.0468891 0.00464734 0.00232422 0 0 0.0046476 0.0023249 0 
490 0.159314 0.75821 0.0359691 0.0344166 0.00219468 0 0 0 0 0.00989567 
491 0.234835 0.667037 0.0593501 0.0276902 0.00561813 0 0 0 0.00543088 3.9277e-05 
492 0.215695 0.687439 0.0629816 0.0205465 0.00997803 0 0 0 0 0.00336052 
493 0.215695 0.687447 0.0661955 0.0173239 0.00997803 0 0 0 0 0.00336052 
494 0.259488 0.693328 0.0328115 0.00479033 0.00239573 0 0 0.00479061 0.00239644 0 
495 0.111589 0.882456 0.00595492 0 0 0 0 0 0 0 
496 0.210752 0.680546 0.0508451 0.0451461 0.0066513 0 0 0 0.00601574 4.35068e-05 
497 0.356952 0.590713 0.035054 0.00624242 5.31569e-07 0.00441484 0 0 0.00204287 0.00458016 
498 0.251742 0.70249 0.0318239 0.00464734 0.00232422 0 0 0.00464761 0.0023249 0 
499 0.24804 0.706866 0.0313557 0.004579 0.00229004 0 0 0.00457926 0.00229071 0 
500 0 0.947964 0.000253239 0.0517819 0 0 0 0 0 0 
501 0.163608 0.739938 0.0866093 0.00672687 7.84654e-05 0 0 0 0.00303899 0 
502 0.215695 0.702823 0.0508196 0.0173239 0.00997803 0 0 0 0 0.00336052 
503 0.173914 0.504533 0.178532 1.1111e-05 0.0364566 0 0.0336183 0.000645898 0.0722887 0 
504 0.356953 0.590712 0.035054 0.00624242 5.31569e-07 0.00441484 0 0 0.00204287 0.00458016 
505 0.370623 0.564645 0.0335498 0.0206306 5.08117e-07 0.00422007 0 0 0.00195274 0.0043781 
506 0.357284 0.590381 0.0350547 0.00624242 5.31569e-07 0.00441484 0 0 0.00204287 0.00458016 
507 0 0.947164 0.000257135 0.0525785 0 0 0 0 0 0 
508 0.171586 0.736003 0.0830004 0.00643009 7.50037e-05 0 0 0 0.00290491 0 
509 0.210752 0.695931 0.0503641 0.0306706 0.00622316 0 0 0 0.00601575 4.35068e-05 
510 0.215695 0.702823 0.0508196 0.0173239 0.00997803 0 0 0 0 0.00336052 
511 0.159314 0.75821 0.0359691 0.0344166 0.00219468 0 0 0 0 0.00989567 
512 0.356952 0.590713 0.035054 0.00624242 5.31569e-07 0.00441484 0 0 0.00204287 0.00458016 
513 0.159314 0.75821 0.0359691 0.0344166 0.00219468 0 0 0 0 0.00989567 
514 0.259488 0.693336 0.0328028 0.00479033 0.00239573 0 0 0.00479061 0.00239644 0 
515 0.356952 0.590713 0.035054 0.00624242 5.31569e-07 0.00441484 0 0 0.00204287 0.00458016 
516 0.285153 0.619259 0.0669788 0.00530413 0 0 0 2.13123e-06 0.0174682 0.00583422 
517 0.356952 0.590713 0.035054 0.00624242 5.31569e-07 0.00441484 0 0 0.00204287 0.00458016 
518 0.0963012 0.827959 0 0 0 0.0757397 0 0 0 0 
519 0.159314 0.75821 0.0359691 0.0344166 0.00219468 0 0 0 0 0.00989567 
520 0.155167 0.714036 0.0917796 0.0150018 0 0.000902048 0.0151081 0 0 0.00800506 
521 0.38863 0.548264 0.0468267 0.00588054 5.00753e-07 0.00415891 0 0 0.00192444 0.00431465 
522 0.285153 0.604108 0.0799562 0.00747744 0 0 0 2.13123e-06 0.0174682 0.00583422 
523 0.215695 0.702823 0.0508196 0.0173239 0.00997803 0 0 0 0 0.00336052 
524 0.294007 0.701197 4.19148e-06 0 0 0.00479133 0 0 0 0 
525 0.295689 0.699515 4.19148e-06 0 0 0.00479133 0 0 0 0 
526 0.241582 0.667736 0.0529534 0.0269404 0.00546629 0 0 0 0.0052841 3.82155e-05 
527 0.356952 0.590713 0.035054 0.00624242 5.31569e-07 0.00441484 0 0 0.00204287 0.00458016 
528 0.163608 0.727303 0.0992438 0.00672687 7.84654e-05 0 0 0 0.00303899 0 
529 0.164485 0.738223 0.0882796 0.00615842 7.18346e-05 0 0 0 0.00278217 0 
530 0.215695 0.70231 0.0513329 0.0173239 0.00997803 0 0 0 0 0.00336052 
531 0.352584 0.600816 0.0312125 0.00555832 4.73315e-07 0.00393103 0 0 0.00181899 0.00407823 
532 0.356952 0.575338 0.0504291 0.00624242 5.31569e-07 0.00441484 0 0 0.00204287 0.00458016 
533 0.159314 0.758201 0.0359785 0.0344166 0.00219468 0 0 0 0 0.00989567 
534 0.289748 0.705529 4.12797e-06 0 0 0.00471873 0 0 0 0 
535 0.212114 0.694569 0.0503641 0.0306706 0.00622316 0 0 0 0.00601575 4.35068e-05 
536 0.215695 0.702823 0.0508196 0.0173239 0.00997803 0 0 0 0 0.00336052 
537 0.351544 0.596914 0.0345229 0.00614784 5.23515e-07 0.00434795 0 0 0.00201191 0.00451077 
538 0.356952 0.590713 0.035054 0.00624242 5.31569e-07 0.00441484 0 0 0.00204287 0.00458016 
539 0.210752 0.680546 0.0657481 0.0306711 0.00622316 0 0 0 0.00601575 4.35068e-05 
540 0.259488 0.690824 0.0353153 0.00479033 0.00239573 0 0 0.00479061 0.00239644 0 
541 0.212317 0.67246 0.0753377 0.0284798 0.00577865 0 0 0 0.00558605 4.03992e-05 
542 0.294007 0.701197 4.19148e-06 0 0 0.00479133 0 0 0 0 
543 0.210752 0.695931 0.0503641 0.0306706 0.00622316 0 0 0 0.00601575 4.35068e-05 
544 0.210752 0.695931 0.0503641 0.0306706 0.00622316 0 0 0 0.00601575 4.35068e-05 
545 0.355295 0.593932 0.0340076 0.00605608 5.15701e-07 0.00428306 0 0 0.00198188 0.00444344 
546 0.155167 0.698941 0.106875 0.0150018 0 0.000902048 0.0151081 0 0 0.00800506 
547 0.173914 0.504533 0.193917 1.1111e-05 0.0364566 0 0.0182337 0.000645898 0.0722887 0 
548 0.215695 0.702823 0.0508197 0.0173239 0.00997803 0 0 0 0 0.00336052 
549 0.209315 0.71157 0.0493686 0.0168068 0.00968018 0 0 0 0 0.0032602 
550 0.128525 0.715722 0.116177 0.005817 0.00562642 0 0.0225418 0.00559011 0 0 
551 0.366674 0.581784 0.0345229 0.00614784 5.23515e-07 0.00434795 0 0 0.00201191 0.00451077 
552 0.128525 0.715722 0.116177 0.005817 0.00562642 0 0.0225418 0.00559011 0 0 
553 0.356957 0.590708 0.0350543 0.00624242 5.31569e-07 0.00441484 0 0 0.00204287 0.00458016 
554 0.210752 0.695929 0.0503664 0.0306706 0.00622316 0 0 0 0.00601574 4.35068e-05 
555 0.159314 0.75821 0.0359691 0.0344166 0.00219468 0 0 0 0 0.00989567 
556 0.294007 0.701197 4.19148e-06 0 0 0.00479133 0 0 0 0 
557 0.294007 0.701197 4.19148e-06 0 0 0.00479133 0 0 0 0 
558 0.15454 0.709283 0.0977837 0.00564336 0.00545847 0 0.0218689 0.00542325 0 0 
559 0.159314 0.745331 0.0488479 0.0344173 0.00219468 0 0 0 0 0.00989567 
560 0.20164 0.692323 0.0649631 0.029333 0.00594861 0 0 0 0.00575034 4.15874e-05 
561 0.209779 0.698318 0.0496013 0.0302059 0.00612887 0 0 0 0.0059246 4.28476e-05 
562 0.270708 0.682831 0.0323059 0.00471775 0.00235943 0 0 0.00471802 0.00236013 0 
563 0.285153 0.619259 0.0669788 0.00530413 0 0 0 2.13123e-06 0.0174682 0.00583422 
564 0.155167 0.714037 0.091779 0.0150018 0 0.000902048 0.0151081 0 0 0.00800506 
565 0.209256 0.680866 0.0801312 0.0168068 0.00968018 0 0 0 0 0.0032602 
566 0.163608 0.740437 0.0861106 0.00672687 7.84654e-05 0 0 0 0.00303899 0 
567 0.128525 0.731107 0.100792 0.005817 0.00562642 0 0.0225418 0.00559011 0 0 
568 0.163608 0.725052 0.101495 0.00672687 7.84654e-05 0 0 0 0.00303899 0 
569 0.172051 0.746559 0.0355877 0.0338951 0.00216143 0 0 0 0 0.00974573 
570 0.255556 0.697983 0.0323058 0.00471775 0.00235943 0 0 0.00471802 0.00236013 0 
571 0.215695 0.702823 0.0508196 0.0173239 0.00997803 0 0 0 0 0.00336052 
572 0.155167 0.714037 0.091779 0.0150018 0 0.000902048 0.0151081 0 0 0.00800506 
573 0.159314 0.75821 0.0359691 0.0344166 0.00219468 0 0 0 0 0.00989567 
574 0 0.917486 0.0825128 0 0 0 0 0 0 0 
575 0.210752 0.680546 0.0507194 0.0456998 0.00622318 0 0 0 0.00601574 4.35068e-05 
576 0.294007 0.701197 4.19148e-06 0 0 0.00479133 0 0 0 0 
577 0.210752 0.695931 0.0503641 0.0306706 0.00622316 0 0 0 0.00601575 4.35068e-05 
578 0.155167 0.713884 0.0919321 0.0150018 0 0.000902048 0.0151081 0 0 0.00800506 
579 0 0.974753 4.48027e-07 0 0 0.0252466 0 0 0 0 
580 0.0240157 0.951921 4.78262e-05 0 0 0 0 0 0.024015 0 
581 0.215848 0.702627 0.0508624 0.0173239 0.00997803 0 0 0 0 0.00336052 
582 0.259488 0.693336 0.0328028 0.00479033 0.00239573 0 0 0.00479061 0.00239644 0 
583 0.15521 0.713994 0.091779 0.0150018 0 0.000902048 0.0151081 0 0 0.00800506 
584 0 0.975135 4.4534e-07 0 0 0.0248641 0 0 0 0 
585 0.210752 0.680546 0.0620789 0.0343403 0.00622316 0 0 0 0.00601574 4.35068e-05 
586 0 0.857585 0.0385183 3.1841e-07 0.0346318 0 0 0 0 0.0692641 
587 0.0232988 0.953357 4.63986e-05 0 0 0 0 0 0.0232982 0 
588 0.173914 0.519918 0.178532 1.1111e-05 0.0364566 0 0.0182337 0.000645899 0.0722887 0 
589 0.236391 0.690049 0.0458788 0.0156397 0.00900794 0 0 0 0 0.0030338 
590 0.166991 0.754136 0.0344182 0.0328982 0.00209786 0 0 0 0 0.00945909 
591 0.222711 0.68464 0.0503472 0.0302059 0.00612887 0 0 0 0.0059246 4.28476e-05 
592 0.365999 0.567307 0.0345229 0.00614784 3.97787e-06 0.019496 0 0 0.00201191 0.00451077 
593 0.186426 0.496893 0.175827 1.98554e-05 0.0510468 0 0.0179574 0.000636112 0.0711934 0 
594 0.128525 0.715722 0.100792 0.005817 0.00562642 0 0.0379256 0.00559091 0 0 
595 0.309337 0.685867 4.19148e-06 0 0 0.00479133 0 0 0 0 
596 0.273059 0.717563 6.60731e-07 0 0.00937732 0 0 0 0 0 
597 0.22606 0.680623 0.0503641 0.0306706 0.00622316 0 0 0 0.00601574 4.35068e-05 
598 0.178895 0.725151 0.0861106 0.00672687 7.84654e-05 0 0 0 0.00303899 0 
599 0.143785 0.715847 0.100792 0.005817 0.00562642 0 0.0225418 0.00559011 0 0 
600 0.300485 0.603927 0.0669788 0.00530413 0 0 0 2.13123e-06 0.0174682 0.00583422 
601 0.170435 0.698769 0.091779 0.0150018 0 0.000902048 0.0151081 0 0 0.00800506 
602 0.1569 0.761874 0.0354241 0.0338951 0.00216143 0 0 0 0 0.00974573 
603 0.154558 0.765428 0.0348954 0.0333892 0.00212917 0 0 0 0 0.00960027 
604 0.0959368 0.828323 0 0 0 0.0757397 0 0 0 0 
605 0.216554 0.690129 0.0503641 0.0306706 0.00622316 0 0 0 0.00601575 4.35068e-05 
606 0.269099 0.683725 0.0328028 0.00479033 0.00239573 0 0 0.00479061 0.00239644 0 
607 0.285231 0.710117 4.06636e-06 0 0 0.0046483 0 0 0 0 
608 0.250041 0.740861 6.41008e-07 0 0.0090974 0 0 0 0 0 
609 0.276641 0.630624 0.0649794 0.0051458 0 0 0 2.06761e-06 0.0169468 0.00566006 
610 0 0 0.667548 0.332452 0 0 0 0 0 0 
611 0.300169 0.695179 4.06636e-06 0 0 0.0046483 0 0 0 0 
612 0.209256 0.711694 0.0493026 0.0168068 0.00968018 0 0 0 0 0.0032602 
613 0.128525 0.731107 0.100792 0.005817 0.00562642 0 0.0225418 0.00559011 0 0 
614 0.164188 0.739857 0.0861106 0.00672687 7.84654e-05 0 0 0 0.00303899 0 
615 0 0.947164 0.000257135 0.0525785 0 0 0 0 0 0 
616 0.215695 0.689005 0.0646382 0.0173239 0.00997803 0 0 0 0 0.00336052 
617 0.265597 0.687183 0.0328463 0.00479033 0.00239573 0 0 0.00479061 0.00239644 0 
618 0.356995 0.59067 0.035054 0.00624242 5.31569e-07 0.00441484 0 0 0.00204287 0.00458016 
619 0.215695 0.688648 0.0649937 0.0173246 0.00997803 0 0 0 0 0.00336052 
620 0.173914 0.505059 0.193391 1.13707e-05 0.0364566 0 0.0182337 0.000645898 0.0722887 0 
621 0.216879 0.692076 0.0493752 0.029755 0.0060374 0 0 0 0.00583617 4.22081e-05 
622 0.163608 0.740437 0.0861106 0.00672687 7.84654e-05 0 0 0 0.00303899 0 
623 0.152819 0.718366 0.0903885 0.0147745 0 0.000888381 0.0148792 0 0 0.00788377 
624 0.255769 0.697718 0.0323581 0.00471775 0.00235943 0 0 0.00471802 0.00236013 0 
625 0.351549 0.596862 0.0345699 0.00614784 5.23515e-07 0.00434795 0 0 0.00201191 0.00451077 
626 0.163608 0.740437 0.0861106 0.00672687 7.84654e-05 0 0 0 0.00303899 0 
627 0.173914 0.519918 0.178532 1.1111e-05 0.0364566 0 0.0182337 0.000645899 0.0722887 0 
628 0.212427 0.707114 0.0502619 0.0170615 0.00982685 0 0 0 0 0.0033096 
629 0.155167 0.714037 0.091779 0.0150018 0 0.000902048 0.0151081 0 0 0.00800506 
630 0 0.94716 0.000260369 0.0525785 0 0 0 0 0 0 
631 0.207559 0.675841 0.0742979 0.0302059 0.00612887 0 0 0 0.0059246 4.28476e-05 
632 0.276963 0.718519 3.9485e-06 0 0 0.00451357 0 0 0 0 
633 0.257734 0.732888 6.64057e-07 0 0.00937732 0 0 0 0 0 
634 0.227547 0.68055 0.049601 0.0302059 0.00612887 0 0 0 0.0059246 4.28476e-05 
635 0.253829 0.736935 6.5072e-07 0 0.00923524 0 0 0 0 0 
636 0.294007 0.701197 4.19148e-06 0 0 0.00479133 0 0 0 0 
637 0.285153 0.619259 0.0669788 0.00530413 0 0 0 2.13123e-06 0.0174682 0.00583422 
638 0.155167 0.714037 0.091779 0.0150018 0 0.000902048 0.0151081 0 0 0.00800506 
639 0.215695 0.702823 0.0508196 0.0173239 0.00997803 0 0 0 0 0.00336052 
640 0.155167 0.714037 0.091779 0.0150018 0 0.000902048 0.0151081 0 0 0.00800506 
641 0.128525 0.731107 0.100792 0.005817 0.00562642 0 0.0225418 0.00559011 0 0 
642 0.159314 0.75821 0.0359691 0.0344166 0.00219468 0 0 0 0 0.00989567 
643 0.163608 0.740411 0.0861366 0.00672687 7.84654e-05 0 0 0 0.00303899 0 
644 0.356952 0.590713 0.035054 0.00624242 5.31569e-07 0.00441484 0 0 0.00204287 0.00458016 
645 0.0958948 0.828365 0 0 0 0.0757397 0 0 0 0 
646 0.173914 0.519918 0.178532 1.1111e-05 0.0364566 0 0.0182337 0.000645898 0.0722887 0 
647 0.17465 0.729395 0.0861106 0.00672687 7.84654e-05 0 0 0 0.00303899 0 
648 0.259488 0.677952 0.0328104 0.0201674 0.00239573 0 0 0.00479061 0.00239644 0 
649 0.251749 0.702483 0.0318237 0.00464734 0.00232422 0 0 0.0046476 0.0023249 0 
650 0.36126 0.587967 0.0340076 0.00605608 5.15701e-07 0.00428306 0 0 0.00198188 0.00444344 
651 0.362299 0.5853 0.0351197 0.00624242 5.31569e-07 0.00441484 0 0 0.00204287 0.00458017 
652 0.215695 0.702823 0.0508196 0.0173239 0.00997803 0 0 0 0 0.00336052 
653 0.155167 0.714036 0.0917796 0.0150018 0 0.000902048 0.0151081 0 0 0.00800506 
654 0.270708 0.682831 0.0323058 0.00471775 0.00235943 0 0 0.00471802 0.00236013 0 
655 0.356952 0.590713 0.035054 0.00624242 5.31569e-07 0.00441484 0 0 0.00204287 0.00458016 
656 0.163608 0.740437 0.0861106 0.00672687 7.84654e-05 0 0 0 0.00303899 0 
657 0.259488 0.693336 0.0328028 0.00479033 0.00239573 0 0 0.00479061 0.00239644 0 
658 0.356952 0.590713 0.035054 0.00624242 5.31569e-07 0.00441484 0 0 0.00204287 0.00458016 
659 0.207559 0.700538 0.049601 0.0302059 0.00612887 0 0 0 0.0059246 4.28476e-05 
660 0.222256 0.696261 0.0508196 0.0173239 0.00997803 0 0 0 0 0.00336052 
661 0.219535 0.687148 0.0503641 0.0306706 0.00622316 0 0 0 0.00601574 4.35068e-05 
662 0.29593 0.608483 0.0669788 0.00530413 0 0 0 2.13123e-06 0.0174682 0.00583422 
663 0.175499 0.73278 0.0823119 0.00643009 7.50037e-05 0 0 0 0.00290491 0 
664 0.356952 0.575328 0.0376711 0.01901 5.31569e-07 0.00441484 0 0 0.00204287 0.00458016 
665 0.128525 0.731107 0.100792 0.005817 0.00562642 0 0.0225418 0.00559011 0 0 
666 0.215695 0.702823 0.0508196 0.0173239 0.00997803 0 0 0 0 0.00336052 
667 0.159314 0.75821 0.0359691 0.0344166 0.00219468 0 0 0 0 0.00989567 
668 0.183865 0.509966 0.178532 1.1111e-05 0.0364566 0 0.0182337 0.000645898 0.0722887 0 
669 0.221121 0.697397 0.0508196 0.0173239 0.00997803 0 0 0 0 0.00336052 
670 0.280833 0.625028 0.065964 0.00522376 0 0 0 2.09894e-06 0.0172036 0.00574582 
671 0 0.947164 0.000257135 0.0525785 0 0 0 0 0 0 
672 0.159314 0.758209 0.0359709 0.0344166 0.00219468 0 0 0 0 0.00989567 
673 0.259488 0.677954 0.0481855 0.00479033 0.00239573 0 0 0.00479061 0.00239644 0 
674 0.128525 0.729622 0.102277 0.005817 0.00562642 0 0.0225418 0.00559011 0 0 
675 0.212427 0.705752 0.0516236 0.0170615 0.00982685 0 0 0 0 0.0033096 
676 0 0.947164 0.000257135 0.0525785 0 0 0 0 0 0 
677 0.163608 0.740363 0.0861845 0.00672687 7.84654e-05 0 0 0 0.00303899 0 
678 0.215695 0.687439 0.0508208 0.0318389 0.0108464 0 0 0 0 0.00336052 
679 0.294007 0.701197 4.19148e-06 0 0 0.00479133 0 0 0 0 
680 0 0.947964 0.000253242 0.0517819 0 0 0 0 0 0 
681 0 0.974753 4.48027e-07 0 0 0.0252466 0 0 0 0 
682 0.0240157 0.951921 4.78262e-05 0 0 0 0 0 0.024015 0 
683 0.289553 0.705724 4.12797e-06 0 0 0.00471873 0 0 0 0 
684 0.16113 0.744369 0.0848059 0.00662494 7.72766e-05 0 0 0 0.00299294 0 
685 0.257956 0.695583 0.0323059 0.00471775 0.00235943 0 0 0.00471802 0.00236013 0 
686 0.299244 0.696301 5.5045e-06 0 0 0.00444909 0 0 0 0 
687 0.221468 0.67849 0.0607097 0.0280878 0.00569726 0 0 0 0.00550737 3.98302e-05 
688 0.177732 0.697243 0.0877299 0.01434 0 0.000862252 0.0144415 0 0 0.00765189 
689 0.310115 0.685162 4.12797e-06 0 0 0.00471873 0 0 0 0 
690 0.346297 0.560861 0.0760773 0.00605609 5.15701e-07 0.00428306 0 0 0.00198188 0.00444344 
691 0.158725 0.715638 0.115979 0.00663439 7.61232e-05 0 0 0 0.00294827 0 
692 0.264863 0.726038 6.41008e-07 0 0.0090974 0 0 0 0 0 
693 0.280833 0.625028 0.065964 0.00522376 0 0 0 2.09894e-06 0.0172036 0.00574582 
694 0.1569 0.731571 0.0354255 0.0641966 0.00216152 0 0 0 0 0.00974573 
695 0.255556 0.690038 0.0402501 0.00471775 0.00235943 0 0 0.00471802 0.00236013 0 
696 0.212427 0.707326 0.0500496 0.0170615 0.00982685 0 0 0 0 0.0033096 
697 0.351544 0.596914 0.0345229 0.00614784 5.23515e-07 0.00434795 0 0 0.00201191 0.00451077 
698 0.16113 0.744369 0.0848059 0.00662494 7.72766e-05 0 0 0 0.00299294 0 
699 0.280833 0.594725 0.0659639 0.00522376 0 0 0 6.85685e-06 0.0474974 0.00575026 
700 0.381758 0.5667 0.0345229 0.00614784 5.23515e-07 0.00434795 0 0 0.00201191 0.00451077 
701 0.126578 0.735181 0.0992653 0.00572887 0.00554117 0 0.0222003 0.00550542 0 0 
702 0.15454 0.709283 0.0977837 0.00564336 0.00545847 0 0.0218689 0.00542325 0 0 
703 0.242728 0.677024 0.0500496 0.0170615 0.00982685 0 0 0 0 0.0033096 
704 0.1569 0.761874 0.0354241 0.0338951 0.00216143 0 0 0 0 0.00974573 
705 0.152537 0.711993 0.0976404 0.00556037 0.0053782 0 0.0215473 0.00534349 0 0 
706 0.257036 0.667302 0.0471896 0.0160865 0.00926531 0 0 0 0 0.00312048 
707 0.285593 0.667946 0.0323058 0.00471775 0.00235943 0 0 0.00471802 0.00236013 0 
708 0.237388 0.670709 0.049601 0.0302059 0.00612887 0 0 0 0.0059246 4.28476e-05 
709 0.285497 0.668042 0.0323058 0.00471775 0.00235943 0 0 0.00471802 0.00236013 0 
710 0.0236518 0.95265 4.71016e-05 0 0 0 0 0 0.0236512 0 
711 0 0.827317 0.0384835 3.1841e-07 0.0346318 0 0 0 0 0.0995671 
712 0.255018 0.735746 6.5072e-07 0 0.00923524 0 0 0 0 0 
713 0.120949 0.873359 0.0056922 0 0 0 0 0 0 0 
714 0 0.951629 0.00023541 0.0481353 0 0 0 0 0 0 
715 0.259734 0.69309 0.032803 0.00479033 0.00239573 0 0 0.00479061 0.00239644 0 
716 0.128525 0.731107 0.100792 0.005817 0.00562642 0 0.0225418 0.00559011 0 0 
717 0.357673 0.589992 0.035054 0.00624242 5.31569e-07 0.00441484 0 0 0.00204287 0.00458016 
718 0.110974 0.883071 0.00595492 0 0 0 0 0 0 0 
719 0.159314 0.742875 0.0513044 0.0344166 0.00219468 0 0 0 0 0.00989566 
720 0.159314 0.75821 0.0359691 0.0344166 0.00219468 0 0 0 0 0.00989567 
721 0 0.917709 0.0822902 0 0 0 0 0 0 0 
722 0.230787 0.687731 0.0508196 0.0173239 0.00997803 0 0 0 0 0.00336052 
723 0.110974 0.883071 0.00595492 0 0 0 0 0 0 0 
724 0.212427 0.70711 0.0502656 0.0170615 0.00982685 0 0 0 0 0.0033096 
725 0.273076 0.717546 6.60731e-07 0 0.00937732 0 0 0 0 0 
726 0.274872 0.677952 0.0328028 0.00479033 0.00239573 0 0 0.00479061 0.00239644 0 
727 0.155167 0.714037 0.091779 0.0150018 0 0.000902048 0.0151081 0 0 0.00800506 
728 0.128525 0.731107 0.100792 0.005817 0.00562642 0 0.0225418 0.00559011 0 0 
729 0.230876 0.687642 0.0508196 0.0173239 0.00997803 0 0 0 0 0.00336052 
730 0.0240157 0.936536 4.78262e-05 0 0 0 0 0 0.0393997 0 
731 0.159314 0.75821 0.0359691 0.0344166 0.00219468 0 0 0 0 0.00989567 
732 0.280833 0.624334 0.0666578 0.00522376 0 0 0 2.09894e-06 0.0172036 0.00574582 
733 0.212427 0.707326 0.0500496 0.0170615 0.00982685 0 0 0 0 0.0033096 
734 0.128525 0.731107 0.100792 0.005817 0.00562642 0 0.0225418 0.00559011 0 0 
735 0.294007 0.701197 4.19148e-06 0 0 0.00479133 0 0 0 0 
736 0.212427 0.707326 0.0500496 0.0170615 0.00982685 0 0 0 0 0.0033096 
737 0.173914 0.504536 0.193915 1.1111e-05 0.0364566 0 0.0182337 0.000645899 0.0722887 0 
738 0 0.947164 0.000257135 0.0525785 0 0 0 0 0 0 
739 0 0.931779 0.000257135 0.0679632 0 0 0 0 0 0 
740 0.110974 0.883071 0.00595492 0 0 0 0 0 0 0 
741 0.173914 0.519916 0.178534 1.1111e-05 0.0364566 0 0.0182337 0.000645899 0.0722887 0 
742 0.163608 0.725052 0.101495 0.00672691 7.84654e-05 0 0 0 0.00303899 0 
743 0.174685 0.742839 0.0359691 0.0344166 0.00219468 0 0 0 0 0.00989567 
744 0.159314 0.75821 0.0359691 0.0344166 0.00219468 0 0 0 0 0.00989567 
745 0.259488 0.693336 0.0328029 0.00479033 0.00239573 0 0 0.00479061 0.00239644 0 
746 0.209261 0.696163 0.0648237 0.0168127 0.00968018 0 0 0 0 0.0032602 
747 0.375919 0.573308 0.0340076 0.00605608 5.15701e-07 0.00428306 0 0 0.00198188 0.00444344 
748 0.161143 0.744355 0.0848059 0.00662494 7.72766e-05 0 0 0 0.00299294 0 
749 0.215695 0.702823 0.0508196 0.0173239 0.00997803 0 0 0 0 0.00336052 
750 0.110974 0.883071 0.00595492 0 0 0 0 0 0 0 
751 0.16113 0.744369 0.0848059 0.00662494 7.72766e-05 0 0 0 0.00299294 0 
752 0.168617 0.740991 0.0811187 0.0063369 7.39167e-05 0 0 0 0.00286281 0 
753 0.351544 0.596914 0.0345229 0.00614784 5.23515e-07 0.00434795 0 0 0.00201191 0.00451077 
754 0.294007 0.685813 4.19148e-06 0 0 0.0201759 0 0 0 0 
755 0 0.947164 0.000257135 0.0525785 0 0 0 0 0 0 
756 0.240649 0.669629 0.0492591 0.0288926 0.0058624 0 0 0 0.00566701 4.09847e-05 
757 0.207568 0.700529 0.049601 0.0302059 0.00612887 0 0 0 0.0059246 4.28476e-05 
758 0.158725 0.703409 0.128316 0.00652606 7.61232e-05 0 0 0 0.00294827 0 
759 0.17894 0.725105 0.0861106 0.00672687 7.84654e-05 0 0 0 0.00303899 0 
760 0.178389 0.725656 0.0861106 0.00672687 7.84654e-05 0 0 0 0.00303899 0 
761 0.285153 0.619259 0.0669788 0.00530413 0 0 0 2.13123e-06 0.0174682 0.00583422 
762 0.173966 0.519865 0.178532 1.1111e-05 0.0364566 0 0.0182337 0.000645898 0.0722887 0 
763 0 0.928351 0 0.0281319 0 0.0435164 1.39318e-07 0 0 0 
764 0.163608 0.725052 0.0861107 0.0221113 7.84654e-05 0 0 0 0.00303899 0 
765 0.143893 0.715739 0.100792 0.005817 0.00562642 0 0.0225418 0.00559011 0 0 
766 0.210752 0.695931 0.0503641 0.0306706 0.00622316 0 0 0 0.00601575 4.35068e-05 
767 0.210752 0.695931 0.0503641 0.0306706 0.00622316 0 0 0 0.00601575 4.35068e-05 
768 0 0.999999 0 0 0 0 0 0 0 0 
769 0.281036 0.71438 4.00656e-06 0 0 0.00457995 0 0 0 0 
770 0.207559 0.700538 0.049601 0.0302059 0.00612887 0 0 0 0.0059246 4.28476e-05 
771 0 0.975506 4.34654e-07 0 0 0.024493 0 0 0 0 
772 0 0.947164 0.000257135 0.0525785 0 0 0 0 0 0 
773 0.215695 0.688565 0.0650782 0.017324 0.00997803 0 0 0 0 0.00336052 
774 0.173914 0.519918 0.178532 1.1111e-05 0.0364566 0 0.0182337 0.000645899 0.0722887 0 
775 0.285153 0.619259 0.0669788 0.00530413 0 0 0 2.13123e-06 0.0174682 0.00583422 
776 0.128525 0.731107 0.100792 0.005817 0.00562642 0 0.0225418 0.00559011 0 0 
777 0.285153 0.619259 0.0669788 0.00530413 0 0 0 2.13123e-06 0.0174682 0.00583422 
778 0.356952 0.590713 0.035054 0.00624242 5.31569e-07 0.00441484 0 0 0.00204287 0.00458016 
779 0 0.947164 0.000257135 0.0525785 0 0 0 0 0 0 
780 0.1569 0.761874 0.0354241 0.0338951 0.00216143 0 0 0 0 0.00974573 
781 0.285153 0.603874 0.0669788 0.00530413 0 0 0 2.82844e-06 0.0328344 0.00585198 
782 0.218841 0.699677 0.0508196 0.0173239 0.00997803 0 0 0 0 0.00336052 
783 0.273031 0.679793 0.0328028 0.00479033 0.00239573 0 0 0.00479061 0.00239644 0 
784 0.3711 0.576565 0.035054 0.00624242 5.31569e-07 0.00441484 0 0 0.00204287 0.00458016 
785 0.251747 0.672635 0.0318237 0.00464734 0.00232422 0 0 0.0344937 0.00232956 0 
786 0.224894 0.681789 0.0503641 0.0306706 0.00622316 0 0 0 0.00601574 4.35068e-05 
787 0.371707 0.575958 0.035054 0.00624242 5.31569e-07 0.00441484 0 0 0.00204287 0.00458016 
788 0.176236 0.729262 0.0848059 0.00662494 7.72766e-05 0 0 0 0.00299294 0 
789 0.273937 0.678888 0.0328028 0.00479033 0.00239573 0 0 0.00479061 0.00239644 0 
790 0 0.943736 0 0.0281319 0 0.0281318 1.04532e-07 0 0 0 
791 0.300063 0.60435 0.0669788 0.00530413 0 0 0 2.13123e-06 0.0174682 0.00583422 
792 0.209256 0.696748 0.0493231 0.031732 0.00968018 0 0 0 0 0.0032602 
793 0.166208 0.744679 0.0799713 0.00624638 7.28608e-05 0 0 0 0.00282192 0 
794 0.174698 0.742826 0.0359691 0.0344166 0.00219468 0 0 0 0 0.00989567 
795 0.178993 0.725052 0.0861106 0.00672687 7.84654e-05 0 0 0 0.00303899 0 
796 0.285702 0.667837 0.0323058 0.00471775 0.00235943 0 0 0.00471802 0.00236013 0 
797 0.170215 0.698989 0.091779 0.0150018 0 0.000902048 0.0151081 0 0 0.00800506 
798 0.174391 0.743133 0.0359691 0.0344166 0.00219468 0 0 0 0 0.00989567 
799 0.16113 0.744369 0.0848059 0.00662494 7.72766e-05 0 0 0 0.00299294 0 
800 0.231079 0.687439 0.0508196 0.0173239 0.00997803 0 0 0 0 0.00336052 
801 0 0.974753 4.48027e-07 0 0 0.0252466 0 0 0 0 
802 0 0.975506 4.34654e-07 0 0 0.024493 0 0 0 0 
803 0.0560536 0.553078 0.301116 7.75214e-06 0.0897436 0 0 0 0 0 
804 0.230187 0.688331 0.0508196 0.0173239 0.00997803 0 0 0 0 0.00336052 
805 0.16014 0.709064 0.091779 0.0150018 0 0.000902048 0.0151081 0 0 0.00800506 
806 0.155167 0.698652 0.091779 0.0150018 0 0.000902048 0.0151081 0 0 0.0233897 
807 0.128525 0.731107 0.100792 0.005817 0.00562642 0 0.0225418 0.00559011 0 0 
808 0.128525 0.731107 0.100792 0.005817 0.00562642 0 0.0225418 0.00559011 0 0 
809 0.128525 0.715722 0.100792 0.005817 0.00562642 0 0.0379237 0.00559283 0 0 
810 0.159314 0.75821 0.0359691 0.0344166 0.00219468 0 0 0 0 0.00989567 
811 0.210791 0.695892 0.0503641 0.0306706 0.00622316 0 0 0 0.00601575 4.35068e-05 
812 0 0.947164 0.000257135 0.0525785 0 0 0 0 0 0 
813 0.288793 0.61562 0.0669788 0.00530413 0 0 0 2.13123e-06 0.0174682 0.00583422 
814 0.296899 0.607514 0.0669788 0.00530413 0 0 0 2.13123e-06 0.0174682 0.00583422 
815 0.128525 0.731107 0.100792 0.005817 0.00562642 0 0.0225418 0.00559011 0 0 
816 0.128525 0.731107 0.100792 0.005817 0.00562642 0 0.0225418 0.00559011 0 0 
817 0.218875 0.690463 0.0489911 0.029755 0.0060374 0 0 0 0.00583617 4.22081e-05 
818 0.0240157 0.951921 4.78262e-05 0 0 0 0 0 0.024015 0 
819 0.0240157 0.951921 4.78262e-05 0 0 0 0 0 0.024015 0 
820 0.259488 0.680086 0.0460533 0.00479033 0.00239573 0 0 0.00479061 0.00239644 0 
821 0.12955 0.730082 0.100792 0.005817 0.00562642 0 0.0225418 0.00559011 0 0 
822 0.160122 0.755897 0.0374743 0.0344166 0.00219468 0 0 0 0 0.00989567 
823 0.381126 0.567332 0.0345229 0.00614784 5.23515e-07 0.00434795 0 0 0.00201191 0.00451077 
824 0.111163 0.813096 0 0 0 0.0757397 0 0 0 0 
825 0 0.947164 0.000257135 0.0525785 0 0 0 0 0 0 
826 0.215695 0.702567 0.051075 0.0173239 0.00997803 0 0 0 0 0.00336052 
827 0.207566 0.700531 0.049601 0.0302059 0.00612887 0 0 0 0.0059246 4.28476e-05 
828 0.163608 0.725797 0.10075 0.00672688 7.84654e-05 0 0 0 0.00303899 0 
829 0.151213 0.721454 0.0894807 0.014554 0 0.000875121 0.0146571 0 0 0.0077661 
830 0.207559 0.700538 0.049601 0.0302059 0.00612887 0 0 0 0.0059246 4.28476e-05 
831 0.215701 0.702817 0.0508196 0.0173239 0.00997803 0 0 0 0 0.00336052 
832 0.356952 0.590713 0.035054 0.00624242 5.31569e-07 0.00441484 0 0 0.00204287 0.00458016 
833 0.159314 0.758159 0.0360208 0.0344166 0.00219468 0 0 0 0 0.00989567 
834 0.173914 0.504533 0.178532 1.1111e-05 0.0518412 0 0.0182337 0.000645898 0.0722887 0 
835 0.155167 0.714037 0.091779 0.0150018 0 0.000902048 0.0151081 0 0 0.00800506 
836 0.207559 0.685386 0.0496963 0.0452621 0.00612887 0 0 0 0.0059246 4.28476e-05 
837 0.158725 0.748185 0.0835401 0.00652606 7.61232e-05 0 0 0 0.00294827 0 
838 0.159314 0.742826 0.0359691 0.0498011 0.00219468 0 0 0 0 0.00989567 
839 0.259488 0.693336 0.0328028 0.00479033 0.00239573 0 0 0.00479061 0.00239644 0 
840 0.173914 0.519918 0.178532 1.1111e-05 0.0364566 0 0.0182337 0.000645899 0.0722887 0 
841 0.163608 0.725052 0.101495 0.00672687 7.84654e-05 0 0 0 0.00303899 0 
842 0.294007 0.701197 4.19148e-06 0 0 0.00479133 0 0 0 0 
843 0.356952 0.590713 0.035054 0.00624242 5.31569e-07 0.00441484 0 0 0.00204287 0.00458016 
844 0.173914 0.504534 0.193917 1.1111e-05 0.0364566 0 0.0182337 0.000645899 0.0722887 0 
845 0 0.947123 0.000298259 0.0525785 0 0 0 0 0 0 
846 0.163608 0.740437 0.0861107 0.00672687 7.84654e-05 0 0 0 0.00303899 0 
847 0.294007 0.701197 4.19148e-06 0 0 0.00479133 0 0 0 0 
848 0.259488 0.693336 0.0328028 0.00479033 0.00239573 0 0 0.00479061 0.00239644 0 
849 0 0.946218 0 0.0268908 0 0.0268907 0 0 0 0 
850 0.255556 0.697983 0.0323058 0.00471775 0.00235943 0 0 0.00471802 0.00236013 0 
851 0.210752 0.695931 0.0503641 0.0306706 0.00622316 0 0 0 0.00601575 4.35068e-05 
852 0 0.943736 0 0.0281319 0 0.0281318 1.04532e-07 0 0 0 
853 4.88343e-06 0.656405 0 0.343589 0 0 0 0 0 0 
854 0.155167 0.714037 0.091779 0.0150018 0 0.000902048 0.0151081 0 0 0.00800506 
855 0.176802 0.727243 0.0861106 0.00672687 7.84654e-05 0 0 0 0.00303899 0 
856 0.159314 0.742828 0.0513515 0.0344166 0.00219468 0 0 0 0 0.00989567 
857 0.289553 0.705725 4.12797e-06 0 0 0.00471873 0 0 0 0 
858 0.297722 0.697625 4.06636e-06 0 0 0.0046483 0 0 0 0 
859 0.163612 0.736913 0.08963 0.00672687 7.84654e-05 0 0 0 0.00303899 0 
860 0.356952 0.579017 0.0467406 0.00625168 5.31569e-07 0.00441484 0 0 0.00204287 0.00458016 
861 0.270717 0.682822 0.0323058 0.00471775 0.00235943 0 0 0.00471802 0.00236013 0 
862 0.163608 0.740437 0.0861106 0.00672687 7.84654e-05 0 0 0 0.00303899 0 
863 0.259488 0.693336 0.0328028 0.00479033 0.00239573 0 0 0.00479061 0.00239644 0 
864 0 0.945416 0 0.0272921 0 0.0272921 1.01412e-07 0 0 0 
865 0.259488 0.693336 0.0328028 0.00479033 0.00239573 0 0 0.00479061 0.00239644 0 
866 0.272574 0.621049 0.0790085 0.00509214 0 0 0 2.0372e-06 0.0166976 0.00557683 
867 0.21097 0.695689 0.0503884 0.0306706 0.00622316 0 0 0 0.00601575 4.35068e-05 
868 0.163788 0.740111 0.0862564 0.00672687 7.84654e-05 0 0 0 0.00303899 0 
869 0.29852 0.696684 4.19148e-06 0 0 0.00479133 0 0 0 0 
870 0.210752 0.695931 0.0503641 0.0306706 0.00622316 0 0 0 0.00601575 4.35068e-05 
871 0.128525 0.715923 0.115976 0.00581701 0.00562642 0 0.0225418 0.00559011 0 0 
872 0 0.947164 0.000257135 0.0525785 0 0 0 0 0 0 
873 0.172652 0.70317 0.0879483 0.0139303 0 0.000837616 0.0140289 0 0 0.00743327 
874 0.159314 0.742828 0.0449183 0.0408496 0.00219468 0 0 0 0 0.00989567 
875 0.259489 0.693335 0.032803 0.00479033 0.00239573 0 0 0.00479061 0.00239644 0 
876 0.121079 0.733018 0.108618 0.00548412 0.00530025 0 0.021235 0.00526605 0 0 
877 0.285153 0.619204 0.0670338 0.00530413 0 0 0 2.13123e-06 0.0174682 0.00583422 
878 0.259488 0.693336 0.0328028 0.00479033 0.00239573 0 0 0.00479061 0.00239644 0 
879 0 0.947164 0.000257135 0.0525785 0 0 0 0 0 0 
880 0.128525 0.715739 0.11616 0.00581701 0.00562642 0 0.0225418 0.00559011 0 0 
881 0.171279 0.511858 0.191161 1.09427e-05 0.0359042 0 0.0179574 0.000636112 0.0711934 0 
882 0.156902 0.746653 0.0357643 0.0435475 0.00738676 0 0 0 0 0.00974573 
883 0.172023 0.514787 0.187487 1.09427e-05 0.0359042 0 0.0179574 0.000636112 0.0711934 0 
884 0.16113 0.744339 0.0848356 0.00662494 7.72766e-05 0 0 0 0.00299294 0 
885 0.255556 0.697983 0.0323058 0.00471775 0.00235943 0 0 0.00471802 0.00236013 0 
886 0.212427 0.707326 0.0500496 0.0170615 0.00982685 0 0 0 0 0.0033096 
887 0.210752 0.695931 0.0503641 0.0306706 0.00622316 0 0 0 0.00601575 4.35068e-05 
888 0.163608 0.740437 0.0861106 0.00672687 7.84654e-05 0 0 0 0.00303899 0 
889 0.163609 0.740436 0.0861109 0.00672687 7.84654e-05 0 0 0 0.00303899 0 
890 0.259488 0.693336 0.032803 0.00479033 0.00239573 0 0 0.00479061 0.00239644 0 
891 0.259488 0.677952 0.0481867 0.00479036 0.00239573 0 0 0.00479061 0.00239644 0 
892 0.141174 0.720584 0.0992659 0.00572887 0.00554117 0 0.0222003 0.00550542 0 0 
893 0.128525 0.731107 0.100792 0.005817 0.00562642 0 0.0225418 0.00559011 0 0 
894 0.155167 0.714028 0.091787 0.0150018 0 0.000902048 0.0151081 0 0 0.00800506 
895 0.210752 0.695931 0.0503641 0.0306706 0.00622316 0 0 0 0.00601575 4.35068e-05 
896 0.211316 0.695367 0.0503645 0.0306706 0.00622316 0 0 0 0.00601575 4.35068e-05 
897 0.259496 0.693328 0.0328035 0.00479033 0.00239573 0 0 0.00479061 0.00239644 0 
898 0.210752 0.695931 0.0503641 0.0306706 0.00622316 0 0 0 0.00601574 4.35068e-05 
899 0.294008 0.701197 4.19148e-06 0 0 0.00479133 0 0 0 0 
900 0.163608 0.740437 0.0861106 0.00672687 7.84654e-05 0 0 0 0.00303899 0 
901 0 0.999999 0 0 0 0 0 0 0 0 
902 0.257734 0.732888 6.60731e-07 0 0.00937732 0 0 0 0 0 
903 0.173914 0.519918 0.178532 1.1111e-05 0.0364566 0 0.0182337 0.000645899 0.0722887 0 
904 0.210752 0.695931 0.0503641 0.0306706 0.00622316 0 0 0 0.00601575 4.35068e-05 
905 0.163608 0.740437 0.0861106 0.00672687 7.84654e-05 0 0 0 0.00303899 0 
906 0.356952 0.590671 0.0350962 0.00624242 5.31569e-07 0.00441484 0 0 0.00204287 0.00458016 
907 0.155167 0.698844 0.106972 0.0150019 0 0.000902048 0.0151081 0 0 0.00800506 
908 0.155167 0.714037 0.091779 0.0150018 0 0.000902048 0.0151081 0 0 0.00800506 
909 0.173914 0.519918 0.178532 1.1111e-05 0.0364566 0 0.0182337 0.000645899 0.0722887 0 
910 0.244445 0.711114 0.0309012 0.00451263 0.00225685 0 0 0.00451289 0.00225751 0 
911 0.215695 0.687439 0.0659592 0.0175689 0.00997803 0 0 0 0 0.00336052 
912 0.163608 0.740437 0.0861106 0.00672687 7.84654e-05 0 0 0 0.00303899 0 
913 0.219382 0.690086 0.0488607 0.029755 0.0060374 0 0 0 0.00583617 4.22081e-05 
914 0.210752 0.695931 0.0503641 0.0306706 0.00622316 0 0 0 0.00601575 4.35068e-05 
915 0.257734 0.732888 6.60731e-07 0 0.00937732 0 0 0 0 0 
916 0.124689 0.739131 0.0977851 0.00564336 0.00545847 0 0.0218689 0.00542325 0 0 
917 0.207559 0.700538 0.049601 0.0302059 0.00612887 0 0 0 0.0059246 4.28476e-05 
918 0 0.975135 4.41239e-07 0 0 0.0248641 0 0 0 0 
919 0.259488 0.693336 0.0328029 0.00479033 0.00239573 0 0 0.00479061 0.00239644 0 
920 0.285154 0.619259 0.0669791 0.00530413 0 0 0 2.13123e-06 0.0174682 0.00583422 
921 0.360632 0.587031 0.035056 0.00624242 5.31569e-07 0.00441484 0 0 0.00204287 0.00458016 
922 0.289569 0.705708 4.12925e-06 0 0 0.00471873 0 0 0 0 
923 0.283198 0.622647 0.0659803 0.00522376 0 0 0 2.09894e-06 0.0172036 0.00574582 
924 0.186248 0.705736 0.0835546 0.0210518 0.000461266 0 0 0 0.00294827 0 
925 0.207559 0.685386 0.0496072 0.0453433 0.00613736 0 0 0 0.0059246 4.28476e-05 
926 0.255557 0.697973 0.0323145 0.00471775 0.00235943 0 0 0.00471802 0.00236013 0 
927 0.259488 0.689669 0.0364697 0.00479033 0.00239573 0 0 0.00479061 0.00239644 0 
928 0.159314 0.75821 0.0359691 0.0344166 0.00219468 0 0 0 0 0.00989567 
929 0.310378 0.596888 0.0649794 0.0051458 0 0 0 2.06761e-06 0.0169468 0.00566006 
930 0.128525 0.731107 0.100792 0.005817 0.00562642 0 0.0225418 0.00559011 0 0 
931 0.366201 0.581464 0.035054 0.00624242 5.31569e-07 0.00441484 0 0 0.00204287 0.00458016 
932 0.16117 0.756354 0.0359691 0.0344166 0.00219468 0 0 0 0 0.00989567 
933 0.356952 0.590713 0.035054 0.00624242 5.31569e-07 0.00441484 0 0 0.00204287 0.00458016 
934 0.0958948 0.828365 0 0 0 0.0757397 0 0 0 0 
935 0.155167 0.714037 0.091779 0.0150018 0 0.000902048 0.0151081 0 0 0.00800506 
936 0 0.947164 0.000257135 0.0525785 0 0 0 0 0 0 
937 0.215695 0.702823 0.0508196 0.0173239 0.00997803 0 0 0 0 0.00336052 
938 0.169281 0.736218 0.0848059 0.00662494 7.72766e-05 0 0 0 0.00299294 0 
939 0.173914 0.519918 0.178532 1.1111e-05 0.0364566 0 0.0182337 0.000645899 0.0722887 0 
940 0.128525 0.731107 0.100792 0.005817 0.00562642 0 0.0225418 0.00559011 0 0 
941 0.257734 0.732888 6.60731e-07 0 0.00937732 0 0 0 0 0 
942 0.215695 0.702823 0.0508196 0.0173239 0.00997803 0 0 0 0 0.00336052 
943 0.356952 0.590713 0.035054 0.00624242 5.31569e-07 0.00441484 0 0 0.00204287 0.00458016 
944 0.255556 0.697983 0.0323058 0.00471775 0.00235943 0 0 0.00471802 0.00236013 0 
945 0.285373 0.61904 0.0669788 0.00530413 0 0 0 2.13123e-06 0.0174682 0.00583422 
946 0.159314 0.742826 0.0359779 0.0497924 0.00219468 0 0 0 0 0.00989567 
947 0.163608 0.740437 0.0861106 0.00672687 7.84654e-05 0 0 0 0.00303899 0 
948 0.259488 0.693336 0.0328028 0.00479033 0.00239573 0 0 0.00479061 0.00239644 0 
949 0.356952 0.575328 0.0504386 0.00624242 5.31569e-07 0.00441484 0 0 0.00204287 0.00458016 
950 0.161117 0.757463 0.0356178 0.0338951 0.00216143 0 0 0 0 0.00974573 
951 0.357149 0.586234 0.0393365 0.00624242 5.31569e-07 0.00441484 0 0 0.00204287 0.00458016 
952 0.159314 0.75821 0.0359691 0.0344166 0.00219468 0 0 0 0 0.00989567 
953 0.0958948 0.828365 0 0 0 0.0757397 0 0 0 0 
954 0.173914 0.519918 0.178532 1.1111e-05 0.0364566 0 0.0182337 0.000645899 0.0722887 0 
955 0.155167 0.714037 0.091779 0.0150018 0 0.000902048 0.0151081 0 0 0.00800506 
956 0.204461 0.705007 0.0488607 0.029755 0.0060374 0 0 0 0.00583617 4.22081e-05 
957 0.207924 0.700173 0.049601 0.0302059 0.00612887 0 0 0 0.0059246 4.28476e-05 
958 0.274871 0.677953 0.0328028 0.00479033 0.00239573 0 0 0.00479061 0.00239644 0 
959 0.159314 0.75821 0.0359691 0.0344166 0.00219468 0 0 0 0 0.00989567 
960 0.356952 0.590706 0.0350614 0.00624242 5.31569e-07 0.00441484 0 0 0.00204287 0.00458016 
961 0.163608 0.740437 0.0861106 0.00672687 7.84654e-05 0 0 0 0.00303899 0 
962 0.163608 0.740437 0.0861106 0.00672687 7.84654e-05 0 0 0 0.00303899 0 
963 0.159314 0.75821 0.0359691 0.0344166 0.00219468 0 0 0 0 0.00989567 
964 0.22271 0.679737 0.0552504 0.0302059 0.00612887 0 0 0 0.0059246 4.28476e-05 
965 0.210752 0.695919 0.0503762 0.0306706 0.00622316 0 0 0 0.00601575 4.35068e-05 
966 0.289553 0.705725 4.12797e-06 0 0 0.00471873 0 0 0 0 
967 0.212427 0.707326 0.0500496 0.0170615 0.00982685 0 0 0 0 0.0033096 
968 0.356952 0.590706 0.0350603 0.00624242 5.31569e-07 0.00441484 0 0 0.00204287 0.00458016 
969 0.294007 0.701197 4.19148e-06 0 0 0.00479133 0 0 0 0 
970 0.274867 0.677957 0.0328028 0.00479033 0.00239573 0 0 0.00479061 0.00239644 0 
971 0.182261 0.51157 0.178532 1.1111e-05 0.0364566 0 0.0182337 0.000645898 0.0722887 0 
972 0.159314 0.75821 0.0359691 0.0344166 0.00219468 0 0 0 0 0.00989567 
973 0.285153 0.619259 0.0669788 0.00530413 0 0 0 2.13123e-06 0.0174682 0.00583422 
974 0.259498 0.693327 0.0328028 0.00479033 0.00239573 0 0 0.00479061 0.00239644 0 
975 0.210752 0.695931 0.0503641 0.0306706 0.00622316 0 0 0 0.00601575 4.35068e-05 
976 0.356952 0.590713 0.035054 0.00624242 5.31569e-07 0.00441484 0 0 0.00204287 0.00458016 
977 0.210752 0.695931 0.0503641 0.0306706 0.00622316 0 0 0 0.00601575 4.35068e-05 
978 0.210752 0.680546 0.0503641 0.0460552 0.00622316 0 0 0 0.00601574 4.35068e-05 
979 0.163608 0.740437 0.0861106 0.00672687 7.84654e-05 0 0 0 0.00303899 0 
980 0.255556 0.683099 0.0471894 0.00471775 0.00235943 0 0 0.00471802 0.00236013 0 
981 0.253829 0.736935 6.5072e-07 0 0.00923524 0 0 0 0 0 
982 0.289553 0.705725 4.12797e-06 0 0 0.00471873 0 0 0 0 
983 0.122855 0.742936 0.096379 0.00556037 0.0053782 0 0.0215473 0.00534349 0 0 
984 0.128525 0.716556 0.115325 0.00583538 0.00562642 0 0.0225418 0.00559011 0 0 
985 0.356952 0.590713 0.035054 0.00624242 5.31569e-07 0.00441484 0 0 0.00204287 0.00458016 
986 0.303063 0.692141 4.19148e-06 0 0 0.00479133 0 0 0 0 
987 0.217081 0.689602 0.0503641 0.0306706 0.00622316 0 0 0 0.00601575 4.35068e-05 
988 0.215814 0.690869 0.0503641 0.0306706 0.00622316 0 0 0 0.00601574 4.35068e-05 
989 0.367275 0.58039 0.035054 0.00624242 5.31569e-07 0.00441484 0 0 0.00204287 0.00458016 
990 0.215695 0.702823 0.0508196 0.0173239 0.00997803 0 0 0 0 0.00336052 
991 0.356952 0.590713 0.035054 0.00624242 5.31569e-07 0.00441484 0 0 0.00204287 0.00458016 
992 0.163608 0.740437 0.0861106 0.00672687 7.84654e-05 0 0 0 0.00303899 0 
993 0.128525 0.731107 0.100792 0.005817 0.00562642 0 0.0225418 0.00559011 0 0 
994 0.259488 0.693336 0.0328028 0.00479033 0.00239573 0 0 0.00479061 0.00239644 0 
995 0 0.855357 0.0391483 3.23308e-07 0.0351646 0 0 0 0 0.0703297 
996 0 0.840118 0.0543875 3.23308e-07 0.0351646 0 0 0 0 0.0703297 
997 0 0.947164 0.000257135 0.0525785 0 0 0 0 0 0 
998 0.29242 0.612917 0.0664873 0.00522376 0 0 0 2.09894e-06 0.0172036 0.00574582 
999 0.260175 0.730447 6.60731e-07 0 0.00937732 0 0 0 0 0 
1000 0.285153 0.619259 0.0669788 0.00530413 0 0 0 2.13123e-06 0.0174682 0.00583422 
1001 0.372337 0.575328 0.035054 0.00624242 5.31569e-07 0.00441484 0 0 0.00204287 0.00458016 
1002 0.163609 0.740436 0.0861106 0.00672687 7.84654e-05 0 0 0 0.00303899 0 
1003 0.309642 0.604267 0.0606176 0.00472285 0 0 0 1.89767e-06 0.0155539 0.00519485 
1004 0.305703 0.689501 4.19148e-06 0 0 0.00479133 0 0 0 0 
1005 0.155167 0.698652 0.091779 0.0150018 0 0.00263516 0.0287596 0 0 0.00800506 
1006 0.214441 0.692242 0.0503643 0.0306706 0.00622316 0 0 0 0.00601575 4.35068e-05 
1007 0.350675 0.599299 0.0335077 0.00596702 5.08117e-07 0.00422007 0 0 0.00195274 0.0043781 
1008 0 0.902697 0.0973023 0 0 0 0 0 0 0 
1009 0.158725 0.73336 0.0983653 0.00652606 7.61232e-05 0 0 0 0.00294827 0 
1010 0.210752 0.695931 0.0503641 0.0306706 0.00622316 0 0 0 0.00601575 4.35068e-05 
1011 0.152816 0.718255 0.0905028 0.0147745 0 0.000888381 0.0148792 0 0 0.00788377 
1012 0.16113 0.744369 0.0848059 0.00662494 7.72766e-05 0 0 0 0.00299294 0 
1013 0.1569 0.761874 0.0354241 0.0338951 0.00216143 0 0 0 0 0.00974573 
1014 0.21257 0.707183 0.0500496 0.0170615 0.00982685 0 0 0 0 0.0033096 
1015 0.207559 0.700538 0.049601 0.0302059 0.00612887 0 0 0 0.0059246 4.28476e-05 
1016 0.212427 0.707326 0.0500496 0.0170615 0.00982685 0 0 0 0 0.0033096 
1017 0.16113 0.744369 0.0848059 0.00662494 7.72766e-05 0 0 0 0.00299294 0 
1018 0.255556 0.697983 0.0323058 0.00471775 0.00235943 0 0 0.00471802 0.00236013 0 
1019 0 0.947964 0.000253244 0.0517819 0 0 0 0 0 0 
1020 0.289553 0.705725 4.12797e-06 0 0 0.00471873 0 0 0 0 
1021 0.16113 0.71408 0.115095 0.00662494 7.72766e-05 0 0 0 0.00299294 0 
1022 0.109293 0.884748 0.00595885 0 0 0 0 0 0 0 
1023 0.0930323 0.833488 0 0 0 0.0734788 0 0 0 0 
1024 0.18246 0.688726 0.0903884 0.0147745 0 0.000888381 0.0148792 0 0 0.00788377 
1025 0.212427 0.677023 0.0500496 0.0473645 0.00982685 0 0 0 0 0.0033096 
1026 0.207559 0.700538 0.049601 0.0302059 0.00612887 0 0 0 0.0059246 4.28476e-05 
1027 0.259488 0.693336 0.0328028 0.00479033 0.00239573 0 0 0.00479061 0.00239644 0 
1028 0.248063 0.706842 0.0313557 0.004579 0.00229004 0 0 0.00457926 0.00229071 0 
1029 0.212427 0.692222 0.0651538 0.0170615 0.00982685 0 0 0 0 0.0033096 
1030 0.16113 0.744369 0.0848059 0.00662494 7.72766e-05 0 0 0 0.00299294 0 
1031 0.185664 0.722614 0.0823118 0.00643009 7.50037e-05 0 0 0 0.00290491 0 
1032 0 0.921386 0.0786128 0 0 0 0 0 0 0 
1033 0.0236518 0.95265 4.71016e-05 0 0 0 0 0 0.0236512 0 
1034 0.163608 0.740437 0.0861106 0.00672687 7.84654e-05 0 0 0 0.00303899 0 
1035 0.255571 0.697968 0.0323058 0.00471775 0.00235943 0 0 0.00471802 0.00236013 0 
1036 0.163608 0.740274 0.0862726 0.00672687 7.84654e-05 0 0 0 0.00303899 0 
1037 0.128525 0.715722 0.116177 0.005817 0.00562642 0 0.0225418 0.00559011 0 0 
1038 0.285153 0.603932 0.0823053 0.00530413 0 0 0 2.13123e-06 0.0174682 0.00583422 
1039 0.159314 0.75821 0.0359691 0.0344166 0.00219468 0 0 0 0 0.00989567 
1040 0.128525 0.726121 0.105778 0.005817 0.00562642 0 0.0225418 0.00559011 0 0 
1041 0.16364 0.740405 0.0861106 0.00672687 7.84654e-05 0 0 0 0.00303899 0 
1042 0.163608 0.740437 0.0861106 0.00672687 7.84654e-05 0 0 0 0.00303899 0 
1043 0.210752 0.695931 0.0503641 0.0306706 0.00622316 0 0 0 0.00601575 4.35068e-05 
1044 0.174372 0.730859 0.0850736 0.00662494 7.72766e-05 0 0 0 0.00299294 0 
1045 0.356952 0.590713 0.035054 0.00624242 5.31569e-07 0.00441484 0 0 0.00204287 0.00458016 
1046 0.163608 0.740437 0.0861106 0.00672687 7.84654e-05 0 0 0 0.00303899 0 
1047 0.128525 0.731107 0.100792 0.005817 0.00562642 0 0.0225418 0.00559011 0 0 
1048 0.259488 0.693336 0.0328028 0.00479033 0.00239573 0 0 0.00479061 0.00239644 0 
1049 0.294007 0.701197 4.19148e-06 0 0 0.00479133 0 0 0 0 
1050 0.0240157 0.951921 4.78262e-05 0 0 0 0 0 0.024015 0 
1051 0.163608 0.740435 0.0861123 0.00672687 7.84654e-05 0 0 0 0.00303899 0 
1052 0.128525 0.715722 0.115705 0.00628882 0.00562642 0 0.0225418 0.00559012 0 0 
1053 0.131991 0.731806 0.0978099 0.00564336 0.00545847 0 0.0218689 0.00542325 0 0 
1054 0.276641 0.630624 0.0649794 0.0051458 0 0 0 2.06761e-06 0.0169468 0.00566006 
1055 0.0560536 0.56823 0.301116 7.75214e-06 0.0745921 0 0 0 0 0 
1056 0.142285 0.719474 0.0992654 0.00572887 0.00554117 0 0.0222003 0.00550542 0 0 
1057 0.210752 0.695929 0.0503659 0.0306706 0.00622316 0 0 0 0.00601575 4.35068e-05 
1058 0 0.943736 0 0.0281319 0 0.0281318 1.04532e-07 0 0 0 
1059 0.0240157 0.951921 4.78262e-05 0 0 0 0 0 0.024015 0 
1060 0.215726 0.702792 0.0508196 0.0173239 0.00997803 0 0 0 0 0.00336052 
1061 0.257734 0.732888 6.60731e-07 0 0.00937732 0 0 0 0 0 
1062 0.356952 0.575328 0.0504385 0.00624242 5.31569e-07 0.00441484 0 0 0.00204287 0.00458016 
1063 0.159314 0.742826 0.035969 0.0344165 0.00219468 0 0 0 0 0.0252803 
1064 0.0240157 0.951921 4.78262e-05 0 0 0 0 0 0.024015 0 
1065 0.163608 0.740436 0.0861107 0.00672687 7.84654e-05 0 0 0 0.00303899 0 
1066 0.259488 0.677966 0.048173 0.00479035 0.00239573 0 0 0.00479061 0.00239644 0 
1067 0.215695 0.687439 0.0525018 0.0310263 0.00997803 0 0 0 0 0.00336052 
1068 0.370656 0.577009 0.035054 0.00624242 5.31569e-07 0.00441484 0 0 0.00204287 0.00458016 
1069 0.159314 0.75821 0.0359691 0.0344166 0.00219468 0 0 0 0 0.00989567 
1070 0 0.947964 0.000253239 0.0517819 0 0 0 0 0 0 
1071 0.128525 0.731107 0.100792 0.005817 0.00562642 0 0.0225418 0.00559011 0 0 
1072 0.255556 0.682831 0.0474573 0.00471775 0.00235943 0 0 0.00471802 0.00236013 0 
1073 0.27069 0.682842 0.0323122 0.00471775 0.00235943 0 0 0.00471802 0.00236013 0 
1074 0.163608 0.725052 0.101495 0.00672687 7.84654e-05 0 0 0 0.00303899 0 
1075 0.212457 0.707295 0.0500496 0.0170615 0.00982685 0 0 0 0 0.0033096 
1076 0.210752 0.695931 0.0503643 0.0306706 0.00622316 0 0 0 0.00601575 4.35068e-05 
1077 0.285153 0.603874 0.0705537 0.0171138 0 0 0 2.13123e-06 0.0174682 0.00583422 
1078 0.294007 0.701197 4.19148e-06 0 0 0.00479133 0 0 0 0 
1079 0.159314 0.754731 0.0394482 0.0344166 0.00219468 0 0 0 0 0.00989567 
1080 0.173914 0.519918 0.178532 1.1111e-05 0.0364566 0 0.0182337 0.000645899 0.0722887 0 
1081 0.372273 0.575392 0.035054 0.00624242 5.31569e-07 0.00441484 0 0 0.00204287 0.00458016 
1082 0.351607 0.596851 0.0345229 0.00614784 5.23515e-07 0.00434795 0 0 0.00201191 0.00451077 
1083 0.221071 0.697446 0.0508196 0.0173239 0.00997803 0 0 0 0 0.00336052 
1084 0.215741 0.702777 0.0508196 0.0173239 0.00997803 0 0 0 0 0.00336052 
1085 0.259708 0.693116 0.0328028 0.00479033 0.00239573 0 0 0.00479061 0.00239644 0 
1086 0.371122 0.576543 0.035054 0.00624242 5.31569e-07 0.00441484 0 0 0.00204287 0.00458016 
1087 0.173914 0.504533 0.178532 1.1111e-05 0.0364566 0 0.0182337 0.00119081 0.0871284 0 
1088 0 0.974753 4.48027e-07 0 0 0.0252466 0 0 0 0 
1089 0.22687 0.691648 0.0508196 0.0173239 0.00997803 0 0 0 0 0.00336052 
1090 0.230534 0.687984 0.0508196 0.0173239 0.00997803 0 0 0 0 0.00336052 
1091 0.230658 0.68786 0.0508196 0.0173239 0.00997803 0 0 0 0 0.00336052 
1092 0.163608 0.740437 0.0861106 0.00672687 7.84654e-05 0 0 0 0.00303899 0 
1093 0.36827 0.580188 0.0345229 0.00614784 5.23515e-07 0.00434795 0 0 0.00201191 0.00451077 
1094 0.215695 0.702823 0.0508196 0.0173239 0.00997803 0 0 0 0 0.00336052 
1095 0.257734 0.717503 6.60731e-07 0 0.0247619 0 0 0 0 0 
1096 0.257734 0.732888 6.60731e-07 0 0.00937732 0 0 0 0 0 
1097 0.218208 0.70031 0.0508196 0.0173239 0.00997803 0 0 0 0 0.00336052 
1098 0.259548 0.693276 0.0328028 0.00479033 0.00239573 0 0 0.00479061 0.00239644 0 
1099 0.215695 0.702823 0.0508196 0.0173239 0.00997803 0 0 0 0 0.00336052 
1100 0.110974 0.883071 0.00595492 0 0 0 0 0 0 0 
1101 0.155167 0.714037 0.091779 0.0150018 0 0.000902048 0.0151081 0 0 0.00800506 
1102 0.215695 0.702823 0.0508196 0.0173239 0.00997803 0 0 0 0 0.00336052 
1103 0.356952 0.590713 0.035054 0.00624242 5.31569e-07 0.00441484 0 0 0.00204287 0.00458016 
1104 0.128525 0.715722 0.100792 0.0212016 0.00562642 0 0.0225418 0.00559011 0 0 
1105 0.215695 0.702823 0.0508196 0.0173239 0.00997803 0 0 0 0 0.00336052 
1106 0.128525 0.731107 0.100792 0.005817 0.00562642 0 0.0225418 0.00559011 0 0 
1107 0.356952 0.590713 0.035054 0.00624242 5.31569e-07 0.00441484 0 0 0.00204287 0.00458016 
1108 0.159314 0.75821 0.0359691 0.0344166 0.00219468 0 0 0 0 0.00989567 
1109 0.128525 0.731107 0.100792 0.005817 0.00562642 0 0.0225418 0.00559011 0 0 
1110 0.159314 0.742826 0.035969 0.0344165 0.00219468 0 0 0 0 0.0252803 
1111 0.294007 0.701197 4.19148e-06 0 0 0.00479133 0 0 0 0 
1112 0.163608 0.740437 0.0861106 0.00672687 7.84654e-05 0 0 0 0.00303899 0 
1113 0.210752 0.695931 0.0503641 0.0306706 0.00622316 0 0 0 0.00601575 4.35068e-05 
1114 0.159314 0.75821 0.0359691 0.0344166 0.00219468 0 0 0 0 0.00989567 
1115 0.128525 0.731107 0.100792 0.005817 0.00562642 0 0.0225418 0.00559011 0 0 
1116 0.210754 0.695924 0.0503683 0.0306706 0.00622316 0 0 0 0.00601575 4.35068e-05 
1117 0.163608 0.740437 0.0861106 0.00672687 7.84654e-05 0 0 0 0.00303899 0 
1118 0.128525 0.731107 0.100792 0.005817 0.00562642 0 0.0225418 0.00559011 0 0 
1119 0.163608 0.740436 0.0861106 0.00672687 7.84654e-05 0 0 0 0.00303899 0 
1120 0.304704 0.690573 4.12797e-06 0 0 0.00471873 0 0 0 0 
1121 0.210752 0.695859 0.0504363 0.0306706 0.00622316 0 0 0 0.00601575 4.35068e-05 
1122 0.173914 0.519227 0.179224 1.1111e-05 0.0364566 0 0.0182337 0.000645899 0.0722887 0 
1123 0.159314 0.75821 0.0359691 0.0344166 0.00219468 0 0 0 0 0.00989567 
1124 0.128525 0.715722 0.116177 0.005817 0.00562642 0 0.0225418 0.00559011 0 0 
1125 0.285153 0.619259 0.0669788 0.00530413 0 0 0 2.13123e-06 0.0174682 0.00583422 
1126 0.163608 0.740437 0.0861106 0.00672687 7.84654e-05 0 0 0 0.00303899 0 
1127 0.0958948 0.828365 0 0 0 0.0757397 0 0 0 0 
1128 0.173914 0.507437 0.191013 1.1111e-05 0.0364566 0 0.0182337 0.000645898 0.0722887 0 
1129 0.289633 0.705644 4.12797e-06 0 0 0.00471873 0 0 0 0 
1130 0.173914 0.504534 0.178532 1.1111e-05 0.0364566 0 0.0182337 0.000645899 0.0876733 0 
1131 0.223777 0.69474 0.0508196 0.0173239 0.00997803 0 0 0 0 0.00336052 
1132 0.212427 0.707326 0.0500496 0.0170615 0.00982685 0 0 0 0 0.0033096 
1133 0.212427 0.707326 0.0500496 0.0170615 0.00982685 0 0 0 0 0.0033096 
1134 0.163608 0.740437 0.0861106 0.00672687 7.84654e-05 0 0 0 0.00303899 0 
1135 0.106078 0.888229 0.00569221 0 0 0 0 0 0 0 
1136 0.168609 0.700595 0.091779 0.0150018 0 0.000902048 0.0151081 0 0 0.00800506 
1137 0 0.947164 0.000257135 0.0525785 0 0 0 0 0 0 
1138 0.0958949 0.828365 0 0 0 0.0757397 0 0 0 0 
1139 0.270708 0.682831 0.0323058 0.00471775 0.00235943 0 0 0.00471802 0.00236013 0 
1140 0.271802 0.681022 0.0328028 0.00479033 0.00239573 0 0 0.00479061 0.00239644 0 
1141 0.271802 0.681022 0.0328028 0.00479033 0.00239573 0 0 0.00479061 0.00239644 0 
1142 0 0.931779 0.000257147 0.0679631 0 0 0 0 0 0 
1143 0.281036 0.71438 4.00656e-06 0 0 0.00457995 0 0 0 0 
1144 0.16113 0.744369 0.0848059 0.00662494 7.72766e-05 0 0 0 0.00299294 0 
1145 0.215695 0.702823 0.0508196 0.0173239 0.00997803 0 0 0 0 0.00336052 
1146 0.163608 0.725052 0.101495 0.00672687 7.84654e-05 0 0 0 0.00303899 0 
1147 0.128525 0.731101 0.100798 0.005817 0.00562642 0 0.0225418 0.00559011 0 0 
1148 0.163608 0.740437 0.0861106 0.00672687 7.84654e-05 0 0 0 0.00303899 0 
1149 0.163608 0.740437 0.0861106 0.00672687 7.84654e-05 0 0 0 0.00303899 0 
1150 0.285153 0.619259 0.0669788 0.00530413 0 0 0 2.13123e-06 0.0174682 0.00583422 
1151 0.152816 0.71837 0.0903885 0.0147745 0 0.000888381 0.0148792 0 0 0.00788377 
1152 0.163608 0.740437 0.0861106 0.00672687 7.84654e-05 0 0 0 0.00303899 0 
1153 0 0.947164 0.000257135 0.0525785 0 0 0 0 0 0 
1154 0.215695 0.702823 0.0508196 0.0173239 0.00997803 0 0 0 0 0.00336052 
1155 0.286135 0.709212 4.06636e-06 0 0 0.0046483 0 0 0 0 
1156 0.0996566 0.824603 0 0 0 0.0757397 0 0 0 0 
1157 0.17363 0.724806 0.0920132 0.00652606 7.61232e-05 0 0 0 0.00294827 0 
1158 0.1744 0.743124 0.0359691 0.0344166 0.00219468 0 0 0 0 0.00989567 
1159 0.273609 0.679215 0.0328028 0.00479033 0.00239573 0 0 0.00479061 0.00239644 0 
1160 0.169103 0.700101 0.091779 0.0150018 0 0.000902048 0.0151081 0 0 0.00800506 
1161 0.177309 0.726736 0.0861106 0.00672687 7.84654e-05 0 0 0 0.00303899 0 
1162 0.167967 0.703218 0.0903884 0.0147745 0 0.000888381 0.0148792 0 0 0.00788377 
1163 0.207559 0.670235 0.0496239 0.0453345 0.0212803 0 0 0 0.0059246 4.28476e-05 
1164 0.212427 0.707326 0.0500496 0.0170615 0.00982685 0 0 0 0 0.0033096 
1165 0.285852 0.667687 0.0323058 0.00471775 0.00235943 0 0 0.00471802 0.00236013 0 
1166 0.1569 0.755343 0.0419549 0.0338951 0.00216143 0 0 0 0 0.00974573 
1167 0.173914 0.504533 0.178532 1.1111e-05 0.0364566 0 0.0182337 0.000645898 0.0876733 0 
1168 0.137508 0.856715 0.00577718 0 0 0 0 0 0 0 
1169 0.155566 0.710562 0.0954459 0.0147745 0 0.000888381 0.0148792 0 0 0.00788377 
1170 0.16113 0.729218 0.0999571 0.00662506 7.72766e-05 0 0 0 0.00299294 0 
1171 0.128525 0.731107 0.100792 0.005817 0.00562642 0 0.0225418 0.00559011 0 0 
1172 0.155167 0.714037 0.091779 0.0150018 0 0.000902048 0.0151081 0 0 0.00800506 
1173 0.259488 0.693336 0.0328028 0.00479033 0.00239573 0 0 0.00479061 0.00239644 0 
1174 0.16113 0.744369 0.0848059 0.00662494 7.72766e-05 0 0 0 0.00299294 0 
1175 0.356952 0.590713 0.035054 0.00624242 5.31569e-07 0.00441484 0 0 0.00204287 0.00458016 
1176 0.259488 0.693336 0.0328028 0.00479033 0.00239573 0 0 0.00479061 0.00239644 0 
1177 0.259488 0.677952 0.0481861 0.00479158 0.00239573 0 0 0.00479061 0.00239644 0 
1178 0.155167 0.714037 0.0917791 0.0150018 0 0.000902048 0.0151081 0 0 0.00800506 
1179 0.119034 0.875356 0.00560982 0 0 0 0 0 0 0 
1180 0.159314 0.75821 0.0359691 0.0344166 0.00219468 0 0 0 0 0.00989567 
1181 0.210752 0.695931 0.0503641 0.0306706 0.00622316 0 0 0 0.00601575 4.35068e-05 
1182 0.15938 0.758144 0.0359691 0.0344166 0.00219468 0 0 0 0 0.00989567 
1183 0.215695 0.702823 0.0508196 0.0173239 0.00997803 0 0 0 0 0.00336052 
1184 0.159314 0.742826 0.0359691 0.048283 0.00371281 0 0 0 0 0.00989567 
1185 0.128527 0.731105 0.100792 0.005817 0.00562642 0 0.0225418 0.00559011 0 0 
1186 0.25949 0.693334 0.0328028 0.00479033 0.00239573 0 0 0.00479061 0.00239644 0 
1187 0.12551 0.868535 0.00595492 0 0 0 0 0 0 0 
1188 0.29401 0.701194 4.19148e-06 0 0 0.00479133 0 0 0 0 
1189 0.371523 0.576142 0.035054 0.00624242 5.31569e-07 0.00441484 0 0 0.00204287 0.00458016 
1190 0.357166 0.590499 0.035054 0.00624242 5.31569e-07 0.00441484 0 0 0.00204287 0.00458016 
1191 0.163609 0.740436 0.0861106 0.00672687 7.84654e-05 0 0 0 0.00303899 0 
1192 0.112562 0.881444 0.00599396 0 0 0 0 0 0 0 
1193 0.296458 0.607954 0.0669788 0.00530413 0 0 0 2.13123e-06 0.0174682 0.00583422 
1194 0.110977 0.883068 0.00595492 0 0 0 0 0 0 0 
1195 0.176281 0.729216 0.0848082 0.00662494 7.72766e-05 0 0 0 0.00299294 0 
1196 0.170361 0.698843 0.091779 0.0150018 0 0.000902048 0.0151081 0 0 0.00800506 
1197 0.370742 0.576923 0.035054 0.00624242 5.31569e-07 0.00441484 0 0 0.00204287 0.00458016 
1198 0.270653 0.719969 6.60731e-07 0 0.00937732 0 0 0 0 0 
1199 0.158586 0.710561 0.0918359 0.0150018 0 0.000902048 0.0151081 0 0 0.00800506 
1200 0.169195 0.734762 0.0861979 0.00672687 7.84654e-05 0 0 0 0.00303899 0 
1201 0.126578 0.704884 0.129559 0.00573228 0.00554117 0 0.0222003 0.00550542 0 0 
1202 0.280871 0.624989 0.0659641 0.00522376 0 0 0 2.09894e-06 0.0172036 0.00574582 
1203 0.356952 0.575328 0.035054 0.00624242 5.31569e-07 0.00441484 0 0 0.00204295 0.0199647 
1204 0.281591 0.657716 0.0318237 0.0195725 0.00232444 0 0 0.0046476 0.0023249 0 
1205 0.259488 0.677957 0.0481821 0.00479038 0.00239573 0 0 0.00479061 0.00239644 0 
1206 0 0.947964 0.000253239 0.0517819 0 0 0 0 0 0 
1207 0.215695 0.702823 0.0508199 0.0173239 0.00997803 0 0 0 0 0.00336052 
1208 0.210752 0.695931 0.0503641 0.0306706 0.00622316 0 0 0 0.00601575 4.35068e-05 
1209 0.259488 0.693336 0.0328029 0.00479033 0.00239573 0 0 0.00479061 0.00239644 0 
1210 0.0958948 0.81298 0 0 0 0.0911243 0 0 0 0 
1211 0.128525 0.715722 0.100792 0.00581702 0.021011 0 0.0225418 0.00559011 0 0 
1212 0.356955 0.59071 0.035054 0.00624242 5.31569e-07 0.00441484 0 0 0.00204287 0.00458016 
1213 0.294007 0.701197 4.19148e-06 0 0 0.00479133 0 0 0 0 
1214 0.224181 0.696769 0.0493026 0.0168068 0.00968018 0 0 0 0 0.0032602 
1215 0.266667 0.687565 0.0318237 0.00464734 0.00232422 0 0 0.0046476 0.0023249 0 
1216 0.285153 0.619259 0.0669789 0.00530413 0 0 0 2.13123e-06 0.0174682 0.00583422 
1217 0.163608 0.740437 0.0861106 0.00672687 7.84654e-05 0 0 0 0.00303899 0 
1218 0.128525 0.715722 0.100792 0.005817 0.00562642 0 0.0379264 0.00559011 0 0 
1219 0.155167 0.71403 0.0917857 0.0150018 0 0.000902048 0.0151081 0 0 0.00800506 
1220 0.210752 0.695931 0.0503641 0.0306706 0.00622316 0 0 0 0.00601575 4.35068e-05 
1221 0.155167 0.714037 0.091779 0.0150018 0 0.000902048 0.0151081 0 0 0.00800506 
1222 0.215695 0.702823 0.0508196 0.0173239 0.00997803 0 0 0 0 0.00336052 
1223 0.143875 0.715757 0.100792 0.005817 0.00562642 0 0.0225418 0.00559011 0 0 
1224 0.209256 0.711694 0.0493026 0.0168068 0.00968018 0 0 0 0 0.0032602 
1225 0.16113 0.744316 0.0848592 0.00662494 7.72766e-05 0 0 0 0.00299294 0 
1226 0.152816 0.71837 0.0903884 0.0147745 0 0.000888381 0.0148792 0 0 0.00788377 
1227 0 0.918966 0.0810327 0 0 0 0 0 0 0 
1228 0.163608 0.725054 0.101493 0.00672687 7.84654e-05 0 0 0 0.00303899 0 
1229 0.210753 0.69593 0.0503641 0.0306706 0.00622316 0 0 0 0.00601575 4.35068e-05 
1230 0.215695 0.702823 0.0508196 0.0173239 0.00997803 0 0 0 0 0.00336052 
1231 0 0.947964 0.000253239 0.0517819 0 0 0 0 0 0 
1232 0.128525 0.731107 0.100792 0.005817 0.00562642 0 0.0225418 0.00559011 0 0 
1233 0.356952 0.590713 0.035054 0.00624242 5.31569e-07 0.00441484 0 0 0.00204287 0.00458016 
1234 0.215695 0.702823 0.0508196 0.0173239 0.00997803 0 0 0 0 0.00336052 
1235 0.215695 0.702823 0.0508196 0.0173239 0.00997803 0 0 0 0 0.00336052 
1236 0.259488 0.693336 0.0328028 0.00479033 0.00239573 0 0 0.00479061 0.00239644 0 
1237 0.141201 0.858799 0 0 0 0 0 0 0 0 
1238 0.356952 0.590711 0.035056 0.00624242 5.31569e-07 0.00441484 0 0 0.00204287 0.00458016 
1239 0.163608 0.740432 0.0861151 0.00672687 7.84654e-05 0 0 0 0.00303899 0 
1240 0.259488 0.689097 0.0370417 0.00479033 0.00239573 0 0 0.00479061 0.00239644 0 
1241 0.285153 0.608113 0.0781245 0.00530413 0 0 0 2.13123e-06 0.0174682 0.00583422 
1242 0.257734 0.732887 1.05173e-06 0 0.00937732 0 0 0 0 0 
1243 0.285153 0.603881 0.0823565 0.00530413 0 0 0 2.13123e-06 0.0174682 0.00583422 
1244 0.173914 0.519918 0.178532 1.1111e-05 0.0364566 0 0.0182337 0.000645899 0.0722887 0 
1245 0.223638 0.697312 0.0493026 0.0168068 0.00968018 0 0 0 0 0.0032602 
1246 0.159314 0.742826 0.0359691 0.0498011 0.0021947 0 0 0 0 0.00989567 
1247 0.251748 0.699559 0.0347486 0.00464734 0.00232422 0 0 0.0046476 0.0023249 0 
1248 0.210752 0.680676 0.0656186 0.0306706 0.00622316 0 0 0 0.00601574 4.35068e-05 
1249 0.356952 0.590583 0.0351841 0.00624242 5.31569e-07 0.00441484 0 0 0.00204287 0.00458016 
1250 0 0.931779 0.000404758 0.0678155 0 0 0 0 0 0 
1251 0.259488 0.693336 0.0328029 0.00479033 0.00239573 0 0 0.00479061 0.00239644 0 
1252 0.163608 0.740437 0.0861107 0.00672687 7.84654e-05 0 0 0 0.00303899 0 
1253 0.259488 0.693336 0.0328028 0.00479033 0.00239573 0 0 0.00479061 0.00239644 0 
1254 0.210752 0.685775 0.0605193 0.0306707 0.00622316 0 0 0 0.00601574 4.35068e-05 
1255 0.210752 0.680546 0.0503641 0.0456134 0.00666496 0 0 0 0.00601574 4.35068e-05 
1256 0 0.947161 0.000260118 0.0525785 0 0 0 0 0 0 
1257 0.155167 0.698652 0.0918493 0.0303162 0 0.000902048 0.0151081 0 0 0.00800506 
1258 0.294008 0.701197 4.19148e-06 0 0 0.00479133 0 0 0 0 
1259 0.128526 0.731103 0.100796 0.005817 0.00562642 0 0.0225418 0.00559011 0 0 
1260 0.155167 0.714037 0.091779 0.0150018 0 0.000902048 0.0151081 0 0 0.00800506 
1261 0.259488 0.693336 0.0328031 0.00479033 0.00239573 0 0 0.00479061 0.00239644 0 
1262 0.356955 0.590682 0.0350817 0.00624242 5.31569e-07 0.00441484 0 0 0.00204287 0.00458016 
1263 0.163608 0.740437 0.0861106 0.00672687 7.84654e-05 0 0 0 0.00303899 0 
1264 0.259488 0.693336 0.0328029 0.00479033 0.00239573 0 0 0.00479061 0.00239644 0 
1265 0.163608 0.740436 0.0861109 0.00672687 7.84654e-05 0 0 0 0.00303899 0 
1266 0.294007 0.701197 4.19148e-06 0 0 0.00479133 0 0 0 0 
1267 0.294007 0.701197 4.19148e-06 0 0 0.00479133 0 0 0 0 
1268 0.356953 0.590712 0.035054 0.00624242 5.31569e-07 0.00441484 0 0 0.00204287 0.00458016 
1269 0.215695 0.702823 0.0508196 0.0173239 0.00997803 0 0 0 0 0.00336052 
1270 0.173914 0.508412 0.190038 1.11121e-05 0.0364566 0 0.0182337 0.000645899 0.0722887 0 
1271 0.163608 0.725087 0.101461 0.00672687 7.84654e-05 0 0 0 0.00303899 0 
1272 0.210752 0.695897 0.0503984 0.0306706 0.00622316 0 0 0 0.00601575 4.35068e-05 
1273 0.294007 0.701197 4.19148e-06 0 0 0.00479133 0 0 0 0 
