1 1 100 1 1
1 2 100 1 1
1 3 100 1 1
1 0 100 2 1
1 1 100 2 1
1 2 100 2 0.0127447
2 2 100 2 0.987255
2 3 100 2 1
1 4 100 2 0.0487574
2 4 100 2 0.951243
1 5 100 2 0.494988
2 5 100 2 0.505012
1 6 100 2 0.984762
2 6 100 2 0.0152375
1 7 100 2 0.990934
2 7 100 2 0.00906617
1 8 100 2 0.650327
2 8 100 2 0.349673
1 9 100 2 0.350767
2 9 100 2 0.649233
1 10 100 2 0.502101
2 10 100 2 0.497899
2 0 100 3 1
1 1 100 3 0.999643
2 1 100 3 0.000357329
1 2 100 3 0.0934873
2 2 100 3 0.751506
3 2 100 3 0.155007
2 3 100 3 0.297151
3 3 100 3 0.702849
2 4 100 3 0.0773377
3 4 100 3 0.922662
1 5 100 3 0.0163884
2 5 100 3 0.142337
3 5 100 3 0.841275
1 6 100 3 0.899292
2 6 100 3 0.010437
3 6 100 3 0.0902706
1 7 100 3 0.0332839
2 7 100 3 0.927371
3 7 100 3 0.0393456
2 0 100 4 0.787174
3 0 100 4 0.208292
4 0 100 4 0.00453409
1 1 100 4 0.995495
2 1 100 4 0.0045046
1 2 100 4 0.162036
2 2 100 4 0.74617
3 2 100 4 0.091794
2 3 100 4 0.394832
3 3 100 4 0.603367
4 3 100 4 0.00180106
1 4 100 4 1.51495e-06
2 4 100 4 0.114127
3 4 100 4 0.437175
4 4 100 4 0.448696
1 5 100 4 5.54139e-06
3 5 100 4 0.164712
4 5 100 4 0.835283
1 6 100 4 0.0263725
2 6 100 4 0.0122243
3 6 100 4 0.0525102
4 6 100 4 0.908893
1 7 100 4 0.000100717
2 7 100 4 0.999636
3 7 100 4 0.000100717
4 7 100 4 0.000162422
2 0 100 5 0.0319294
4 0 100 5 0.968071
1 1 100 5 0.999991
2 1 100 5 8.82524e-06
2 2 100 5 0.999995
4 2 100 5 5.06443e-06
2 3 100 5 0.13381
3 3 100 5 0.665013
4 3 100 5 0.133754
5 3 100 5 0.0674226
2 4 100 5 0.00033886
3 4 100 5 0.159466
4 4 100 5 0.53114
5 4 100 5 0.309055
2 5 100 5 0.129316
4 5 100 5 0.352967
5 5 100 5 0.517717
3 6 100 5 0.250095
5 6 100 5 0.749905
1 7 100 5 0.0251214
2 7 100 5 0.000111494
3 7 100 5 0.00240306
4 7 100 5 0.427506
5 7 100 5 0.544858
1 8 100 5 0.169201
2 8 100 5 0.305349
3 8 100 5 0.0215578
4 8 100 5 0.212213
5 8 100 5 0.291679
1 0 100 6 0.000535024
2 0 100 6 0.0589113
3 0 100 6 0.0497011
4 0 100 6 0.88978
5 0 100 6 0.000610032
6 0 100 6 0.000462071
1 1 100 6 0.999846
2 1 100 6 0.000150993
4 1 100 6 2.78152e-06
1 2 100 6 0.0939654
2 2 100 6 0.811909
5 2 100 6 0.0941139
6 2 100 6 1.1758e-05
1 3 100 6 0.068565
2 3 100 6 0.3053
3 3 100 6 0.440233
4 3 100 6 0.185902
1 4 100 6 3.87843e-05
2 4 100 6 4.1182e-06
3 4 100 6 0.55899
4 4 100 6 0.357933
6 4 100 6 0.083034
1 5 100 6 2.33859e-06
3 5 100 6 0.0706172
4 5 100 6 0.36173
5 5 100 6 0.426589
6 5 100 6 0.141061
1 6 100 6 4.11685e-05
2 6 100 6 1.3805e-05
4 6 100 6 0.00979338
5 6 100 6 0.437013
6 6 100 6 0.553138
3 7 100 6 2.10419e-06
5 7 100 6 0.438381
6 7 100 6 0.561616
1 8 100 6 6.67907e-05
2 8 100 6 0.00390729
3 8 100 6 0.0046987
4 8 100 6 0.336977
5 8 100 6 0.0174505
6 8 100 6 0.6369
1 9 100 6 0.0576408
2 9 100 6 0.811025
3 9 100 6 0.00624316
4 9 100 6 0.00102511
5 9 100 6 0.00576484
6 9 100 6 0.118301
1 0 100 7 0.0120145
2 0 100 7 0.636077
3 0 100 7 0.00563667
4 0 100 7 0.346272
1 1 100 7 0.70517
3 1 100 7 0.0589539
4 1 100 7 0.058969
5 1 100 7 0.058969
6 1 100 7 0.058969
7 1 100 7 0.058969
1 2 100 7 0.080299
2 2 100 7 0.919701
1 3 100 7 0.104698
2 3 100 7 0.0611922
3 3 100 7 0.676795
4 3 100 7 0.00113558
5 3 100 7 0.0520611
6 3 100 7 0.104118
2 4 100 7 0.170268
3 4 100 7 0.0649723
4 4 100 7 0.593986
5 4 100 7 0.170764
6 4 100 7 9.70192e-06
4 5 100 7 0.665024
5 5 100 7 0.334976
3 6 100 7 0.0133417
4 6 100 7 0.0558985
5 6 100 7 0.389904
6 6 100 7 0.428992
7 6 100 7 0.111864
1 7 100 7 0.0767108
2 7 100 7 0.000199846
5 7 100 7 0.0871562
6 7 100 7 0.284724
7 7 100 7 0.55121
6 8 100 7 0.311585
7 8 100 7 0.688415
1 9 100 7 0.00801829
2 9 100 7 0.020062
3 9 100 7 0.0244864
4 9 100 7 0.00987228
5 9 100 7 0.0260375
6 9 100 7 0.0371339
7 9 100 7 0.87439
1 10 100 7 0.175398
2 10 100 7 0.160177
3 10 100 7 0.0311301
4 10 100 7 0.208063
5 10 100 7 0.0901133
6 10 100 7 0.0343131
7 10 100 7 0.300806
1 11 100 7 0.079316
2 11 100 7 0.0672616
3 11 100 7 0.0766229
4 11 100 7 0.0624939
5 11 100 7 0.0391118
6 11 100 7 0.611085
7 11 100 7 0.0641083
1 12 100 7 0.166932
2 12 100 7 0.093868
3 12 100 7 0.127637
4 12 100 7 0.147315
5 12 100 7 0.0543163
6 12 100 7 0.290317
7 12 100 7 0.119615
1 13 100 7 0.575419
2 13 100 7 0.0636361
3 13 100 7 0.0610734
4 13 100 7 0.0763352
5 13 100 7 0.0730421
6 13 100 7 0.084435
7 13 100 7 0.0660596
1 14 100 7 0.137003
2 14 100 7 0.0921237
3 14 100 7 0.0770676
4 14 100 7 0.379168
5 14 100 7 0.105956
6 14 100 7 0.129514
7 14 100 7 0.0791678
1 15 100 7 0.143817
2 15 100 7 0.0790425
3 15 100 7 0.106247
4 15 100 7 0.110609
5 15 100 7 0.0446407
6 15 100 7 0.411695
7 15 100 7 0.103949
1 16 100 7 0.119946
2 16 100 7 0.0631063
3 16 100 7 0.125619
4 16 100 7 0.0559833
5 16 100 7 0.0268326
6 16 100 7 0.48117
7 16 100 7 0.127343
1 17 100 7 3.67234e-06
2 17 100 7 0.00290287
3 17 100 7 0.00357489
4 17 100 7 0.983304
5 17 100 7 0.00089702
6 17 100 7 0.00472993
7 17 100 7 0.00458763
1 18 100 7 0.172337
2 18 100 7 0.0183066
3 18 100 7 0.024109
4 18 100 7 0.663387
5 18 100 7 0.0325802
6 18 100 7 0.0411612
7 18 100 7 0.0481194
1 19 100 7 0.00348658
2 19 100 7 0.0029375
3 19 100 7 0.00346479
4 19 100 7 0.00347949
5 19 100 7 0.978425
6 19 100 7 0.00383133
7 19 100 7 0.00437547
5 20 100 7 0.329235
6 20 100 7 0.335382
7 20 100 7 0.335382
1 21 100 7 0.00388976
2 21 100 7 0.975555
3 21 100 7 0.00406331
4 21 100 7 0.00397703
5 21 100 7 0.00412019
6 21 100 7 0.00419711
7 21 100 7 0.00419712
1 22 100 7 0.00375058
2 22 100 7 0.97643
3 22 100 7 0.00391791
4 22 100 7 0.00383472
5 22 100 7 0.00397276
6 22 100 7 0.00404693
7 22 100 7 0.00404693
1 23 100 7 0.447643
2 23 100 7 0.0654327
3 23 100 7 0.0814685
4 23 100 7 0.0934059
5 23 100 7 0.0808134
6 23 100 7 0.116141
7 23 100 7 0.115095
2 24 100 7 1
1 25 100 7 0.64316
2 25 100 7 0.0361125
3 25 100 7 0.0471429
4 25 100 7 0.0583001
5 25 100 7 0.0455808
6 25 100 7 0.0815067
7 25 100 7 0.0881973
2 26 100 7 1.78551e-05
5 26 100 7 0.999982
1 27 100 7 2.46515e-06
2 27 100 7 0.999985
3 27 100 7 2.57514e-06
4 27 100 7 2.52046e-06
5 27 100 7 2.61119e-06
6 27 100 7 2.65994e-06
7 27 100 7 2.65994e-06
1 28 100 7 0.000283065
2 28 100 7 0.998221
3 28 100 7 0.000295694
4 28 100 7 0.000289416
5 28 100 7 0.000299834
6 28 100 7 0.000305432
7 28 100 7 0.000305432
1 29 100 7 0.134354
2 29 100 7 0.0368144
3 29 100 7 0.586717
4 29 100 7 0.0537648
5 29 100 7 0.0456656
6 29 100 7 0.0672617
7 29 100 7 0.0754229
1 30 100 7 2.77426e-05
2 30 100 7 2.54235e-05
3 30 100 7 0.999829
4 30 100 7 2.8365e-05
5 30 100 7 2.93861e-05
6 30 100 7 2.99348e-05
7 30 100 7 2.99348e-05
1 31 100 7 0.234013
2 31 100 7 0.0590601
3 31 100 7 0.311071
4 31 100 7 0.0875605
5 31 100 7 0.0735679
6 31 100 7 0.110484
7 31 100 7 0.124243
2 32 100 7 0.000366268
3 32 100 7 0.0158392
5 32 100 7 0.983782
6 32 100 7 1.23284e-05
2 33 100 7 0.021311
3 33 100 7 0.978689
1 34 100 7 0.00388976
2 34 100 7 0.975555
3 34 100 7 0.00406331
4 34 100 7 0.00397703
5 34 100 7 0.00412019
6 34 100 7 0.00419711
7 34 100 7 0.00419712
1 35 100 7 0.00375058
2 35 100 7 0.97643
3 35 100 7 0.00391791
4 35 100 7 0.00383472
5 35 100 7 0.00397276
6 35 100 7 0.00404693
7 35 100 7 0.00404693
1 36 100 7 0.612311
2 36 100 7 0.038345
3 36 100 7 0.0508773
4 36 100 7 0.061107
5 36 100 7 0.0486128
6 36 100 7 0.0852009
7 36 100 7 0.103546
1 37 100 7 1.74328e-06
2 37 100 7 1.59755e-06
3 37 100 7 0.999989
4 37 100 7 1.78239e-06
5 37 100 7 1.84655e-06
6 37 100 7 1.88103e-06
7 37 100 7 1.88103e-06
1 38 100 7 0.27061
2 38 100 7 0.0545017
3 38 100 7 0.0897821
4 38 100 7 0.296597
5 38 100 7 0.0678347
6 38 100 7 0.104347
7 38 100 7 0.116326
2 39 100 7 0.191496
5 39 100 7 0.808504
1 40 100 7 0.000338798
2 40 100 7 0.997871
3 40 100 7 0.000353914
4 40 100 7 0.000346399
5 40 100 7 0.000358868
6 40 100 7 0.000365569
7 40 100 7 0.000365569
1 41 100 7 0.212115
2 41 100 7 0.0711093
3 41 100 7 0.106109
4 41 100 7 0.281104
5 41 100 7 0.087044
6 41 100 7 0.117565
7 41 100 7 0.124954
1 42 100 7 0.138875
2 42 100 7 0.127266
3 42 100 7 0.145071
4 42 100 7 0.14199
5 42 100 7 0.147102
6 42 100 7 0.149848
7 42 100 7 0.149848
1 43 100 7 0.000143007
2 43 100 7 0.999101
3 43 100 7 0.000149387
4 43 100 7 0.000146215
5 43 100 7 0.000151478
6 43 100 7 0.000154307
7 43 100 7 0.000154307
1 44 100 7 0.27061
2 44 100 7 0.0545017
3 44 100 7 0.0897821
4 44 100 7 0.296597
5 44 100 7 0.0678347
6 44 100 7 0.104347
7 44 100 7 0.116326
1 0 100 8 0.00116244
2 0 100 8 0.0082821
3 0 100 8 0.0386618
4 0 100 8 0.0280865
5 0 100 8 0.0125632
6 0 100 8 0.910275
7 0 100 8 0.000968626
1 1 100 8 0.948627
2 1 100 8 0.0513732
1 2 100 8 0.0486082
2 2 100 8 0.89999
3 2 100 8 0.00120922
4 2 100 8 0.0501907
6 2 100 8 1.72241e-06
1 3 100 8 0.115554
2 3 100 8 0.17493
3 3 100 8 0.649874
5 3 100 8 0.0580113
6 3 100 8 1.49383e-05
8 3 100 8 0.00161521
1 4 100 8 0.038916
2 4 100 8 1.42802e-06
3 4 100 8 0.417461
4 4 100 8 0.387956
5 4 100 8 0.0389163
6 4 100 8 0.0389163
7 4 100 8 0.0389163
8 4 100 8 0.0389163
4 5 100 8 0.363751
5 5 100 8 0.454548
6 5 100 8 0.136205
8 5 100 8 0.0454955
2 6 100 8 9.0564e-05
4 6 100 8 0.0941525
5 6 100 8 0.376086
6 6 100 8 0.279894
7 6 100 8 0.204935
8 6 100 8 0.0448423
2 7 100 8 0.0535744
3 7 100 8 0.000135669
5 7 100 8 0.0535684
6 7 100 8 0.537969
7 7 100 8 0.302644
8 7 100 8 0.0521083
2 8 100 8 0.000118932
6 8 100 8 0.000835195
7 8 100 8 0.576756
8 8 100 8 0.42229
3 9 100 8 0.102194
5 9 100 8 0.102194
7 9 100 8 0.000247342
8 9 100 8 0.795365
1 10 100 8 0.0165036
2 10 100 8 0.26562
3 10 100 8 0.00384293
4 10 100 8 0.429391
5 10 100 8 0.00305114
6 10 100 8 0.208129
7 10 100 8 0.0326309
8 10 100 8 0.0408316
1 11 100 8 0.00477219
2 11 100 8 0.0109706
3 11 100 8 0.00487058
4 11 100 8 0.00031442
5 11 100 8 0.257252
6 11 100 8 0.00343775
7 11 100 8 0.249622
8 11 100 8 0.46876
1 12 100 8 0.00220227
2 12 100 8 0.00563298
3 12 100 8 0.00480542
4 12 100 8 0.00166867
5 12 100 8 0.00743083
6 12 100 8 0.455972
7 12 100 8 0.0100437
8 12 100 8 0.512244
2 0 100 9 0.449347
3 0 100 9 0.00719388
4 0 100 9 0.00149603
5 0 100 9 0.00970982
6 0 100 9 5.92393e-05
7 0 100 9 0.00725807
8 0 100 9 0.52493
9 0 100 9 5.90755e-06
1 1 100 9 0.90231
2 1 100 9 0.0976519
6 1 100 9 2.82963e-05
7 1 100 9 9.44365e-06
1 2 100 9 0.277338
2 2 100 9 0.72119
3 2 100 9 0.00147184
2 3 100 9 0.00427133
3 3 100 9 0.995321
4 3 100 9 0.000148494
8 3 100 9 0.000259405
2 4 100 9 0.158286
3 4 100 9 0.00571635
4 4 100 9 0.556916
5 4 100 9 0.26551
8 4 100 9 0.0135713
4 5 100 9 0.314666
5 5 100 9 0.0840738
6 5 100 9 0.334561
7 5 100 9 0.151874
8 5 100 9 0.114826
5 6 100 9 0.628946
6 6 100 9 0.0901466
7 6 100 9 0.19069
8 6 100 9 7.09435e-05
9 6 100 9 0.0901469
4 7 100 9 0.262082
6 7 100 9 0.382114
7 7 100 9 0.0934559
8 7 100 9 0.174905
9 7 100 9 0.0874428
5 8 100 9 0.103016
6 8 100 9 0.155734
7 8 100 9 0.525319
8 8 100 9 0.105065
9 8 100 9 0.110866
3 9 100 9 0.00178124
6 9 100 9 0.0190426
7 9 100 9 0.127749
8 9 100 9 0.211164
9 9 100 9 0.640263
2 10 100 9 0.168898
8 10 100 9 0.662211
9 10 100 9 0.16889
1 11 100 9 0.00799235
2 11 100 9 0.00179869
3 11 100 9 7.12783e-05
4 11 100 9 1.70239e-05
5 11 100 9 9.47771e-05
6 11 100 9 3.59654e-06
7 11 100 9 0.00181485
8 11 100 9 3.98729e-05
9 11 100 9 0.988168
1 0 100 10 0.000493036
2 0 100 10 0.775409
3 0 100 10 0.000482631
5 0 100 10 0.0211864
6 0 100 10 0.00245092
7 0 100 10 0.00590783
8 0 100 10 0.0195471
9 0 100 10 0.174523
1 1 100 10 0.999865
2 1 100 10 3.62366e-05
3 1 100 10 9.91459e-05
1 2 100 10 0.289584
2 2 100 10 0.633875
7 2 100 10 0.0765418
2 3 100 10 0.119132
3 3 100 10 0.880842
8 3 100 10 2.63619e-05
1 4 100 10 0.0802948
2 4 100 10 0.0215032
3 4 100 10 0.175493
4 4 100 10 0.722654
7 4 100 10 5.51155e-05
3 5 100 10 0.0171567
4 5 100 10 0.163815
5 5 100 10 0.655259
6 5 100 10 0.0815973
9 5 100 10 0.0821718
5 6 100 10 0.330884
6 6 100 10 0.584473
7 6 100 10 0.0842058
9 6 100 10 0.000170161
10 6 100 10 0.000267565
2 7 100 10 0.0695931
3 7 100 10 7.41835e-07
4 7 100 10 0.0695955
6 7 100 10 0.069596
7 7 100 10 0.416414
8 7 100 10 0.3748
1 8 100 10 1.47329e-05
2 8 100 10 2.61947e-05
3 8 100 10 0.0851724
6 8 100 10 0.0851733
7 8 100 10 0.00412871
8 8 100 10 0.170436
9 8 100 10 0.570149
10 8 100 10 0.0849003
2 9 100 10 0.0289979
6 9 100 10 0.149952
7 9 100 10 0.0769181
8 9 100 10 0.147403
9 9 100 10 0.0747609
10 9 100 10 0.521968
4 10 100 10 0.165561
7 10 100 10 0.496703
8 10 100 10 0.331121
10 10 100 10 0.00661503
5 11 100 10 0.166644
9 11 100 10 0.166366
10 11 100 10 0.66699
1 12 100 10 0.00485593
2 12 100 10 0.00925327
3 12 100 10 0.25706
4 12 100 10 0.0118633
5 12 100 10 0.00281324
6 12 100 10 0.0165125
7 12 100 10 0.303576
8 12 100 10 0.0681115
9 12 100 10 0.251649
10 12 100 10 0.0743064
1 13 100 10 0.00150465
2 13 100 10 0.00219578
3 13 100 10 0.0108261
4 13 100 10 0.00155425
5 13 100 10 0.00358127
6 13 100 10 0.00931422
7 13 100 10 0.0199033
8 13 100 10 0.00906144
9 13 100 10 0.939731
10 13 100 10 0.00232824
1 14 100 10 0.00339741
2 14 100 10 0.0119984
3 14 100 10 0.520425
4 14 100 10 0.00988296
5 14 100 10 0.00253109
6 14 100 10 0.405615
7 14 100 10 0.0121868
8 14 100 10 0.0189572
9 14 100 10 0.00537423
10 14 100 10 0.00963215
1 15 100 10 0.0228335
2 15 100 10 0.126605
3 15 100 10 0.137647
4 15 100 10 0.0835852
5 15 100 10 0.203174
6 15 100 10 0.176109
7 15 100 10 0.0376856
8 15 100 10 0.0869223
9 15 100 10 0.0416623
10 15 100 10 0.083776
1 16 100 10 0.00347477
2 16 100 10 0.894539
3 16 100 10 0.0215872
4 16 100 10 0.0159706
5 16 100 10 0.00449583
6 16 100 10 0.0203054
7 16 100 10 0.00575317
8 16 100 10 0.0140994
9 16 100 10 0.00635595
10 16 100 10 0.0134191
1 0 100 11 0.00152395
2 0 100 11 0.138821
3 0 100 11 0.000765392
4 0 100 11 0.000758946
5 0 100 11 0.252449
7 0 100 11 0.00631508
8 0 100 11 0.59908
9 0 100 11 0.000277721
11 0 100 11 8.99333e-06
1 1 100 11 0.87258
2 1 100 11 0.127375
3 1 100 11 4.43117e-05
8 1 100 11 1.04931e-06
1 2 100 11 0.150268
2 2 100 11 0.70014
3 2 100 11 0.100092
8 2 100 11 0.0495002
2 3 100 11 0.000607283
3 3 100 11 0.823932
4 3 100 11 0.116979
5 3 100 11 0.0584763
7 3 100 11 5.74437e-06
2 4 100 11 0.0478018
3 4 100 11 0.0915017
4 4 100 11 0.622429
5 4 100 11 0.141503
6 4 100 11 0.0486197
7 4 100 11 0.0478465
9 4 100 11 6.56353e-07
11 4 100 11 0.000297428
4 5 100 11 0.125249
5 5 100 11 0.624609
6 5 100 11 0.0621662
7 5 100 11 0.185209
8 5 100 11 6.9079e-07
9 5 100 11 1.2871e-05
11 5 100 11 0.00275272
2 6 100 11 3.06369e-05
4 6 100 11 3.0114e-05
5 6 100 11 0.142762
6 6 100 11 0.570027
8 6 100 11 0.19184
9 6 100 11 0.0953055
11 6 100 11 4.76255e-06
3 7 100 11 0.0549962
5 7 100 11 0.00755604
6 7 100 11 0.220192
7 7 100 11 0.658824
8 7 100 11 0.00201206
11 7 100 11 0.0564202
1 8 100 11 0.111966
4 8 100 11 0.0561245
5 8 100 11 0.000968538
7 8 100 11 0.162526
8 8 100 11 0.557397
9 8 100 11 1.35375e-06
10 8 100 11 0.0562113
11 8 100 11 0.0548058
1 9 100 11 0.000923882
2 9 100 11 2.45293e-05
4 9 100 11 1.502e-05
5 9 100 11 9.32354e-07
7 9 100 11 0.00752482
8 9 100 11 0.119102
9 9 100 11 0.632422
10 9 100 11 0.238686
11 9 100 11 0.00130106
2 10 100 11 0.0369453
8 10 100 11 0.000116554
9 10 100 11 0.159338
10 10 100 11 0.603485
11 10 100 11 0.200115
9 11 100 11 0.247576
10 11 100 11 0.0843117
11 11 100 11 0.668112
6 12 100 11 3.27734e-05
9 12 100 11 0.202287
10 12 100 11 0.401183
11 12 100 11 0.396498
1 13 100 11 0.00455047
2 13 100 11 0.00504973
3 13 100 11 0.0104477
4 13 100 11 0.00913125
5 13 100 11 0.00556713
6 13 100 11 0.00536722
7 13 100 11 0.00383921
8 13 100 11 0.00822763
9 13 100 11 0.00987743
10 13 100 11 0.570412
11 13 100 11 0.36753
1 14 100 11 0.00247161
2 14 100 11 0.0023085
3 14 100 11 0.00421677
4 14 100 11 0.00772415
5 14 100 11 0.519414
6 14 100 11 0.00693465
7 14 100 11 0.0063867
8 14 100 11 0.220035
9 14 100 11 0.222195
10 14 100 11 0.00406523
11 14 100 11 0.00424842
1 15 100 11 0.00529464
2 15 100 11 0.00617579
3 15 100 11 0.01096
4 15 100 11 0.0133877
5 15 100 11 0.0113437
6 15 100 11 0.789642
7 15 100 11 0.00790975
8 15 100 11 0.00816378
9 15 100 11 0.0108585
10 15 100 11 0.0151347
11 15 100 11 0.121129
1 16 100 11 0.0116033
2 16 100 11 0.0257243
3 16 100 11 0.0249173
4 16 100 11 0.0299364
5 16 100 11 0.0249425
6 16 100 11 0.0534086
7 16 100 11 0.0179931
8 16 100 11 0.0196799
9 16 100 11 0.0250701
10 16 100 11 0.0551282
11 16 100 11 0.711596
1 17 100 11 0.00828971
2 17 100 11 0.00411049
3 17 100 11 0.00988515
4 17 100 11 0.929948
5 17 100 11 0.00791677
6 17 100 11 0.00847695
7 17 100 11 0.00410788
8 17 100 11 0.00413761
9 17 100 11 0.00767421
10 17 100 11 0.00718376
11 17 100 11 0.0082691
5 18 100 11 0.406679
7 18 100 11 0.593321
1 19 100 11 2.6119e-05
2 19 100 11 1.43417e-05
3 19 100 11 2.6119e-05
4 19 100 11 2.61194e-05
5 19 100 11 2.32202e-05
6 19 100 11 2.61195e-05
7 19 100 11 0.999773
8 19 100 11 1.43417e-05
9 19 100 11 2.32714e-05
10 19 100 11 2.15592e-05
11 19 100 11 2.61195e-05
1 20 100 11 0.043779
2 20 100 11 0.0205265
3 20 100 11 0.0416582
4 20 100 11 0.0898181
5 20 100 11 0.04005
6 20 100 11 0.0471296
7 20 100 11 0.0194899
8 20 100 11 0.0204978
9 20 100 11 0.0397799
10 20 100 11 0.586074
11 20 100 11 0.0511975
1 21 100 11 0.0602616
2 21 100 11 0.189744
3 21 100 11 0.0567241
4 21 100 11 0.0879343
5 21 100 11 0.0534636
6 21 100 11 0.0732102
7 21 100 11 0.0280261
8 21 100 11 0.0300491
9 21 100 11 0.0530297
10 21 100 11 0.161609
11 21 100 11 0.205949
1 22 100 11 0.000546624
2 22 100 11 0.424937
3 22 100 11 0.000546624
4 22 100 11 0.000546634
5 22 100 11 0.000485958
6 22 100 11 0.000546634
7 22 100 11 0.000300849
8 22 100 11 0.399635
9 22 100 11 0.00048703
10 22 100 11 0.171422
11 22 100 11 0.000546634
1 23 100 11 0.0542069
2 23 100 11 0.182406
3 23 100 11 0.0508814
4 23 100 11 0.0960566
5 23 100 11 0.0484774
6 23 100 11 0.069945
7 23 100 11 0.0243401
8 23 100 11 0.0262632
9 23 100 11 0.0480813
10 23 100 11 0.190483
11 23 100 11 0.208859
1 24 100 11 0.00312857
2 24 100 11 0.00171787
3 24 100 11 0.00312857
4 24 100 11 0.00312863
5 24 100 11 0.00278135
6 24 100 11 0.00312863
7 24 100 11 0.00172189
8 24 100 11 0.00171787
9 24 100 11 0.00278749
10 24 100 11 0.973631
11 24 100 11 0.00312863
1 25 100 11 0.0271044
2 25 100 11 0.463572
3 25 100 11 0.0251073
4 25 100 11 0.0558045
5 25 100 11 0.0240843
6 25 100 11 0.0309541
7 25 100 11 0.0116912
8 25 100 11 0.013071
9 25 100 11 0.0240461
10 25 100 11 0.219585
11 25 100 11 0.10498
1 26 100 11 0.0295574
2 26 100 11 0.0732389
3 26 100 11 0.0274758
4 26 100 11 0.0635597
5 26 100 11 0.0263521
6 26 100 11 0.0384995
7 26 100 11 0.0127266
8 26 100 11 0.0138189
9 26 100 11 0.0263034
10 26 100 11 0.230433
11 26 100 11 0.458034
1 0 100 12 0.000822755
2 0 100 12 0.652174
3 0 100 12 0.00735828
4 0 100 12 0.00092428
5 0 100 12 0.00980449
6 0 100 12 0.0709249
7 0 100 12 0.000291882
8 0 100 12 0.255992
9 0 100 12 0.00121665
10 0 100 12 0.000256978
12 0 100 12 0.00023414
1 1 100 12 0.939805
3 1 100 12 5.24588e-06
5 1 100 12 0.0600339
12 1 100 12 0.000155984
1 2 100 12 0.00395008
2 2 100 12 0.807317
3 2 100 12 0.0642828
6 2 100 12 0.124415
9 2 100 12 3.52022e-05
2 3 100 12 0.100098
3 3 100 12 0.616911
4 3 100 12 0.0995559
5 3 100 12 0.0327851
7 3 100 12 0.100172
8 3 100 12 0.0504779
2 4 100 12 0.000942474
3 4 100 12 0.0361443
4 4 100 12 0.647034
5 4 100 12 0.137816
8 4 100 12 0.119306
9 4 100 12 0.0587532
12 4 100 12 3.8878e-06
1 5 100 12 4.93081e-05
2 5 100 12 2.829e-06
3 5 100 12 0.0557941
4 5 100 12 8.57698e-05
5 5 100 12 0.291027
6 5 100 12 0.502259
7 5 100 12 0.039144
9 5 100 12 2.04394e-05
10 5 100 12 0.0558068
11 5 100 12 0.0558112
2 6 100 12 0.0564591
5 6 100 12 0.325016
6 6 100 12 0.326456
7 6 100 12 0.186293
9 6 100 12 0.0971925
10 6 100 12 0.00141726
11 6 100 12 0.0071664
3 7 100 12 0.151238
4 7 100 12 0.0504128
7 7 100 12 0.45355
8 7 100 12 0.161624
9 7 100 12 0.0930702
10 7 100 12 0.0396921
11 7 100 12 0.0504128
4 8 100 12 0.251858
5 8 100 12 0.0630303
7 8 100 12 0.000168429
8 8 100 12 0.495298
9 8 100 12 0.189645
3 9 100 12 0.000206153
5 9 100 12 0.048903
8 9 100 12 0.101874
9 9 100 12 0.447013
10 9 100 12 0.302766
11 9 100 12 0.0992384
6 10 100 12 0.0588699
7 10 100 12 0.117598
8 10 100 12 0.00175088
9 10 100 12 7.32156e-05
10 10 100 12 0.411621
11 10 100 12 0.115537
12 10 100 12 0.294549
1 11 100 12 1.70057e-05
5 11 100 12 8.6951e-05
7 11 100 12 1.90686e-05
8 11 100 12 0.0832633
9 11 100 12 6.34833e-05
10 11 100 12 0.0010104
11 11 100 12 0.749555
12 11 100 12 0.165984
1 12 100 12 1.75387e-05
2 12 100 12 0.000109761
4 12 100 12 0.00038969
7 12 100 12 0.0908977
9 12 100 12 0.0916426
10 12 100 12 0.0909364
11 12 100 12 0.000658299
12 12 100 12 0.725348
9 13 100 12 0.00582514
10 13 100 12 0.395565
11 13 100 12 0.198032
12 13 100 12 0.400578
1 14 100 12 4.81816e-05
2 14 100 12 0.000366519
3 14 100 12 0.00229266
4 14 100 12 0.00805362
5 14 100 12 0.00537372
6 14 100 12 0.00330892
7 14 100 12 0.00284171
8 14 100 12 0.00327644
9 14 100 12 0.307986
10 14 100 12 0.00358237
11 14 100 12 0.658478
12 14 100 12 0.00439234
1 15 100 12 8.90461e-05
2 15 100 12 0.000295718
3 15 100 12 0.00164434
4 15 100 12 0.0028603
5 15 100 12 0.045127
6 15 100 12 0.281365
7 15 100 12 0.00771352
8 15 100 12 0.0472829
9 15 100 12 0.303414
10 15 100 12 0.303905
11 15 100 12 0.0037514
12 15 100 12 0.00255185
1 16 100 12 0.000165548
2 16 100 12 0.000189014
3 16 100 12 0.00337581
4 16 100 12 0.00533116
5 16 100 12 0.545484
6 16 100 12 0.00590099
7 16 100 12 0.318096
8 16 100 12 0.00540925
9 16 100 12 0.00749787
10 16 100 12 0.00506306
11 16 100 12 0.00549038
12 16 100 12 0.0979969
1 17 100 12 1.91017e-05
2 17 100 12 1.91017e-05
3 17 100 12 0.0118171
4 17 100 12 0.0193676
5 17 100 12 0.0156712
6 17 100 12 0.0188649
7 17 100 12 0.0152832
8 17 100 12 0.0175556
9 17 100 12 0.0172931
10 17 100 12 0.0182028
11 17 100 12 0.0200349
12 17 100 12 0.845872
1 0 100 13 9.41039e-06
2 0 100 13 0.118348
3 0 100 13 0.0645687
4 0 100 13 0.189459
5 0 100 13 0.124369
6 0 100 13 0.12801
7 0 100 13 0.000192899
8 0 100 13 0.119553
9 0 100 13 0.134372
10 0 100 13 0.00103164
11 0 100 13 0.119332
12 0 100 13 2.20952e-05
13 0 100 13 0.000731879
1 1 100 13 0.786037
2 1 100 13 0.059221
6 1 100 13 0.0986921
7 1 100 13 0.0560498
1 2 100 13 0.131868
2 2 100 13 0.73396
3 2 100 13 0.067391
4 2 100 13 3.02455e-05
5 2 100 13 0.0667503
1 3 100 13 0.0556737
2 3 100 13 0.222569
3 3 100 13 0.555445
4 3 100 13 0.110596
5 3 100 13 1.6167e-06
6 3 100 13 9.3385e-07
7 3 100 13 4.85743e-05
8 3 100 13 0.0556647
1 4 100 13 0.0599698
2 4 100 13 0.0597511
3 4 100 13 0.0885103
4 4 100 13 0.67405
5 4 100 13 0.0599689
6 4 100 13 1.43927e-06
8 4 100 13 9.40614e-05
9 4 100 13 0.0576546
1 5 100 13 7.87239e-07
2 5 100 13 8.99753e-07
3 5 100 13 0.163742
4 5 100 13 0.0675128
5 5 100 13 0.543385
6 5 100 13 0.054922
7 5 100 13 2.6281e-05
8 5 100 13 0.0543997
9 5 100 13 0.110752
10 5 100 13 1.11935e-05
12 5 100 13 3.25921e-06
13 5 100 13 0.00524498
4 6 100 13 0.0390682
5 6 100 13 0.0388276
6 6 100 13 0.347759
7 6 100 13 0.155309
8 6 100 13 3.99255e-05
9 6 100 13 0.0388276
10 6 100 13 0.185102
11 6 100 13 0.000653283
13 6 100 13 0.194414
3 7 100 13 0.120039
5 7 100 13 1.5498e-05
6 7 100 13 0.120152
7 7 100 13 0.480077
8 7 100 13 0.12253
9 7 100 13 0.0371483
10 7 100 13 0.0600204
11 7 100 13 0.0600182
4 8 100 13 0.0522217
5 8 100 13 0.156666
6 8 100 13 0.0125751
7 8 100 13 0.104404
8 8 100 13 0.414256
9 8 100 13 0.155434
11 8 100 13 0.104444
6 9 100 13 0.117686
8 9 100 13 0.180379
9 9 100 13 0.313362
10 9 100 13 0.152873
11 9 100 13 0.0619524
12 9 100 13 0.173747
7 10 100 13 0.0544188
8 10 100 13 0.056617
9 10 100 13 0.170613
10 10 100 13 0.429603
11 10 100 13 0.172291
12 10 100 13 0.00268653
13 10 100 13 0.113771
5 11 100 13 1.50241e-06
6 11 100 13 0.0625374
7 11 100 13 0.12727
8 11 100 13 1.42555e-05
9 11 100 13 0.0625373
10 11 100 13 0.0582716
11 11 100 13 0.434135
12 11 100 13 0.255232
13 11 100 13 9.57761e-07
4 12 100 13 2.91324e-06
7 12 100 13 0.000607831
8 12 100 13 0.0910081
10 12 100 13 0.00676177
11 12 100 13 0.0910378
12 12 100 13 0.538638
13 12 100 13 0.271944
7 13 100 13 9.46549e-05
8 13 100 13 1.48753e-06
10 13 100 13 0.133953
11 13 100 13 0.125447
12 13 100 13 0.250879
13 13 100 13 0.489625
5 14 100 13 0.200086
11 14 100 13 0.199209
12 14 100 13 0.40062
13 14 100 13 0.200086
1 15 100 13 0.00363068
2 15 100 13 0.00592644
3 15 100 13 0.0105481
4 15 100 13 0.0109957
5 15 100 13 0.00848787
6 15 100 13 0.200258
7 15 100 13 0.0083772
8 15 100 13 0.0114148
9 15 100 13 0.00140557
10 15 100 13 0.0088254
11 15 100 13 0.263984
12 15 100 13 0.390295
13 15 100 13 0.0758523
1 16 100 13 0.0074693
2 16 100 13 0.00981329
3 16 100 13 0.0292311
4 16 100 13 0.0151151
5 16 100 13 0.00945163
6 16 100 13 0.321747
7 16 100 13 0.00790351
8 16 100 13 0.00878584
9 16 100 13 0.00231499
10 16 100 13 0.0263017
11 16 100 13 0.0208021
12 16 100 13 0.0246502
13 16 100 13 0.516414
1 17 100 13 0.00984986
2 17 100 13 0.00950575
3 17 100 13 0.01512
4 17 100 13 0.0120989
5 17 100 13 0.0137276
6 17 100 13 0.0122075
7 17 100 13 0.0137535
8 17 100 13 0.0142105
9 17 100 13 0.00391012
10 17 100 13 0.0880832
11 17 100 13 0.0137732
12 17 100 13 0.0161794
13 17 100 13 0.77758
1 0 100 14 0.00245657
2 0 100 14 0.0111999
3 0 100 14 1.19488e-05
4 0 100 14 0.249436
5 0 100 14 0.261819
6 0 100 14 0.000481653
7 0 100 14 3.1936e-06
8 0 100 14 0.00874089
10 0 100 14 0.271938
11 0 100 14 0.000269055
12 0 100 14 0.19363
13 0 100 14 5.4154e-06
14 0 100 14 8.57622e-06
1 1 100 14 0.574656
2 1 100 14 0.0457743
3 1 100 14 0.0474455
5 1 100 14 0.0474515
6 1 100 14 0.0474455
7 1 100 14 0.0474455
8 1 100 14 0.0474455
9 1 100 14 0.0474455
11 1 100 14 0.0474455
13 1 100 14 0.0474455
2 2 100 14 0.785442
3 2 100 14 0.000157779
4 2 100 14 0.0714668
12 2 100 14 0.0714668
14 2 100 14 0.0714668
2 3 100 14 0.133882
3 3 100 14 0.736198
4 3 100 14 0.129911
9 3 100 14 8.6682e-06
2 4 100 14 2.80595e-05
3 4 100 14 0.129638
4 4 100 14 0.513222
5 4 100 14 0.257195
7 4 100 14 0.0645525
8 4 100 14 0.0353644
4 5 100 14 0.0825499
5 5 100 14 0.582911
6 5 100 14 0.334537
9 5 100 14 2.04449e-06
4 6 100 14 0.0670195
5 6 100 14 2.32059e-05
6 6 100 14 0.532925
7 6 100 14 0.2667
8 6 100 14 0.0666618
10 6 100 14 2.74556e-05
12 6 100 14 0.0666424
1 7 100 14 0.0833389
4 7 100 14 1.44131e-05
6 7 100 14 0.0832744
7 7 100 14 0.583314
8 7 100 14 0.0833791
9 7 100 14 0.166679
4 8 100 14 4.65622e-05
7 8 100 14 0.060309
8 8 100 14 0.482707
9 8 100 14 0.060164
10 8 100 14 0.180457
12 8 100 14 0.0601641
13 8 100 14 0.0601641
14 8 100 14 0.0959874
5 9 100 14 0.00235754
6 9 100 14 3.52119e-06
7 9 100 14 7.52182e-05
8 9 100 14 2.02077e-05
9 9 100 14 0.719513
10 9 100 14 0.129114
11 9 100 14 0.119889
12 9 100 14 0.0290278
4 10 100 14 0.0140913
8 10 100 14 0.19797
9 10 100 14 1.44873e-05
10 10 100 14 0.694636
11 10 100 14 0.0932881
8 11 100 14 0.000120538
9 11 100 14 0.0900228
11 11 100 14 0.729628
12 11 100 14 0.18006
14 11 100 14 0.000167907
4 12 100 14 0.000431531
5 12 100 14 0.13259
7 12 100 14 3.63072e-06
8 12 100 14 0.0539829
10 12 100 14 0.125665
11 12 100 14 0.126515
12 12 100 14 0.132227
13 12 100 14 0.426689
14 12 100 14 0.00189559
3 13 100 14 4.43588e-05
9 13 100 14 0.198652
11 13 100 14 0.00683407
12 13 100 14 0.496677
13 13 100 14 0.198654
14 13 100 14 0.0991383
1 14 100 14 0.0657153
9 14 100 14 0.0311645
10 14 100 14 0.0748205
11 14 100 14 0.0748017
12 14 100 14 0.0748261
13 14 100 14 0.448922
14 14 100 14 0.22975
4 15 100 14 0.00355358
6 15 100 14 0.000731769
8 15 100 14 1.84205e-05
11 15 100 14 0.247465
12 15 100 14 0.000370932
14 15 100 14 0.74786
1 16 100 14 0.00207681
2 16 100 14 0.00340358
3 16 100 14 0.00522552
4 16 100 14 0.00642997
5 16 100 14 0.00337857
6 16 100 14 0.00529825
7 16 100 14 0.00668844
8 16 100 14 0.00512048
9 16 100 14 0.00816016
10 16 100 14 0.00453236
11 16 100 14 0.00694053
12 16 100 14 0.144695
13 16 100 14 0.0125485
14 16 100 14 0.785502
1 17 100 14 0.00113388
2 17 100 14 0.0136925
3 17 100 14 0.00641948
4 17 100 14 0.0104951
5 17 100 14 0.00815506
6 17 100 14 0.00933504
7 17 100 14 0.00852083
8 17 100 14 0.00994253
9 17 100 14 0.0129111
10 17 100 14 0.00339566
11 17 100 14 0.514903
12 17 100 14 0.008724
13 17 100 14 0.0774277
14 17 100 14 0.314944
1 18 100 14 0.00339354
2 18 100 14 0.00607559
3 18 100 14 0.00300444
4 18 100 14 0.00336371
5 18 100 14 0.00205097
6 18 100 14 0.00333521
7 18 100 14 0.00279858
8 18 100 14 0.00284833
9 18 100 14 0.943349
10 18 100 14 0.00281138
11 18 100 14 0.0030846
12 18 100 14 0.000244348
13 18 100 14 0.00428121
14 18 100 14 0.0193592
2 0 100 15 0.00433411
3 0 100 15 1.63869e-05
4 0 100 15 0.0068906
6 0 100 15 0.000805273
7 0 100 15 0.00104938
8 0 100 15 0.786102
9 0 100 15 0.184947
10 0 100 15 0.00421651
11 0 100 15 0.00825435
12 0 100 15 0.00338449
1 1 100 15 1
2 2 100 15 1
1 3 100 15 3.60542e-06
3 3 100 15 0.857253
4 3 100 15 0.142725
12 3 100 15 1.8268e-05
2 4 100 15 0.0474624
3 4 100 15 2.01509e-06
4 4 100 15 0.70144
5 4 100 15 0.250727
10 4 100 15 0.00033158
13 4 100 15 3.66676e-05
3 5 100 15 0.000265882
4 5 100 15 0.0549685
5 5 100 15 0.411208
6 5 100 15 0.136984
9 5 100 15 0.259031
10 5 100 15 0.136998
11 5 100 15 5.78698e-06
12 5 100 15 0.000538123
3 6 100 15 0.0769237
5 6 100 15 0.153847
6 6 100 15 0.384619
7 6 100 15 0.230763
8 6 100 15 0.0769237
15 6 100 15 0.0769237
4 7 100 15 0.141565
6 7 100 15 0.141439
7 7 100 15 0.276892
9 7 100 15 0.440104
5 8 100 15 0.197315
7 8 100 15 0.403091
8 8 100 15 0.399594
2 9 100 15 0.000295263
3 9 100 15 0.134358
6 9 100 15 0.13493
8 9 100 15 0.404728
9 9 100 15 0.16871
10 9 100 15 0.156978
7 10 100 15 0.0866301
8 10 100 15 0.0866301
9 10 100 15 0.0627609
10 10 100 15 0.504928
11 10 100 15 0.259047
13 10 100 15 3.81458e-06
11 11 100 15 0.57173
12 11 100 15 0.42827
10 12 100 15 2.43519e-05
12 12 100 15 0.428488
13 12 100 15 0.571487
9 13 100 15 0.0911986
11 13 100 15 0.112364
12 13 100 15 0.114524
13 13 100 15 0.115042
14 13 100 15 0.566871
11 14 100 15 0.00307093
12 14 100 15 1.65425e-05
13 14 100 15 0.32878
14 14 100 15 0.00851693
15 14 100 15 0.659615
12 15 100 15 0.332988
13 15 100 15 0.00206454
14 15 100 15 0.664947
13 16 100 15 0.332093
14 16 100 15 0.00111305
15 16 100 15 0.666794
1 17 100 15 1.24663e-05
2 17 100 15 1.50532e-05
3 17 100 15 0.0110788
4 17 100 15 0.00889111
10 17 100 15 2.32052e-06
11 17 100 15 0.00132895
12 17 100 15 0.0045498
13 17 100 15 0.205761
14 17 100 15 0.767809
15 17 100 15 0.000551822
1 18 100 15 1.19179e-05
2 18 100 15 1.26185e-05
3 18 100 15 0.563793
4 18 100 15 0.0209592
10 18 100 15 4.76014e-06
11 18 100 15 0.00110257
12 18 100 15 0.0113161
13 18 100 15 0.0400414
14 18 100 15 0.0375992
15 18 100 15 0.325159
1 0 100 16 6.04304e-06
3 0 100 16 0.303995
4 0 100 16 0.0286728
6 0 100 16 0.295342
8 0 100 16 0.000138439
11 0 100 16 0.0753544
12 0 100 16 0.000104283
14 0 100 16 0.296318
15 0 100 16 6.89924e-05
1 1 100 16 1
2 2 100 16 0.833334
12 2 100 16 0.166666
3 3 100 16 0.653759
5 3 100 16 7.15298e-06
6 3 100 16 0.00113697
13 3 100 16 0.345097
1 4 100 16 2.22422e-05
3 4 100 16 0.750299
6 4 100 16 0.249679
1 5 100 16 0.169392
4 5 100 16 0.830585
5 5 100 16 2.28672e-05
2 6 100 16 0.125003
4 6 100 16 0.125004
5 6 100 16 0.624993
6 6 100 16 0.125
3 7 100 16 0.0156777
6 7 100 16 0.197178
7 7 100 16 0.787144
7 8 100 16 0.199925
8 8 100 16 0.599776
9 8 100 16 0.200299
6 9 100 16 0.34994
7 9 100 16 0.000542403
8 9 100 16 0.349948
9 9 100 16 0.29957
7 10 100 16 0.193961
9 10 100 16 0.44499
10 10 100 16 0.357459
11 10 100 16 9.74308e-05
12 10 100 16 0.00343888
15 10 100 16 5.3409e-05
5 11 100 16 0.116462
8 11 100 16 0.0114369
10 11 100 16 0.368349
11 11 100 16 0.387237
13 11 100 16 0.116515
5 12 100 16 8.06211e-06
8 12 100 16 0.202331
11 12 100 16 0.0428872
12 12 100 16 0.754706
15 12 100 16 6.80604e-05
6 13 100 16 8.21661e-06
7 13 100 16 0.000281468
9 13 100 16 0.236113
11 13 100 16 0.290542
12 13 100 16 0.236284
13 13 100 16 0.236374
14 13 100 16 0.000396808
10 14 100 16 0.103976
12 14 100 16 0.0644894
13 14 100 16 0.311877
14 14 100 16 0.207953
15 14 100 16 0.311705
11 15 100 16 0.199909
13 15 100 16 4.97341e-06
14 15 100 16 3.58393e-05
15 15 100 16 0.200312
16 15 100 16 0.599738
14 16 100 16 0.749831
16 16 100 16 0.250169
12 17 100 16 3.18372e-05
15 17 100 16 0.999968
1 18 100 16 3.78567e-05
2 18 100 16 1.51034e-05
3 18 100 16 2.17426e-05
4 18 100 16 4.05763e-05
5 18 100 16 1.5124e-05
6 18 100 16 0.00788178
7 18 100 16 4.58515e-07
8 18 100 16 7.82388e-05
9 18 100 16 7.05622e-06
10 18 100 16 0.268845
11 18 100 16 8.73221e-06
12 18 100 16 0.0145565
13 18 100 16 0.00260403
14 18 100 16 0.286267
15 18 100 16 0.0101721
16 18 100 16 0.409449
5 0 100 17 1.17976e-05
8 0 100 17 0.356968
9 0 100 17 0.0042854
10 0 100 17 0.00025284
14 0 100 17 0.351282
15 0 100 17 0.287192
16 0 100 17 8.60821e-06
1 1 100 17 0.3
2 1 100 17 0.1
3 1 100 17 0.1
4 1 100 17 0.1
7 1 100 17 0.1
11 1 100 17 0.1
12 1 100 17 0.1
13 1 100 17 0.1
2 2 100 17 0.499907
15 2 100 17 0.500093
2 3 100 17 0.427858
10 3 100 17 0.144284
17 3 100 17 0.427858
14 4 100 17 1
4 5 100 17 0.442678
16 5 100 17 0.557322
4 6 100 17 0.2
6 6 100 17 0.6
9 6 100 17 0.2
5 7 100 17 0.542769
7 7 100 17 0.000658606
10 7 100 17 0.1871
11 7 100 17 0.0188535
16 7 100 17 0.250619
8 8 100 17 0.836752
15 8 100 17 0.163248
9 9 100 17 1
3 10 100 17 0.100034
5 10 100 17 0.100034
7 10 100 17 0.100034
8 10 100 17 0.100034
10 10 100 17 0.199726
11 10 100 17 0.100034
12 10 100 17 0.100034
13 10 100 17 0.100034
14 10 100 17 0.100034
4 11 100 17 0.10673
17 11 100 17 0.89327
3 12 100 17 0.2
5 12 100 17 0.0138809
7 12 100 17 0.199531
11 12 100 17 0.186588
12 12 100 17 0.2
13 12 100 17 0.2
14 13 100 17 1
14 14 100 17 0.998215
16 14 100 17 0.00178476
17 15 100 17 1
15 16 100 17 1
16 17 100 17 1
16 18 100 17 0.00172979
17 18 100 17 0.99827
4 0 100 18 0.981589
10 0 100 18 0.0184107
1 1 100 18 1
2 2 100 18 1
1 3 100 18 0.503671
2 3 100 18 0.00100804
4 3 100 18 0.495321
3 4 100 18 0.499979
5 4 100 18 0.500021
3 5 100 18 0.214956
4 5 100 18 0.14017
6 5 100 18 0.214958
15 5 100 18 0.214958
17 5 100 18 0.214958
8 6 100 18 1
2 7 100 18 0.499978
3 7 100 18 4.2788e-05
9 7 100 18 0.499979
7 8 100 18 1
5 9 100 18 0.501704
10 9 100 18 0.498296
6 10 100 18 0.166667
8 10 100 18 0.166667
11 10 100 18 0.333333
16 10 100 18 0.166667
17 10 100 18 0.166667
10 11 100 18 1
12 12 100 18 1
10 13 100 18 0.450084
13 13 100 18 0.549916
12 14 100 18 0.499999
14 14 100 18 0.5
4 15 100 18 0.0113014
15 15 100 18 0.988699
14 16 100 18 0.5
16 16 100 18 0.5
18 17 100 18 1
13 18 100 18 1
9 19 100 18 1
1 20 100 18 0.00157717
2 20 100 18 0.000411824
3 20 100 18 3.63155e-05
4 20 100 18 0.00232284
5 20 100 18 0.00157883
6 20 100 18 0.00151947
7 20 100 18 0.000536072
8 20 100 18 0.0015747
9 20 100 18 0.125147
10 20 100 18 0.85532
11 20 100 18 0.00157483
12 20 100 18 0.00154336
13 20 100 18 0.000156755
14 20 100 18 0.000610609
15 20 100 18 0.00137423
16 20 100 18 0.0015747
17 20 100 18 0.00157563
18 20 100 18 0.00156523
2 0 100 19 0.00109144
3 0 100 19 0.00029807
4 0 100 19 0.000189564
5 0 100 19 0.00241697
7 0 100 19 0.00804248
9 0 100 19 0.00560353
10 0 100 19 0.233055
11 0 100 19 0.234682
12 0 100 19 8.93776e-06
13 0 100 19 0.237614
15 0 100 19 0.00267202
16 0 100 19 0.0173146
17 0 100 19 0.256908
19 0 100 19 0.000103231
1 1 100 19 0.87558
7 1 100 19 0.12441
15 1 100 19 9.71618e-06
1 2 100 19 0.143275
2 2 100 19 0.856668
16 2 100 19 5.66822e-05
2 3 100 19 0.272972
3 3 100 19 0.545049
4 3 100 19 0.181977
15 3 100 19 1.74872e-06
3 4 100 19 0.33398
4 4 100 19 0.554978
5 4 100 19 0.111014
17 4 100 19 2.7868e-05
4 5 100 19 0.166408
5 5 100 19 0.666748
6 5 100 19 0.166401
8 5 100 19 0.000443465
1 6 100 19 0.111051
5 6 100 19 0.443503
6 6 100 19 0.334059
7 6 100 19 4.33677e-06
11 6 100 19 2.96817e-05
18 6 100 19 0.111353
6 7 100 19 0.826717
7 7 100 19 0.165495
8 7 100 19 0.00778868
5 8 100 19 2.75862e-06
6 8 100 19 0.000401636
7 8 100 19 0.601211
8 8 100 19 0.398348
9 8 100 19 2.97832e-05
12 8 100 19 2.08604e-06
15 8 100 19 4.47551e-06
8 9 100 19 0.401675
9 9 100 19 0.499466
10 9 100 19 0.0987291
11 9 100 19 9.19529e-05
19 9 100 19 3.74842e-05
5 10 100 19 5.08999e-06
9 10 100 19 0.391279
10 10 100 19 0.130513
11 10 100 19 0.00127886
12 10 100 19 0.260958
17 10 100 19 0.215967
4 11 100 19 2.69915e-06
6 11 100 19 7.07174e-05
9 11 100 19 0.000725565
10 11 100 19 0.446709
11 11 100 19 0.441061
13 11 100 19 0.108286
17 11 100 19 0.00310955
18 11 100 19 3.5971e-05
9 12 100 19 0.000143674
10 12 100 19 0.160674
11 12 100 19 0.353533
12 12 100 19 0.274235
13 12 100 19 4.22035e-06
14 12 100 19 0.176857
15 12 100 19 6.36226e-06
17 12 100 19 0.0345458
7 13 100 19 0.0980255
11 13 100 19 0.0907591
12 13 100 19 0.325817
13 13 100 19 0.387391
15 13 100 19 0.098008
8 14 100 19 0.156479
11 14 100 19 5.20656e-05
13 14 100 19 0.0681254
14 14 100 19 0.156198
15 14 100 19 0.156542
16 14 100 19 0.312635
17 14 100 19 0.00033865
18 14 100 19 0.14963
9 15 100 19 0.124844
11 15 100 19 1.8902e-06
13 15 100 19 0.00223619
14 15 100 19 0.249913
15 15 100 19 8.03345e-06
16 15 100 19 0.123651
17 15 100 19 2.4219e-05
19 15 100 19 0.499321
7 16 100 19 0.000856003
10 16 100 19 0.162362
12 16 100 19 0.00606038
14 16 100 19 0.0138817
15 16 100 19 0.811791
17 16 100 19 0.00504856
11 17 100 19 0.199099
12 17 100 19 0.216702
13 17 100 19 0.00111824
16 17 100 19 0.583081
11 18 100 19 3.0006e-06
12 18 100 19 0.131902
13 18 100 19 0.207434
15 18 100 19 0.000373473
17 18 100 19 0.396113
18 18 100 19 0.264175
11 19 100 19 3.52418e-06
13 19 100 19 0.143238
14 19 100 19 0.434911
15 19 100 19 0.139166
18 19 100 19 0.282682
14 20 100 19 0.166369
15 20 100 19 0.000180862
16 20 100 19 0.167957
17 20 100 19 0.332746
19 20 100 19 0.332747
1 21 100 19 0.00474395
2 21 100 19 0.00388624
3 21 100 19 0.00287391
4 21 100 19 0.00224037
5 21 100 19 0.00108578
6 21 100 19 0.00209109
7 21 100 19 0.00253578
8 21 100 19 0.0031814
9 21 100 19 0.00288243
10 21 100 19 0.00281437
11 21 100 19 0.00562163
12 21 100 19 0.00353476
13 21 100 19 0.00619215
14 21 100 19 0.363034
15 21 100 19 0.267464
16 21 100 19 0.00382846
17 21 100 19 0.00369328
18 21 100 19 0.303483
19 21 100 19 0.0148136
1 22 100 19 0.154864
2 22 100 19 0.00384492
3 22 100 19 0.00303089
4 22 100 19 0.000492165
5 22 100 19 0.00142625
6 22 100 19 0.00321502
7 22 100 19 0.00141095
8 22 100 19 0.0033261
9 22 100 19 8.16549e-05
10 22 100 19 0.000300451
11 22 100 19 8.64317e-05
12 22 100 19 0.00398893
13 22 100 19 0.00332569
14 22 100 19 0.00192108
15 22 100 19 0.00281225
16 22 100 19 0.202057
17 22 100 19 0.00379627
18 22 100 19 0.204454
19 22 100 19 0.405566
1 23 100 19 0.583559
2 23 100 19 0.00282298
3 23 100 19 0.0033355
4 23 100 19 8.96599e-06
5 23 100 19 0.000126344
6 23 100 19 0.199961
7 23 100 19 0.000112083
8 23 100 19 6.47691e-05
9 23 100 19 2.69271e-05
10 23 100 19 0.000280995
11 23 100 19 0.00740554
12 23 100 19 0.00227809
13 23 100 19 0.00141518
14 23 100 19 7.06938e-06
15 23 100 19 8.60514e-05
16 23 100 19 0.197313
17 23 100 19 0.00111769
18 23 100 19 6.97514e-05
19 23 100 19 8.97006e-06
1 24 100 19 2.55243e-05
2 24 100 19 1.54981e-05
3 24 100 19 5.02407e-07
4 24 100 19 8.2375e-07
6 24 100 19 0.31641
7 24 100 19 2.43695e-05
8 24 100 19 7.58275e-05
9 24 100 19 2.08528e-05
10 24 100 19 0.000125255
11 24 100 19 0.000391476
12 24 100 19 4.32483e-05
13 24 100 19 5.87324e-05
14 24 100 19 2.34954e-06
15 24 100 19 2.34954e-06
16 24 100 19 0.682802
17 24 100 19 1.03133e-07
18 24 100 19 1.41186e-07
19 24 100 19 8.24124e-07
1 25 100 19 0.000124471
2 25 100 19 0.000576155
3 25 100 19 0.000928163
4 25 100 19 0.000106515
5 25 100 19 0.000287676
6 25 100 19 0.0118861
7 25 100 19 0.0004628
8 25 100 19 0.000255663
9 25 100 19 0.000609661
10 25 100 19 0.000318837
11 25 100 19 9.28609e-05
12 25 100 19 2.97533e-06
13 25 100 19 4.92701e-06
14 25 100 19 1.47874e-05
15 25 100 19 1.47874e-05
16 25 100 19 0.0117387
17 25 100 19 0.97245
18 25 100 19 1.8256e-05
19 25 100 19 0.000106563
1 26 100 19 5.86294e-06
2 26 100 19 1.76648e-05
3 26 100 19 0.000189042
4 26 100 19 0.000309954
5 26 100 19 0.00653163
6 26 100 19 5.02459e-05
7 26 100 19 0.00135596
8 26 100 19 9.63137e-06
9 26 100 19 2.09138e-05
10 26 100 19 0.000944731
11 26 100 19 5.21356e-06
12 26 100 19 0.000245209
13 26 100 19 1.43374e-05
14 26 100 19 4.30307e-05
15 26 100 19 4.30307e-05
16 26 100 19 5.02459e-05
17 26 100 19 0.00201365
18 26 100 19 0.98784
19 26 100 19 0.000310095
1 27 100 19 0.000405748
2 27 100 19 0.00123484
3 27 100 19 0.0307794
4 27 100 19 0.0714083
5 27 100 19 0.00114453
6 27 100 19 0.00356158
7 27 100 19 0.000952665
8 27 100 19 0.000675555
9 27 100 19 0.00147525
10 27 100 19 0.000958718
11 27 100 19 0.000360808
12 27 100 19 0.000601709
13 27 100 19 0.000996083
14 27 100 19 0.00323114
15 27 100 19 0.00376579
16 27 100 19 0.00356163
17 27 100 19 0.00269838
18 27 100 19 0.00369193
19 27 100 19 0.868496
1 28 100 19 0.00340991
2 28 100 19 0.0103619
3 28 100 19 0.160657
4 28 100 19 0.261851
5 28 100 19 0.00961273
6 28 100 19 0.0295912
7 28 100 19 0.0079958
8 28 100 19 0.00566589
9 28 100 19 0.0123625
10 28 100 19 0.00804934
11 28 100 19 0.00303223
12 28 100 19 0.00505356
13 28 100 19 0.00836618
14 28 100 19 0.026404
15 28 100 19 0.0277664
16 28 100 19 0.0295913
17 28 100 19 0.0226609
18 28 100 19 0.0310073
19 28 100 19 0.33656
1 29 100 19 0.00052226
2 29 100 19 0.00158913
3 29 100 19 0.0809255
4 29 100 19 0.7153
5 29 100 19 0.00147703
6 29 100 19 0.00453329
7 29 100 19 0.00122596
8 29 100 19 0.000869105
9 29 100 19 0.00189807
10 29 100 19 0.00123374
11 29 100 19 0.000464415
12 29 100 19 0.000774366
13 29 100 19 0.00128192
14 29 100 19 0.00408068
15 29 100 19 0.00425082
16 29 100 19 0.00453329
17 29 100 19 0.00347262
18 29 100 19 0.00475131
19 29 100 19 0.166816
1 0 100 20 1.23088e-05
3 0 100 20 0.000169092
4 0 100 20 0.194261
7 0 100 20 0.0152092
9 0 100 20 0.685234
11 0 100 20 0.10504
18 0 100 20 7.41284e-05
1 1 100 20 7.47297e-05
7 1 100 20 0.333309
8 1 100 20 0.666616
7 2 100 20 1
3 3 100 20 0.99993
13 3 100 20 6.95927e-05
4 4 100 20 1
2 5 100 20 0.166649
5 5 100 20 0.166649
6 5 100 20 7.76834e-05
12 5 100 20 3.05133e-05
15 5 100 20 0.166649
16 5 100 20 0.166649
19 5 100 20 0.166649
20 5 100 20 0.166649
6 6 100 20 1
4 7 100 20 0.999989
18 7 100 20 1.09216e-05
6 8 100 20 0.000479638
12 8 100 20 0.99952
6 9 100 20 3.26624e-05
7 9 100 20 0.999957
12 9 100 20 1.03803e-05
3 10 100 20 0.000100378
11 10 100 20 0.384298
13 10 100 20 0.615601
10 11 100 20 1
2 12 100 20 0.108372
5 12 100 20 0.108373
7 12 100 20 4.00614e-06
11 12 100 20 0.133006
13 12 100 20 9.27659e-06
14 12 100 20 0.108373
15 12 100 20 0.108373
16 12 100 20 0.108373
17 12 100 20 0.108373
19 12 100 20 0.108373
20 12 100 20 0.108373
1 13 100 20 0.330514
6 13 100 20 0.330284
12 13 100 20 0.00864495
18 13 100 20 0.330557
9 14 100 20 1
12 15 100 20 1
1 16 100 20 1
14 17 100 20 1
3 18 100 20 1
1 19 100 20 0.0830517
2 19 100 20 0.0699638
5 19 100 20 0.0699638
6 19 100 20 0.0699638
8 19 100 20 0.0461791
9 19 100 20 0.0180912
10 19 100 20 0.0463321
12 19 100 20 0.0699638
14 19 100 20 0.0699638
15 19 100 20 0.0699626
16 19 100 20 0.0699638
17 19 100 20 0.0830517
18 19 100 20 0.0936211
19 19 100 20 0.0699638
20 19 100 20 0.0699638
17 20 100 20 1
18 21 100 20 1
1 22 100 20 5.40137e-05
2 22 100 20 5.40137e-05
3 22 100 20 0.000257013
4 22 100 20 1.16127e-06
5 22 100 20 5.40137e-05
6 22 100 20 5.40137e-05
7 22 100 20 3.6624e-05
8 22 100 20 5.40137e-05
9 22 100 20 5.40137e-05
10 22 100 20 5.40137e-05
11 22 100 20 0.000446749
12 22 100 20 5.40137e-05
13 22 100 20 0.998449
14 22 100 20 5.40137e-05
15 22 100 20 5.4012e-05
16 22 100 20 5.40137e-05
17 22 100 20 5.40137e-05
18 22 100 20 5.40137e-05
19 22 100 20 5.40137e-05
20 22 100 20 5.40137e-05
4 0 100 21 2.31332e-05
5 0 100 21 0.0416263
7 0 100 21 0.0841252
8 0 100 21 0.673615
9 0 100 21 0.000466912
11 0 100 21 0.13983
12 0 100 21 9.93647e-05
15 0 100 21 0.000329673
16 0 100 21 2.11433e-05
18 0 100 21 0.0598633
1 1 100 21 0.198983
2 1 100 21 0.190553
3 1 100 21 0.570699
12 1 100 21 0.0397655
1 2 100 21 0.503549
2 2 100 21 0.338049
3 2 100 21 1.36875e-05
5 2 100 21 0.158374
9 2 100 21 1.36991e-05
2 3 100 21 0.382414
3 3 100 21 0.235088
4 3 100 21 0.127471
6 3 100 21 0.254944
9 3 100 21 8.21049e-05
3 4 100 21 0.22195
4 4 100 21 0.0178711
7 4 100 21 0.572548
9 4 100 21 2.93008e-06
10 4 100 21 4.19539e-06
11 4 100 21 0.187619
19 4 100 21 4.25037e-06
4 5 100 21 0.520944
5 5 100 21 0.120623
8 5 100 21 0.179207
13 5 100 21 0.179207
14 5 100 21 1.86741e-05
5 6 100 21 0.80909
6 6 100 21 0.00033166
9 6 100 21 0.190225
10 6 100 21 0.000346169
13 6 100 21 7.6696e-06
6 7 100 21 0.405455
7 7 100 21 0.191252
9 7 100 21 0.0990664
10 7 100 21 0.304226
7 8 100 21 0.148868
8 8 100 21 0.317649
9 8 100 21 0.29703
11 8 100 21 0.1165
15 8 100 21 0.119949
18 8 100 21 3.87187e-06
1 9 100 21 0.342583
8 9 100 21 0.3164
9 9 100 21 0.167022
10 9 100 21 0.173371
13 9 100 21 0.00061845
19 9 100 21 4.97632e-06
9 10 100 21 0.339373
11 10 100 21 0.660609
18 10 100 21 1.36881e-05
19 10 100 21 5.01225e-06
5 11 100 21 0.000276081
10 11 100 21 0.399668
12 11 100 21 0.400038
14 11 100 21 0.200019
1 12 100 21 0.000152598
12 12 100 21 0.431336
13 12 100 21 0.340942
20 12 100 21 0.113785
21 12 100 21 0.113785
4 13 100 21 0.499822
11 13 100 21 0.000276954
13 13 100 21 0.499831
18 13 100 21 6.93682e-05
14 14 100 21 0.569643
15 14 100 21 0.430357
11 15 100 21 0.337393
14 15 100 21 0.17135
15 15 100 21 5.56752e-05
17 15 100 21 0.168666
18 15 100 21 0.322535
15 16 100 21 2.66664e-06
16 16 100 21 0.638288
17 16 100 21 0.0425768
19 16 100 21 0.319132
15 17 100 21 0.227961
16 17 100 21 0.22886
17 17 100 21 0.313469
18 17 100 21 7.12787e-05
19 17 100 21 0.000488601
20 17 100 21 0.114579
21 17 100 21 0.114571
16 18 100 21 0.000561766
18 18 100 21 0.999438
17 19 100 21 0.468191
18 19 100 21 0.0057024
19 19 100 21 0.526107
19 20 100 21 0.304519
20 20 100 21 0.695481
15 21 100 21 0.0455136
21 21 100 21 0.954486
6 0 100 22 0.00222631
18 0 100 22 0.997774
6 1 100 22 1
2 2 100 22 0.125
3 2 100 22 0.125
7 2 100 22 0.125
8 2 100 22 0.125
9 2 100 22 0.125
17 2 100 22 0.125
21 2 100 22 0.125
22 2 100 22 0.125
12 3 100 22 1
1 4 100 22 1
5 5 100 22 1
4 6 100 22 1
20 7 100 22 1
10 8 100 22 0.998302
11 8 100 22 0.00169773
11 9 100 22 1
12 10 100 22 0.998103
13 10 100 22 0.00189705
13 11 100 22 1
10 12 100 22 1
14 13 100 22 1
15 14 100 22 1
1 15 100 22 1
19 16 100 22 1
18 17 100 22 1
16 18 100 22 1
12 19 100 22 1
1 20 100 22 1
1 21 100 22 1
1 22 100 22 1
1 0 100 23 6.60588e-06
7 0 100 23 0.458551
9 0 100 23 7.11151e-06
11 0 100 23 0.000486137
12 0 100 23 0.457836
14 0 100 23 0.0716679
18 0 100 23 0.0103242
20 0 100 23 0.000486137
21 0 100 23 0.000612547
22 0 100 23 2.20038e-05
1 1 100 23 0.666669
2 1 100 23 0.333331
1 2 100 23 0.499811
2 2 100 23 0.49982
5 2 100 23 0.000369854
3 3 100 23 1
3 4 100 23 0.000384489
4 4 100 23 0.425561
10 4 100 23 0.28702
15 4 100 23 0.287035
4 5 100 23 9.41454e-06
5 5 100 23 0.999986
21 5 100 23 4.67725e-06
1 6 100 23 0.198663
2 6 100 23 0.198663
5 6 100 23 0.00667311
6 6 100 23 0.595986
11 6 100 23 1.52326e-05
4 7 100 23 0.375554
5 7 100 23 0.184568
7 7 100 23 2.34814e-06
8 7 100 23 0.184563
9 7 100 23 0.184552
12 7 100 23 0.0707598
5 8 100 23 9.96454e-06
6 8 100 23 0.295034
7 8 100 23 0.68544
16 8 100 23 2.41587e-05
18 8 100 23 8.53194e-06
22 8 100 23 0.0194833
6 9 100 23 0.391209
7 9 100 23 0.608202
8 9 100 23 1.13616e-05
9 9 100 23 5.01288e-05
12 9 100 23 0.000506552
15 9 100 23 1.56844e-05
18 9 100 23 5.75405e-06
8 10 100 23 0.667053
9 10 100 23 0.166164
10 10 100 23 0.166783
9 11 100 23 0.428931
10 11 100 23 0.142808
11 11 100 23 0.428261
12 12 100 23 0.999455
19 12 100 23 0.000544944
11 13 100 23 0.249998
13 13 100 23 0.749995
14 13 100 23 6.79513e-06
12 14 100 23 0.25
14 14 100 23 0.75
11 15 100 23 0.12524
13 15 100 23 0.12524
15 15 100 23 0.250475
16 15 100 23 0.123293
17 15 100 23 0.125213
22 15 100 23 0.12525
23 15 100 23 0.125287
12 16 100 23 0.351048
14 16 100 23 0.296286
16 16 100 23 0.352666
12 17 100 23 9.78889e-05
13 17 100 23 0.242692
17 17 100 23 0.519953
18 17 100 23 0.237258
14 18 100 23 0.0107957
16 18 100 23 0.512973
17 18 100 23 0.219963
19 18 100 23 0.256268
14 19 100 23 0.183621
18 19 100 23 0.575242
19 19 100 23 0.241137
15 20 100 23 0.210859
19 20 100 23 0.367423
20 20 100 23 0.421718
16 21 100 23 0.0236046
20 21 100 23 0.485162
21 21 100 23 0.491234
16 22 100 23 0.231944
20 22 100 23 0.00641357
21 22 100 23 0.256584
22 22 100 23 0.505059
16 23 100 23 0.000142193
17 23 100 23 0.248094
21 23 100 23 0.24804
22 23 100 23 0.00773759
23 23 100 23 0.495986
16 24 100 23 0.00507545
18 24 100 23 0.490174
22 24 100 23 0.504751
1 25 100 23 0.00187246
2 25 100 23 0.00352612
3 25 100 23 0.00399094
4 25 100 23 0.00303776
5 25 100 23 0.00377142
6 25 100 23 0.00479582
7 25 100 23 0.00113966
8 25 100 23 0.00484586
9 25 100 23 0.00107074
10 25 100 23 0.00389926
11 25 100 23 0.00421788
12 25 100 23 0.00166463
13 25 100 23 0.000846688
14 25 100 23 0.000632618
15 25 100 23 0.00273035
16 25 100 23 0.000682934
17 25 100 23 0.00200018
18 25 100 23 0.0104554
19 25 100 23 0.0227839
20 25 100 23 0.00514857
21 25 100 23 0.00506538
22 25 100 23 0.0516632
23 25 100 23 0.860158
1 26 100 23 0.00445644
2 26 100 23 0.0121756
3 26 100 23 0.00860893
4 26 100 23 0.00587091
5 26 100 23 0.0124301
6 26 100 23 0.0151082
7 26 100 23 0.000624659
8 26 100 23 0.0129321
9 26 100 23 0.000414764
10 26 100 23 0.013491
11 26 100 23 0.00906194
12 26 100 23 0.00203139
13 26 100 23 0.00203286
14 26 100 23 0.000104847
15 26 100 23 0.00343725
16 26 100 23 0.000155336
17 26 100 23 0.00514489
18 26 100 23 0.0116239
19 26 100 23 0.825555
20 26 100 23 0.0136513
21 26 100 23 0.0136806
22 26 100 23 0.0137211
23 26 100 23 0.013687
1 27 100 23 0.00113056
2 27 100 23 0.00228343
3 27 100 23 0.00211978
4 27 100 23 0.00147756
5 27 100 23 0.00231318
6 27 100 23 0.00258152
7 27 100 23 0.96179
8 27 100 23 0.00261236
9 27 100 23 0.000105717
10 27 100 23 0.00261236
11 27 100 23 0.00213288
12 27 100 23 0.000516728
13 27 100 23 0.000516728
15 27 100 23 0.000874453
17 27 100 23 0.00129361
18 27 100 23 0.00258152
19 27 100 23 0.0026084
20 27 100 23 0.00261236
21 27 100 23 0.00261236
22 27 100 23 0.00261236
23 27 100 23 0.00261236
1 28 100 23 0.00981248
2 28 100 23 0.0278037
3 28 100 23 0.0189763
4 28 100 23 0.0129327
5 28 100 23 0.0284976
6 28 100 23 0.0449754
7 28 100 23 0.00137543
8 28 100 23 0.102138
9 28 100 23 0.000913264
10 28 100 23 0.426639
11 28 100 23 0.0204306
12 28 100 23 0.00447322
13 28 100 23 0.00447612
14 28 100 23 0.000230861
15 28 100 23 0.00756896
16 28 100 23 0.000342032
17 28 100 23 0.0113326
18 28 100 23 0.0271696
19 28 100 23 0.127202
20 28 100 23 0.0313787
21 28 100 23 0.0314743
22 28 100 23 0.0283578
23 28 100 23 0.0314997
1 29 100 23 0.000787724
2 29 100 23 0.192109
3 29 100 23 0.00168563
4 29 100 23 0.00103555
5 29 100 23 0.191524
6 29 100 23 0.00234162
7 29 100 23 0.000110268
8 29 100 23 0.00217457
9 29 100 23 7.3216e-05
10 29 100 23 0.00223928
11 29 100 23 0.00153289
12 29 100 23 0.000359002
13 29 100 23 0.000358985
14 29 100 23 1.8508e-05
15 29 100 23 0.000607022
16 29 100 23 2.74206e-05
17 29 100 23 0.000905303
18 29 100 23 0.00248991
19 29 100 23 0.00273045
20 29 100 23 0.192439
21 29 100 23 0.192297
22 29 100 23 0.0199188
23 29 100 23 0.192235
1 30 100 23 0.00720628
2 30 100 23 0.0187539
3 30 100 23 0.0138765
4 30 100 23 0.00947998
5 30 100 23 0.0191546
6 30 100 23 0.0292025
7 30 100 23 0.00101109
8 30 100 23 0.0544507
9 30 100 23 0.000671351
10 30 100 23 0.648712
11 30 100 23 0.0146518
12 30 100 23 0.00328734
13 30 100 23 0.00328725
14 30 100 23 0.000169708
15 30 100 23 0.00556248
16 30 100 23 0.000251432
17 30 100 23 0.00830383
18 30 100 23 0.0193692
19 30 100 23 0.059251
20 30 100 23 0.0212456
21 30 100 23 0.0212924
22 30 100 23 0.0195042
23 30 100 23 0.0213053
1 31 100 23 0.157571
2 31 100 23 0.181534
3 31 100 23 0.000490143
4 31 100 23 0.000341646
5 31 100 23 0.000534861
6 31 100 23 0.000596908
7 31 100 23 0.402314
8 31 100 23 0.00060404
9 31 100 23 0.0102634
10 31 100 23 0.00060404
11 31 100 23 0.000493171
12 31 100 23 0.00011948
13 31 100 23 0.00011948
14 31 100 23 0.225354
15 31 100 23 0.000202194
16 31 100 23 9.15477e-06
17 31 100 23 0.000299112
18 31 100 23 0.000596908
19 31 100 23 0.0155372
20 31 100 23 0.00060404
21 31 100 23 0.00060404
22 31 100 23 0.00060404
23 31 100 23 0.00060404
2 0 100 24 0.000116982
3 0 100 24 0.0293912
6 0 100 24 0.000167719
8 0 100 24 0.00551374
11 0 100 24 0.174357
16 0 100 24 0.101657
18 0 100 24 0.052057
22 0 100 24 0.000107906
23 0 100 24 0.636632
1 1 100 24 0.599999
4 1 100 24 0.2
5 1 100 24 0.2
2 2 100 24 0.666635
11 2 100 24 7.797e-06
22 2 100 24 0.333358
20 3 100 24 1
3 4 100 24 0.323794
4 4 100 24 0.676206
2 5 100 24 0.406936
6 5 100 24 0.593064
6 6 100 24 0.999917
10 6 100 24 8.31171e-05
6 7 100 24 0.0517286
7 7 100 24 0.948271
8 8 100 24 0.498008
17 8 100 24 0.501992
11 9 100 24 7.16318e-05
18 9 100 24 0.996498
23 9 100 24 0.00343016
21 10 100 24 1
11 11 100 24 0.957768
18 11 100 24 7.58351e-05
23 11 100 24 0.0421566
12 12 100 24 0.333333
13 12 100 24 0.166667
14 12 100 24 0.166667
15 12 100 24 0.166667
24 12 100 24 0.166667
7 13 100 24 0.5
13 13 100 24 0.5
8 14 100 24 0.666667
14 14 100 24 0.333333
9 15 100 24 0.999297
11 15 100 24 0.000623815
18 15 100 24 2.48951e-05
23 15 100 24 5.47095e-05
9 16 100 24 0.166667
10 16 100 24 0.333333
16 16 100 24 0.169846
19 16 100 24 0.330154
11 17 100 24 0.500152
20 17 100 24 0.499848
12 18 100 24 0.99973
20 18 100 24 0.000269542
13 19 100 24 0.5
16 19 100 24 0.490461
19 19 100 24 0.00953933
14 20 100 24 0.499988
15 20 100 24 0.500012
14 21 100 24 1.28282e-05
15 21 100 24 0.499988
21 21 100 24 0.499999
22 22 100 24 1
23 23 100 24 1
16 24 100 24 1.36708e-05
22 24 100 24 0.0145348
24 24 100 24 0.985452
3 25 100 24 0.333333
5 25 100 24 0.333333
17 25 100 24 0.333333
1 26 100 24 0.000903317
2 26 100 24 3.25032e-05
3 26 100 24 0.000440802
4 26 100 24 0.00116759
5 26 100 24 0.000441101
6 26 100 24 0.000217062
7 26 100 24 0.00431312
8 26 100 24 0.000252717
9 26 100 24 7.78274e-05
10 26 100 24 0.501446
11 26 100 24 0.00150797
12 26 100 24 3.63395e-05
13 26 100 24 0.000406684
14 26 100 24 8.89294e-05
15 26 100 24 0.00011252
16 26 100 24 0.000296016
17 26 100 24 0.0118121
18 26 100 24 0.0173624
19 26 100 24 0.00939118
20 26 100 24 0.000441101
21 26 100 24 0.00612986
22 26 100 24 0.0115193
23 26 100 24 0.43134
24 26 100 24 0.000263941
1 27 100 24 4.00027e-06
2 27 100 24 2.54516e-05
3 27 100 24 7.72573e-05
4 27 100 24 7.72573e-05
5 27 100 24 7.72573e-05
6 27 100 24 0.00124037
7 27 100 24 0.000757994
8 27 100 24 0.000495324
9 27 100 24 0.00110116
10 27 100 24 0.00641458
11 27 100 24 0.000154114
12 27 100 24 0.00016189
13 27 100 24 6.30465e-06
14 27 100 24 1.43187e-05
15 27 100 24 1.43187e-05
16 27 100 24 5.31013e-05
17 27 100 24 0.00195766
18 27 100 24 0.00203523
19 27 100 24 0.972204
20 27 100 24 7.72573e-05
21 27 100 24 0.00113141
22 27 100 24 0.00529267
23 27 100 24 0.00163907
24 27 100 24 0.00498802
1 28 100 24 3.62838e-05
2 28 100 24 4.05784e-05
3 28 100 24 0.000703479
4 28 100 24 0.000702091
5 28 100 24 0.000704278
6 28 100 24 0.000346682
7 28 100 24 0.00695042
8 28 100 24 3.77187e-05
9 28 100 24 6.92818e-05
10 28 100 24 4.87762e-05
11 28 100 24 1.68859e-05
12 28 100 24 3.80223e-05
13 28 100 24 5.71853e-05
14 28 100 24 0.000129875
15 28 100 24 0.000129875
16 28 100 24 0.000485175
17 28 100 24 0.0831662
18 28 100 24 0.756866
19 28 100 24 0.0163268
20 28 100 24 0.000704278
21 28 100 24 0.0103909
22 28 100 24 0.00743459
23 28 100 24 0.114204
24 28 100 24 0.000410887
1 29 100 24 1.00435e-05
2 29 100 24 0.0020716
3 29 100 24 0.000193971
4 29 100 24 0.000193971
5 29 100 24 0.000193971
6 29 100 24 9.59632e-05
7 29 100 24 0.00190583
8 29 100 24 1.04407e-05
9 29 100 24 1.91775e-05
10 29 100 24 1.35015e-05
11 29 100 24 4.67409e-06
12 29 100 24 1.05247e-05
13 29 100 24 1.58292e-05
14 29 100 24 3.59501e-05
15 29 100 24 3.59501e-05
16 29 100 24 0.000133322
17 29 100 24 0.00491313
18 29 100 24 0.00511325
19 29 100 24 0.00422658
20 29 100 24 0.000193971
21 29 100 24 0.657731
22 29 100 24 0.318647
23 29 100 24 0.00411722
24 29 100 24 0.000113339
1 30 100 24 3.7024e-05
2 30 100 24 4.14063e-05
3 30 100 24 0.000717729
4 30 100 24 0.000716365
5 30 100 24 0.000718327
6 30 100 24 0.000353755
7 30 100 24 0.00709771
8 30 100 24 3.84882e-05
9 30 100 24 7.06953e-05
10 30 100 24 4.97713e-05
11 30 100 24 1.72304e-05
12 30 100 24 3.8798e-05
13 30 100 24 5.8352e-05
14 30 100 24 0.000132525
15 30 100 24 0.000132525
16 30 100 24 0.000494755
17 30 100 24 0.813895
18 30 100 24 0.116164
19 30 100 24 0.0167321
20 30 100 24 0.000718327
21 30 100 24 0.0106049
22 30 100 24 0.00758647
23 30 100 24 0.0231647
24 30 100 24 0.000419344
1 31 100 24 0.000988083
2 31 100 24 0.00110798
3 31 100 24 0.791284
4 31 100 24 0.0419173
5 31 100 24 0.0416737
6 31 100 24 0.00985085
7 31 100 24 0.000974616
8 31 100 24 0.00102847
9 31 100 24 0.001894
10 31 100 24 0.0013295
11 31 100 24 0.000459837
12 31 100 24 0.00103542
13 31 100 24 0.00155727
14 31 100 24 0.00357194
15 31 100 24 0.00358018
16 31 100 24 0.0279717
17 31 100 24 0.00468849
18 31 100 24 0.00537344
19 31 100 24 0.00575483
20 31 100 24 0.0231664
21 31 100 24 0.00340186
22 31 100 24 0.00183657
23 31 100 24 0.0086316
24 31 100 24 0.016922
1 32 100 24 0.000409117
2 32 100 24 0.000459238
3 32 100 24 0.0101733
4 32 100 24 0.0090089
5 32 100 24 0.453956
6 32 100 24 0.00457552
7 32 100 24 0.000403542
8 32 100 24 0.000426033
9 32 100 24 0.000785322
10 32 100 24 0.000550666
11 32 100 24 0.000190396
12 32 100 24 0.00042872
13 32 100 24 0.000644792
14 32 100 24 0.00148471
15 32 100 24 0.00148996
16 32 100 24 0.443599
17 32 100 24 0.00194576
18 32 100 24 0.00222929
19 32 100 24 0.00238752
20 32 100 24 0.0540314
21 32 100 24 0.00140926
22 32 100 24 0.000761024
23 32 100 24 0.0035144
24 32 100 24 0.00513667
1 33 100 24 0.0020811
2 33 100 24 3.71141e-06
3 33 100 24 6.40924e-05
4 33 100 24 6.40924e-05
5 33 100 24 6.40924e-05
6 33 100 24 3.17085e-05
7 33 100 24 3.27339e-06
8 33 100 24 0.000414724
9 33 100 24 0.000955778
10 33 100 24 0.000479372
11 33 100 24 0.000127853
12 33 100 24 3.47762e-06
13 33 100 24 5.23032e-06
14 33 100 24 1.18787e-05
15 33 100 24 1.18787e-05
16 33 100 24 4.40527e-05
17 33 100 24 1.55857e-05
18 33 100 24 1.78142e-05
19 33 100 24 1.895e-05
20 33 100 24 6.40924e-05
21 33 100 24 1.14096e-05
22 33 100 24 6.15507e-06
23 33 100 24 2.72478e-05
24 33 100 24 0.995472
1 0 100 25 6.48735e-06
3 0 100 25 0.00113606
9 0 100 25 1.70297e-05
10 0 100 25 0.0287726
11 0 100 25 0.321216
12 0 100 25 0.32581
13 0 100 25 1.86566e-05
18 0 100 25 0.314732
22 0 100 25 0.00224461
24 0 100 25 4.77745e-05
25 0 100 25 0.00599885
1 1 100 25 1
2 2 100 25 1
3 3 100 25 0.00316197
4 3 100 25 0.536165
11 3 100 25 0.460673
5 4 100 25 1
15 5 100 25 1.32013e-05
24 5 100 25 0.333558
25 5 100 25 0.666429
4 6 100 25 0.00164441
6 6 100 25 0.99835
18 6 100 25 5.97841e-06
7 7 100 25 1
8 8 100 25 0.414316
13 8 100 25 0.335563
22 8 100 25 0.250122
8 9 100 25 0.435373
10 9 100 25 0.362229
13 9 100 25 0.200212
16 9 100 25 6.50516e-05
22 9 100 25 0.00212069
9 10 100 25 0.199998
11 10 100 25 0.1
12 10 100 25 0.1
14 10 100 25 0.199721
15 10 100 25 0.1
16 10 100 25 0.1
17 10 100 25 1.32808e-05
23 10 100 25 0.100266
24 10 100 25 0.1
10 11 100 25 0.205576
12 11 100 25 0.112836
14 11 100 25 0.113593
15 11 100 25 0.227177
17 11 100 25 0.113593
23 11 100 25 0.113593
24 11 100 25 0.113631
15 12 100 25 1.05714e-05
16 12 100 25 0.66634
21 12 100 25 0.33321
24 12 100 25 0.00043969
2 13 100 25 0.333333
14 13 100 25 0.000885098
17 13 100 25 0.341543
23 13 100 25 0.324239
3 14 100 25 1
4 15 100 25 0.209938
19 15 100 25 0.790062
4 16 100 25 0.128945
11 16 100 25 0.00315143
16 16 100 25 8.06784e-06
20 16 100 25 0.0292687
21 16 100 25 0.837374
24 16 100 25 0.00125264
16 17 100 25 9.34672e-06
20 17 100 25 0.999991
8 18 100 25 2.74086e-05
13 18 100 25 0.341449
14 18 100 25 4.38676e-05
17 18 100 25 0.322161
22 18 100 25 0.328183
23 18 100 25 0.0081359
18 19 100 25 1
9 20 100 25 0.499654
24 20 100 25 0.00137685
25 20 100 25 0.49897
19 21 100 25 1
4 22 100 25 1
9 23 100 25 2.1462e-05
22 23 100 25 0.999979
25 24 100 25 1
2 0 100 27 0.491993
4 0 100 27 1.63829e-05
5 0 100 27 0.492013
19 0 100 27 0.0159777
1 1 100 27 0.111111
3 1 100 27 0.111111
6 1 100 27 0.111111
7 1 100 27 0.111111
14 1 100 27 0.111111
16 1 100 27 0.111111
25 1 100 27 0.111111
26 1 100 27 0.111111
27 1 100 27 0.111111
20 2 100 27 1
5 3 100 27 1
9 4 100 27 1
11 5 100 27 1
12 6 100 27 1
13 7 100 27 1
13 8 100 27 1
4 9 100 27 0.111107
8 9 100 27 0.11111
10 9 100 27 0.111112
15 9 100 27 0.111112
18 9 100 27 0.111111
21 9 100 27 0.111112
22 9 100 27 0.111112
23 9 100 27 0.111112
24 9 100 27 0.111112
20 10 100 27 1
20 11 100 27 1
2 12 100 27 0.00037649
19 12 100 27 0.999623
20 13 100 27 1
17 14 100 27 1
1 15 100 27 0.0524488
3 15 100 27 0.0524488
4 15 100 27 0.0472444
6 15 100 27 0.0524488
7 15 100 27 0.0524488
8 15 100 27 0.0472443
9 15 100 27 0.0252828
10 15 100 27 0.0472443
14 15 100 27 0.0524488
15 15 100 27 0.0472443
16 15 100 27 0.0524488
17 15 100 27 0.0632274
18 15 100 27 0.0472443
20 15 100 27 0.0142521
21 15 100 27 0.0472443
22 15 100 27 0.0472443
23 15 100 27 0.0472443
24 15 100 27 0.0472443
25 15 100 27 0.0524488
26 15 100 27 0.0524488
27 15 100 27 0.0524488
2 16 100 27 1
3 0 100 28 2.07265e-05
6 0 100 28 0.0430169
10 0 100 28 0.000104184
11 0 100 28 0.231746
14 0 100 28 0.0183676
19 0 100 28 0.0127982
21 0 100 28 0.231837
22 0 100 28 0.230551
24 0 100 28 0.231398
25 0 100 28 0.000161069
1 1 100 28 0.201972
16 1 100 28 0.403945
17 1 100 28 0.394083
2 2 100 28 0.994285
4 2 100 28 3.15941e-05
8 2 100 28 0.00568359
3 3 100 28 0.333309
4 3 100 28 0.666691
2 4 100 28 3.81183e-05
4 4 100 28 0.331635
5 4 100 28 0.668295
8 4 100 28 3.19688e-05
5 5 100 28 0.33315
6 5 100 28 3.81091e-05
7 5 100 28 0.333148
8 5 100 28 0.33315
9 5 100 28 0.000513482
6 6 100 28 0.644852
9 6 100 28 0.354655
24 6 100 28 0.000493092
1 7 100 28 0.487979
8 7 100 28 0.487982
10 7 100 28 0.0240384
2 8 100 28 0.00614238
4 8 100 28 1.9596e-05
8 8 100 28 0.332471
10 8 100 28 0.661367
8 9 100 28 0.000814278
9 9 100 28 0.666124
11 9 100 28 0.333062
12 10 100 28 0.967771
16 10 100 28 0.000995556
19 10 100 28 0.031233
12 11 100 28 0.332657
13 11 100 28 0.667291
14 11 100 28 5.19548e-05
1 12 100 28 0.166656
3 12 100 28 0.166656
13 12 100 28 6.67814e-05
21 12 100 28 0.166656
23 12 100 28 0.166656
25 12 100 28 0.166656
26 12 100 28 0.166656
14 13 100 28 0.657498
18 13 100 28 0.342306
24 13 100 28 0.000195466
12 14 100 28 0.00017012
14 14 100 28 0.257867
15 14 100 28 0.25792
16 14 100 28 0.257389
19 14 100 28 0.226654
14 15 100 28 2.36279e-05
15 15 100 28 0.488073
17 15 100 28 0.511904
13 16 100 28 0.499889
19 16 100 28 0.500111
11 17 100 28 0.000667721
18 17 100 28 0.990856
21 17 100 28 9.25093e-05
22 17 100 28 0.0081336
26 17 100 28 0.000250232
15 18 100 28 0.5
20 18 100 28 0.5
6 19 100 28 0.333089
7 19 100 28 0.666911
3 20 100 28 0.332552
24 20 100 28 0.667448
19 21 100 28 1.10249e-05
23 21 100 28 0.332957
27 21 100 28 0.665913
28 21 100 28 0.00111902
18 22 100 28 0.0591711
19 22 100 28 1.79748e-05
22 22 100 28 0.187848
24 22 100 28 5.84943e-05
26 22 100 28 0.00688493
27 22 100 28 0.183244
28 22 100 28 0.562775
10 23 100 28 0.200777
11 23 100 28 0.200777
19 23 100 28 0.200777
25 23 100 28 0.397668
18 24 100 28 5.96343e-05
21 24 100 28 0.963036
25 24 100 28 0.0179697
26 24 100 28 0.0189344
18 25 100 28 0.000565069
26 25 100 28 0.986987
27 25 100 28 0.0124484
18 26 100 28 0.248697
19 26 100 28 0.000306751
20 26 100 28 0.500541
23 26 100 28 0.250271
28 26 100 28 0.000184151
18 27 100 28 0.00624749
22 27 100 28 0.993752
5 0 100 29 0.402166
11 0 100 29 0.215447
12 0 100 29 0.382331
13 0 100 29 4.56942e-05
24 0 100 29 5.81652e-06
28 0 100 29 4.31231e-06
1 1 100 29 1
2 2 100 29 0.999081
3 2 100 29 0.000918781
3 3 100 29 0.666462
9 3 100 29 0.333538
5 4 100 29 4.04292e-05
6 4 100 29 0.99996
7 5 100 29 1
8 6 100 29 1
9 7 100 29 0.69614
11 7 100 29 0.30386
4 8 100 29 9.64053e-06
14 8 100 29 0.99999
11 9 100 29 0.908539
13 9 100 29 0.091461
13 10 100 29 1
17 11 100 29 1
4 12 100 29 0.885226
14 12 100 29 0.114659
28 12 100 29 0.000115574
10 13 100 29 0.108116
12 13 100 29 0.108114
14 13 100 29 0.0269604
15 13 100 29 0.108116
16 13 100 29 0.108116
18 13 100 29 0.108116
20 13 100 29 0.108116
23 13 100 29 0.108116
26 13 100 29 0.108116
29 13 100 29 0.108116
13 14 100 29 0.000803602
27 14 100 29 0.999196
6 15 100 29 1
18 16 100 29 0.499712
21 16 100 29 6.61223e-06
22 16 100 29 0.500282
19 17 100 29 1
13 18 100 29 1.1339e-05
24 18 100 29 0.999989
21 19 100 29 1
22 20 100 29 1
28 21 100 29 1
18 22 100 29 1
25 23 100 29 1
4 24 100 29 1
10 25 100 29 0.125
15 25 100 29 0.125
16 25 100 29 0.125
17 25 100 29 0.125
20 25 100 29 0.125
23 25 100 29 0.125
26 25 100 29 0.125
29 25 100 29 0.125
5 26 100 29 1
6 0 100 30 0.350147
8 0 100 30 0.311127
16 0 100 30 0.335989
25 0 100 30 0.00165073
27 0 100 30 0.00108601
1 1 100 30 0.99904
2 1 100 30 0.000960284
1 2 100 30 5.95472e-06
2 2 100 30 0.999994
2 3 100 30 0.00699757
3 3 100 30 0.993002
4 4 100 30 1
27 5 100 30 1
6 6 100 30 1
5 7 100 30 0.000282441
7 7 100 30 0.488068
8 7 100 30 0.0222041
9 7 100 30 0.489446
10 8 100 30 1
5 9 100 30 0.399676
7 9 100 30 0.200496
9 9 100 30 0.199933
29 9 100 30 0.199895
8 10 100 30 0.0999831
10 10 100 30 0.861196
16 10 100 30 0.0388214
30 11 100 30 1
21 12 100 30 1
17 13 100 30 1
21 14 100 30 0.000296341
30 14 100 30 0.999704
11 15 100 30 0.125556
12 15 100 30 0.125556
13 15 100 30 0.125556
14 15 100 30 0.125556
15 15 100 30 0.125556
18 15 100 30 0.125555
22 15 100 30 0.125534
23 15 100 30 0.121132
20 16 100 30 1
8 17 100 30 0.484838
17 17 100 30 0.00726147
19 17 100 30 0.507901
21 18 100 30 0.0104908
30 18 100 30 0.989509
19 19 100 30 1
11 20 100 30 0.124449
12 20 100 30 0.124449
13 20 100 30 0.124449
14 20 100 30 0.124449
15 20 100 30 0.124449
18 20 100 30 0.12445
22 20 100 30 0.12447
23 20 100 30 0.128834
25 21 100 30 1
24 22 100 30 0.499999
26 22 100 30 0.500001
24 23 100 30 0.506935
25 23 100 30 0.493065
27 24 100 30 0.505913
28 24 100 30 0.494087
27 25 100 30 0.0194809
29 25 100 30 0.980519
28 26 100 30 0.493562
29 26 100 30 0.00091128
30 26 100 30 0.505526
26 27 100 30 1
28 28 100 30 1
16 29 100 30 1
9 0 100 32 0.0408451
12 0 100 32 0.803032
19 0 100 32 0.150344
20 0 100 32 0.005541
31 0 100 32 0.000237955
32 1 100 32 1
31 2 100 32 1
2 3 100 32 0.125
3 3 100 32 1.83154e-05
4 3 100 32 0.124983
6 3 100 32 0.125
8 3 100 32 0.125
10 3 100 32 0.125
21 3 100 32 0.124997
22 3 100 32 0.125
23 3 100 32 0.125
4 4 100 32 0.0392175
18 4 100 32 0.960782
5 5 100 32 1
7 6 100 32 1
9 7 100 32 1
29 8 100 32 1
12 9 100 32 0.332476
19 9 100 32 0.667524
12 10 100 32 0.516759
19 10 100 32 0.483241
9 11 100 32 1
2 12 100 32 0.111111
4 12 100 32 0.111111
6 12 100 32 0.111111
8 12 100 32 0.111111
10 12 100 32 0.111111
18 12 100 32 0.111111
21 12 100 32 0.111111
22 12 100 32 0.111111
23 12 100 32 0.111111
18 13 100 32 1
30 14 100 32 1
20 15 100 32 1
12 16 100 32 0.00515272
19 16 100 32 0.994847
20 17 100 32 1
20 18 100 32 1
1 19 100 32 0.045298
2 19 100 32 0.0549341
4 19 100 32 0.0549341
6 19 100 32 0.0549341
7 19 100 32 0.0414409
8 19 100 32 0.0549341
10 19 100 32 0.0549341
11 19 100 32 0.0453606
13 19 100 32 0.0452983
14 19 100 32 0.045298
15 19 100 32 0.0452985
17 19 100 32 0.045298
18 19 100 32 0.0549341
21 19 100 32 0.0549341
22 19 100 32 0.0549341
23 19 100 32 0.0549341
24 19 100 32 0.045298
25 19 100 32 0.045298
28 19 100 32 0.045298
29 19 100 32 0.0167839
30 19 100 32 0.0159849
32 19 100 32 0.0236377
18 20 100 32 0.997361
21 20 100 32 0.00263936
26 21 100 32 0.499999
27 21 100 32 0.500001
1 22 100 32 0.0401174
2 22 100 32 0.0709811
4 22 100 32 0.0709811
6 22 100 32 0.0709811
8 22 100 32 0.0709811
10 22 100 32 0.0709811
11 22 100 32 0.0402295
13 22 100 32 0.040118
14 22 100 32 0.0401174
15 22 100 32 0.0401183
17 22 100 32 0.0401174
18 22 100 32 0.0709811
21 22 100 32 0.0709811
22 22 100 32 0.0709811
23 22 100 32 0.0709811
24 22 100 32 0.0401174
25 22 100 32 0.0401174
28 22 100 32 0.0401174
3 23 100 32 1
4 24 100 32 0.000667204
18 24 100 32 0.999333
18 25 100 32 1
16 26 100 32 1
1 27 100 32 0.111111
11 27 100 32 0.111111
13 27 100 32 0.111111
14 27 100 32 0.111111
15 27 100 32 0.111111
17 27 100 32 0.111111
24 27 100 32 0.111111
25 27 100 32 0.111111
28 27 100 32 0.111111
18 28 100 32 1
1 29 100 32 0.0419367
2 29 100 32 0.0447911
4 29 100 32 0.0447911
6 29 100 32 0.0447911
8 29 100 32 0.0447911
10 29 100 32 0.0447911
11 29 100 32 0.0419367
13 29 100 32 0.0419367
14 29 100 32 0.0419367
15 29 100 32 0.0419367
16 29 100 32 0.0362697
17 29 100 32 0.0419367
18 29 100 32 0.0447911
21 29 100 32 0.0447911
22 29 100 32 0.0447911
23 29 100 32 0.0447911
24 29 100 32 0.0419367
25 29 100 32 0.0419367
27 29 100 32 0.00759153
28 29 100 32 0.0419367
29 29 100 32 0.0542553
30 29 100 32 0.0570814
31 29 100 32 0.00416643
32 29 100 32 0.0600854
9 30 100 32 1
9 31 100 32 1
8 0 100 33 0.972467
13 0 100 33 0.0185372
15 0 100 33 0.00867066
17 0 100 33 0.000217129
22 0 100 33 0.000108108
1 1 100 33 1
4 2 100 33 1
8 3 100 33 0.578283
13 3 100 33 0.421717
8 4 100 33 0.990389
13 4 100 33 0.00961059
7 5 100 33 0.199997
9 5 100 33 0.200004
10 5 100 33 0.200009
11 5 100 33 0.200003
31 5 100 33 0.199986
7 6 100 33 0.228113
9 6 100 33 0.0913357
11 6 100 33 0.116828
17 6 100 33 0.105755
31 6 100 33 0.457969
5 7 100 33 0.166665
6 7 100 33 0.166665
16 7 100 33 0.166665
17 7 100 33 8.64498e-06
21 7 100 33 0.166665
32 7 100 33 0.166665
33 7 100 33 0.166665
17 8 100 33 1
4 9 100 33 0.990564
17 9 100 33 0.0094357
4 10 100 33 0.990564
17 10 100 33 0.0094357
4 11 100 33 0.990564
17 11 100 33 0.0094357
4 12 100 33 0.990564
17 12 100 33 0.0094357
17 13 100 33 1
4 14 100 33 0.990564
17 14 100 33 0.0094357
4 15 100 33 0.990564
17 15 100 33 0.0094357
17 16 100 33 1
4 17 100 33 0.990564
17 17 100 33 0.0094357
12 18 100 33 1
8 19 100 33 0.000195359
13 19 100 33 0.999805
14 20 100 33 1
15 21 100 33 1
18 22 100 33 1
2 23 100 33 0.116409
4 23 100 33 0.124584
5 23 100 33 0.124584
6 23 100 33 0.124584
10 23 100 33 0.0115031
16 23 100 33 0.124584
21 23 100 33 0.124584
32 23 100 33 0.124584
33 23 100 33 0.124584
19 24 100 33 1
19 25 100 33 0.00219952
20 25 100 33 0.9978
22 26 100 33 1
22 27 100 33 1
23 28 100 33 1
24 29 100 33 1
25 30 100 33 1
26 31 100 33 1
27 32 100 33 0.5
28 32 100 33 0.5
17 33 100 33 1
18 34 100 33 0.936348
20 34 100 33 0.0636517
1 35 100 33 4.2116e-05
2 35 100 33 8.45684e-05
3 35 100 33 5.47144e-05
4 35 100 33 8.45684e-05
5 35 100 33 8.45684e-05
6 35 100 33 8.45684e-05
7 35 100 33 5.68178e-05
8 35 100 33 0.000100447
9 35 100 33 5.68178e-05
10 35 100 33 6.0142e-05
11 35 100 33 5.68178e-05
12 35 100 33 4.82547e-05
13 35 100 33 0.000100447
14 35 100 33 6.77163e-05
15 35 100 33 0.000157939
16 35 100 33 8.45684e-05
17 35 100 33 0.00161503
18 35 100 33 0.0047769
19 35 100 33 0.00144915
20 35 100 33 0.00394033
21 35 100 33 8.45684e-05
22 35 100 33 0.0157703
23 35 100 33 1.64101e-05
24 35 100 33 1.64101e-05
25 35 100 33 9.08882e-06
26 35 100 33 1.64101e-05
27 35 100 33 1.64101e-05
28 35 100 33 1.64101e-05
29 35 100 33 0.965782
30 35 100 33 4.14555e-05
31 35 100 33 0.00505528
32 35 100 33 8.45684e-05
33 35 100 33 8.45684e-05
1 36 100 33 0.000135599
2 36 100 33 0.000272281
3 36 100 33 0.000176162
4 36 100 33 0.000272281
5 36 100 33 0.000272281
6 36 100 33 0.000272281
7 36 100 33 0.000182934
8 36 100 33 6.55428e-06
9 36 100 33 0.000182934
10 36 100 33 0.000193637
11 36 100 33 0.000182934
12 36 100 33 0.000155364
13 36 100 33 6.55428e-06
14 36 100 33 0.000218023
15 36 100 33 0.00330158
16 36 100 33 0.000272281
17 36 100 33 0.00909106
18 36 100 33 0.00609909
19 36 100 33 0.00841675
20 36 100 33 0.00302311
21 36 100 33 0.000272281
22 36 100 33 0.000184034
23 36 100 33 5.28348e-05
24 36 100 33 5.28348e-05
25 36 100 33 2.92629e-05
26 36 100 33 5.28348e-05
27 36 100 33 5.28348e-05
28 36 100 33 5.28348e-05
29 36 100 33 0.000114596
30 36 100 33 0.965687
31 36 100 33 0.000170211
32 36 100 33 0.000272281
33 36 100 33 0.000272281
1 37 100 33 0.00477938
2 37 100 33 0.0105692
3 37 100 33 0.813476
4 37 100 33 0.0158695
5 37 100 33 0.011569
6 37 100 33 0.011569
7 37 100 33 0.00650256
8 37 100 33 0.000230825
9 37 100 33 0.00650256
10 37 100 33 0.00691947
11 37 100 33 0.00650256
12 37 100 33 0.00576417
13 37 100 33 0.000230825
14 37 100 33 0.00768952
15 37 100 33 0.000406481
16 37 100 33 0.011569
17 37 100 33 0.00589768
18 37 100 33 0.00325181
19 37 100 33 0.00272421
20 37 100 33 0.00162532
21 37 100 33 0.011569
22 37 100 33 0.00649871
23 37 100 33 0.00186494
24 37 100 33 0.00186494
25 37 100 33 0.00103056
26 37 100 33 0.00186494
27 37 100 33 0.00186494
28 37 100 33 0.00186494
29 37 100 33 0.00403751
30 37 100 33 0.0047035
31 37 100 33 0.00604885
32 37 100 33 0.011569
33 37 100 33 0.011569
1 38 100 33 0.00782145
2 38 100 33 0.0171388
3 38 100 33 0.0620823
4 38 100 33 0.661256
5 38 100 33 0.0185507
6 38 100 33 0.0185507
7 38 100 33 0.0106325
8 38 100 33 0.000377776
9 38 100 33 0.0106325
10 38 100 33 0.0113083
11 38 100 33 0.0106325
12 38 100 33 0.00901937
13 38 100 33 0.000377776
14 38 100 33 0.0125831
15 38 100 33 0.000665259
16 38 100 33 0.0185507
17 38 100 33 0.00975457
18 38 100 33 0.00552259
19 38 100 33 0.00445806
20 38 100 33 0.00266004
21 38 100 33 0.0185507
22 38 100 33 0.0106332
23 38 100 33 0.00305154
24 38 100 33 0.00305154
25 38 100 33 0.00168665
26 38 100 33 0.00305154
27 38 100 33 0.00305154
28 38 100 33 0.00305154
29 38 100 33 0.00660764
30 38 100 33 0.00769741
31 38 100 33 0.00989085
32 38 100 33 0.0185507
33 38 100 33 0.0185507
1 39 100 33 0.0030202
2 39 100 33 0.888987
3 39 100 33 0.00392809
4 39 100 33 0.00729385
5 39 100 33 0.00729385
6 39 100 33 0.00729385
7 39 100 33 0.00410315
8 39 100 33 0.000145878
9 39 100 33 0.00410315
10 39 100 33 0.00436217
11 39 100 33 0.00410315
12 39 100 33 0.00346129
13 39 100 33 0.000145878
14 39 100 33 0.00485881
15 39 100 33 0.00025689
16 39 100 33 0.00729385
17 39 100 33 0.00269717
18 39 100 33 0.00203286
19 39 100 33 0.00172144
20 39 100 33 0.00102718
21 39 100 33 0.00729385
22 39 100 33 0.00410587
23 39 100 33 0.00117829
24 39 100 33 0.00117829
25 39 100 33 0.000651302
26 39 100 33 0.00117829
27 39 100 33 0.00117829
28 39 100 33 0.00117829
29 39 100 33 0.00255152
30 39 100 33 0.00297232
31 39 100 33 0.00381713
32 39 100 33 0.00729385
33 39 100 33 0.00729385
1 40 100 33 0.000230634
2 40 100 33 0.000471822
3 40 100 33 0.000299626
4 40 100 33 0.000472423
5 40 100 33 0.000472423
6 40 100 33 0.000472423
7 40 100 33 0.000311144
8 40 100 33 1.11479e-05
9 40 100 33 0.000311144
10 40 100 33 0.000329348
11 40 100 33 0.000311144
12 40 100 33 0.000264251
13 40 100 33 1.11479e-05
14 40 100 33 0.000370826
15 40 100 33 1.96313e-05
16 40 100 33 0.000472423
17 40 100 33 0.00020424
18 40 100 33 0.000154945
19 40 100 33 0.000131426
20 40 100 33 7.84959e-05
21 40 100 33 0.000472423
22 40 100 33 0.991971
23 40 100 33 8.98643e-05
24 40 100 33 8.98643e-05
25 40 100 33 4.97719e-05
26 40 100 33 8.98643e-05
27 40 100 33 8.98643e-05
28 40 100 33 8.98643e-05
29 40 100 33 0.000194912
30 40 100 33 0.000227017
31 40 100 33 0.000289504
32 40 100 33 0.000472423
33 40 100 33 0.000472423
7 0 100 35 0.487488
32 0 100 35 0.512512
1 1 100 35 6.1603e-05
2 1 100 35 6.1603e-05
3 1 100 35 5.21746e-05
4 1 100 35 6.1603e-05
6 1 100 35 5.51705e-05
7 1 100 35 0.490519
8 1 100 35 5.51705e-05
9 1 100 35 6.1603e-05
10 1 100 35 6.1603e-05
11 1 100 35 0.0062217
12 1 100 35 6.1603e-05
13 1 100 35 6.1603e-05
15 1 100 35 6.1603e-05
16 1 100 35 6.1603e-05
17 1 100 35 6.1603e-05
18 1 100 35 6.1603e-05
19 1 100 35 6.1603e-05
20 1 100 35 6.1603e-05
21 1 100 35 6.16166e-05
22 1 100 35 6.1603e-05
23 1 100 35 6.17244e-05
24 1 100 35 6.1603e-05
25 1 100 35 6.1603e-05
26 1 100 35 6.1603e-05
27 1 100 35 0.00892996
28 1 100 35 0.00112566
29 1 100 35 6.1603e-05
30 1 100 35 6.1603e-05
31 1 100 35 6.1603e-05
32 1 100 35 0.490519
33 1 100 35 6.1603e-05
34 1 100 35 0.00104319
35 1 100 35 6.18972e-05
7 2 100 35 0.419291
32 2 100 35 0.580709
35 3 100 35 1
3 4 100 35 1
7 5 100 35 0.535772
32 5 100 35 0.464228
5 6 100 35 1
1 7 100 35 0.124776
2 7 100 35 0.124776
4 7 100 35 0.124776
13 7 100 35 0.124776
18 7 100 35 0.124776
19 7 100 35 0.124776
26 7 100 35 0.124776
29 7 100 35 0.00178995
33 7 100 35 0.124775
21 8 100 35 1
7 9 100 35 0.920537
32 9 100 35 0.0794631
6 10 100 35 0.499996
8 10 100 35 0.500004
9 11 100 35 1
10 12 100 35 1
10 13 100 35 1
11 14 100 35 1
12 15 100 35 1
14 16 100 35 1
9 17 100 35 0.520238
10 17 100 35 0.00883408
12 17 100 35 0.470928
9 18 100 35 0.520238
10 18 100 35 0.00883408
12 18 100 35 0.470928
20 19 100 35 1
34 20 100 35 1
35 21 100 35 1
35 22 100 35 1
35 23 100 35 1
15 24 100 35 0.166667
16 24 100 35 0.166667
17 24 100 35 0.166667
24 24 100 35 0.166667
25 24 100 35 0.166667
30 24 100 35 0.166667
23 25 100 35 1
22 26 100 35 1
9 27 100 35 0.738891
12 27 100 35 0.261109
35 28 100 35 1
31 29 100 35 1
1 30 100 35 0.0415258
2 30 100 35 0.0415258
4 30 100 35 0.0415258
9 30 100 35 0.0695853
10 30 100 35 0.0695853
12 30 100 35 0.0695853
13 30 100 35 0.0415258
15 30 100 35 0.0695853
16 30 100 35 0.0695853
17 30 100 35 0.0695853
18 30 100 35 0.0415258
19 30 100 35 0.0415258
24 30 100 35 0.0695853
25 30 100 35 0.0695853
26 30 100 35 0.0415258
29 30 100 35 0.0415258
30 30 100 35 0.0695853
33 30 100 35 0.0415258
27 31 100 35 1
28 32 100 35 1
9 33 100 35 0.834516
10 33 100 35 0.0240748
12 33 100 35 0.141409
9 34 100 35 0.834516
10 34 100 35 0.0240748
12 34 100 35 0.141409
35 35 100 35 1
9 36 100 35 0.834516
10 36 100 35 0.0240748
12 36 100 35 0.141409
1 37 100 35 0.016237
2 37 100 35 0.0162312
3 37 100 35 0.00875974
4 37 100 35 0.0162521
5 37 100 35 0.00240323
6 37 100 35 0.00850631
7 37 100 35 0.000799637
8 37 100 35 0.00850631
9 37 100 35 0.0202256
10 37 100 35 0.018217
11 37 100 35 0.0035741
12 37 100 35 0.0180824
13 37 100 35 0.0162433
14 37 100 35 0.00515243
15 37 100 35 0.0176743
16 37 100 35 0.0176743
17 37 100 35 0.0176743
18 37 100 35 0.0162303
19 37 100 35 0.0162329
20 37 100 35 0.015787
21 37 100 35 0.0157855
22 37 100 35 0.015787
23 37 100 35 0.0148471
24 37 100 35 0.0176743
25 37 100 35 0.0176743
26 37 100 35 0.0163761
27 37 100 35 0.00559274
28 37 100 35 0.00872087
29 37 100 35 0.441373
30 37 100 35 0.0176743
31 37 100 35 0.015787
32 37 100 35 0.000799637
33 37 100 35 0.0164074
34 37 100 35 0.0157869
35 37 100 35 0.119251
1 38 100 35 5.95655e-05
2 38 100 35 5.95655e-05
3 38 100 35 0.00188137
4 38 100 35 5.95655e-05
5 38 100 35 9.48259e-06
6 38 100 35 3.35639e-05
7 38 100 35 0.479555
8 38 100 35 3.35639e-05
9 38 100 35 5.95655e-05
10 38 100 35 5.95655e-05
11 38 100 35 0.00487657
12 38 100 35 5.95655e-05
13 38 100 35 5.95655e-05
14 38 100 35 0.00633565
15 38 100 35 5.95655e-05
16 38 100 35 5.95655e-05
17 38 100 35 5.95655e-05
18 38 100 35 5.95655e-05
19 38 100 35 5.95655e-05
20 38 100 35 5.95655e-05
21 38 100 35 5.95596e-05
22 38 100 35 5.95655e-05
23 38 100 35 5.42249e-05
24 38 100 35 5.95655e-05
25 38 100 35 5.95655e-05
26 38 100 35 5.95655e-05
27 38 100 35 2.20676e-05
28 38 100 35 0.00537153
29 38 100 35 5.95655e-05
30 38 100 35 5.95655e-05
31 38 100 35 5.95655e-05
32 38 100 35 0.478324
33 38 100 35 5.95655e-05
34 38 100 35 5.95654e-05
35 38 100 35 0.0221326
1 39 100 35 0.00583946
2 39 100 35 0.00583946
3 39 100 35 0.00338844
4 39 100 35 0.00583946
5 39 100 35 0.000929619
6 39 100 35 0.00329041
7 39 100 35 0.41739
8 39 100 35 0.00329041
9 39 100 35 0.00583946
10 39 100 35 0.00583946
11 39 100 35 0.00138253
12 39 100 35 0.00583946
13 39 100 35 0.00583946
14 39 100 35 0.00199306
15 39 100 35 0.00583946
16 39 100 35 0.00583946
17 39 100 35 0.00583946
18 39 100 35 0.00583946
19 39 100 35 0.00583946
20 39 100 35 0.00583946
21 39 100 35 0.00583888
22 39 100 35 0.00583946
23 39 100 35 0.0053159
24 39 100 35 0.00583946
25 39 100 35 0.00583946
26 39 100 35 0.00583946
27 39 100 35 0.00216339
28 39 100 35 0.00337341
29 39 100 35 0.00583946
30 39 100 35 0.00583946
31 39 100 35 0.00583946
32 39 100 35 0.417671
33 39 100 35 0.00583946
34 39 100 35 0.00583945
35 39 100 35 0.00550466
1 40 100 35 0.0352234
2 40 100 35 0.0352234
3 40 100 35 0.020439
4 40 100 35 0.0352234
5 40 100 35 0.00560742
6 40 100 35 0.0198476
7 40 100 35 0.00186578
8 40 100 35 0.0198476
9 40 100 35 0.0352234
10 40 100 35 0.0352234
11 40 100 35 0.00833938
12 40 100 35 0.0352234
13 40 100 35 0.0352234
14 40 100 35 0.0120221
15 40 100 35 0.0352234
16 40 100 35 0.0352234
17 40 100 35 0.0352234
18 40 100 35 0.0352234
19 40 100 35 0.0352234
20 40 100 35 0.0352234
21 40 100 35 0.0352199
22 40 100 35 0.0352234
23 40 100 35 0.0320653
24 40 100 35 0.0352234
25 40 100 35 0.0352234
26 40 100 35 0.0352234
27 40 100 35 0.0130495
28 40 100 35 0.0203483
29 40 100 35 0.0352234
30 40 100 35 0.0352234
31 40 100 35 0.0352234
32 40 100 35 0.00186578
33 40 100 35 0.0352234
34 40 100 35 0.0352233
35 40 100 35 0.0345675
1 41 100 35 0.000798161
2 41 100 35 0.000798161
3 41 100 35 0.000463146
4 41 100 35 0.000798161
5 41 100 35 0.000127064
6 41 100 35 0.000449747
7 41 100 35 0.132587
8 41 100 35 0.000449747
9 41 100 35 0.000798161
10 41 100 35 0.000798161
11 41 100 35 0.00018897
12 41 100 35 0.000798161
13 41 100 35 0.000798161
14 41 100 35 0.71259
15 41 100 35 0.000798161
16 41 100 35 0.000798161
17 41 100 35 0.000798161
18 41 100 35 0.000798161
19 41 100 35 0.000798161
20 41 100 35 0.000798161
21 41 100 35 0.000798082
22 41 100 35 0.000798161
23 41 100 35 0.000726598
24 41 100 35 0.000798161
25 41 100 35 0.000798161
26 41 100 35 0.000798161
27 41 100 35 0.0002957
28 41 100 35 0.000461091
29 41 100 35 0.000798161
30 41 100 35 0.000798161
31 41 100 35 0.000798161
32 41 100 35 0.132551
33 41 100 35 0.000798161
34 41 100 35 0.00079816
35 41 100 35 0.000752399
1 0 100 38 0.00231222
7 0 100 38 0.858891
16 0 100 38 0.0088527
19 0 100 38 0.0334965
28 0 100 38 0.0930263
30 0 100 38 0.00342081
1 1 100 38 0.999821
19 1 100 38 0.000178973
2 2 100 38 0.755678
16 2 100 38 0.0922557
28 2 100 38 0.152066
6 3 100 38 1
1 4 100 38 0.179609
7 4 100 38 0.76786
19 4 100 38 0.049258
30 4 100 38 0.00327209
3 5 100 38 0.499955
4 5 100 38 0.499984
14 5 100 38 6.05929e-05
5 6 100 38 0.99487
12 6 100 38 0.00202039
15 6 100 38 0.000103253
24 6 100 38 0.00300671
2 7 100 38 0.111111
8 7 100 38 0.111111
13 7 100 38 0.111111
18 7 100 38 0.111111
21 7 100 38 0.111111
22 7 100 38 0.111111
25 7 100 38 0.111111
29 7 100 38 0.111111
34 7 100 38 0.111111
7 8 100 38 1
23 9 100 38 1
9 10 100 38 1
10 11 100 38 1
35 12 100 38 1
12 13 100 38 0.030296
24 13 100 38 0.969704
3 14 100 38 0.755826
4 14 100 38 0.0977313
14 14 100 38 0.146443
28 15 100 38 1
36 16 100 38 1
11 17 100 38 1
12 18 100 38 0.155458
15 18 100 38 0.843637
24 18 100 38 0.000904212
16 19 100 38 1
1 20 100 38 0.230339
11 20 100 38 0.308984
19 20 100 38 0.230339
30 20 100 38 0.230339
17 21 100 38 1
1 22 100 38 0.000250987
19 22 100 38 0.999007
30 22 100 38 0.000741766
19 23 100 38 1
1 24 100 38 0.333333
19 24 100 38 0.333333
30 24 100 38 0.333333
1 25 100 38 3.10703e-05
19 25 100 38 0.999732
30 25 100 38 0.000237226
37 26 100 38 1
19 27 100 38 0.0001522
30 27 100 38 0.999848
1 28 100 38 0.05388
19 28 100 38 0.05388
23 28 100 38 0.83836
30 28 100 38 0.05388
12 29 100 38 0.00998401
15 29 100 38 0.002275
24 29 100 38 0.987741
30 30 100 38 1
31 31 100 38 1
26 32 100 38 1
27 33 100 38 1
28 34 100 38 1
2 35 100 38 0.0875387
6 35 100 38 0.0188115
8 35 100 38 0.0872602
13 35 100 38 0.0872602
18 35 100 38 0.0872602
20 35 100 38 0.0432386
21 35 100 38 0.0873079
22 35 100 38 0.0872602
25 35 100 38 0.0872602
29 35 100 38 0.0872601
31 35 100 38 0.0188152
34 35 100 38 0.0872602
35 35 100 38 0.0276707
36 35 100 38 0.0265878
37 35 100 38 0.017868
38 35 100 38 0.06134
5 36 100 38 5.94186e-05
12 36 100 38 0.00603784
15 36 100 38 0.000202263
24 36 100 38 0.993701
1 37 100 38 0.00471616
19 37 100 38 0.487728
30 37 100 38 0.507556
1 38 100 38 0.261029
19 38 100 38 0.261029
30 38 100 38 0.261029
31 38 100 38 0.216912
32 39 100 38 1
1 40 100 38 0.000465728
2 40 100 38 1.5526e-05
3 40 100 38 1.04321e-05
4 40 100 38 1.17326e-05
5 40 100 38 1.08413e-05
6 40 100 38 1.57772e-05
7 40 100 38 0.000272987
8 40 100 38 1.57772e-05
9 40 100 38 9.14972e-06
10 40 100 38 4.15037e-06
11 40 100 38 9.15091e-06
12 40 100 38 1.08413e-05
13 40 100 38 1.57772e-05
14 40 100 38 1.17326e-05
15 40 100 38 1.08413e-05
16 40 100 38 0.000107326
17 40 100 38 0.000626032
18 40 100 38 1.57764e-05
19 40 100 38 0.000465728
20 40 100 38 1.57772e-05
21 40 100 38 0.000235034
22 40 100 38 1.57772e-05
23 40 100 38 8.61965e-06
24 40 100 38 1.08413e-05
25 40 100 38 1.57772e-05
26 40 100 38 9.34146e-06
27 40 100 38 1.17326e-05
28 40 100 38 0.000107326
29 40 100 38 1.57772e-05
30 40 100 38 0.000465728
31 40 100 38 1.56672e-05
32 40 100 38 8.32435e-06
33 40 100 38 0.99688
34 40 100 38 1.57772e-05
35 40 100 38 1.57772e-05
36 40 100 38 1.57772e-05
37 40 100 38 1.57772e-05
38 40 100 38 1.57772e-05
1 41 100 38 0.0020623
2 41 100 38 1.24371e-05
3 41 100 38 9.94184e-06
4 41 100 38 9.39839e-06
5 41 100 38 8.68436e-06
6 41 100 38 1.26383e-05
7 41 100 38 0.00124637
8 41 100 38 1.26383e-05
9 41 100 38 0.0023104
10 41 100 38 0.00100711
11 41 100 38 9.92916e-06
12 41 100 38 8.68436e-06
13 41 100 38 1.26383e-05
14 41 100 38 9.39839e-06
15 41 100 38 8.68436e-06
16 41 100 38 0.49306
17 41 100 38 8.91987e-06
18 41 100 38 1.26376e-05
19 41 100 38 0.0020623
20 41 100 38 1.26383e-05
21 41 100 38 1.23747e-05
22 41 100 38 1.26383e-05
23 41 100 38 9.0756e-06
24 41 100 38 8.68436e-06
25 41 100 38 1.26383e-05
26 41 100 38 9.39373e-06
27 41 100 38 9.39839e-06
28 41 100 38 0.494632
29 41 100 38 1.26383e-05
30 41 100 38 0.0020623
31 41 100 38 1.25502e-05
32 41 100 38 0.00123663
33 41 100 38 8.45709e-06
34 41 100 38 1.26383e-05
35 41 100 38 1.26383e-05
36 41 100 38 1.26383e-05
37 41 100 38 1.26383e-05
38 41 100 38 1.26383e-05
1 42 100 38 0.000103656
2 42 100 38 0.0107019
3 42 100 38 0.00699207
4 42 100 38 0.00792246
5 42 100 38 0.0295637
6 42 100 38 0.0109137
7 42 100 38 0.0001478
8 42 100 38 0.0108698
9 42 100 38 0.00613632
10 42 100 38 0.00277306
11 42 100 38 0.00613995
12 42 100 38 0.574479
13 42 100 38 0.0108698
14 42 100 38 0.00792246
15 42 100 38 0.101481
16 42 100 38 0.000116895
17 42 100 38 0.00486068
18 42 100 38 0.0108692
19 42 100 38 0.000103656
20 42 100 38 0.0109167
21 42 100 38 0.0106498
22 42 100 38 0.0108698
23 42 100 38 0.00575919
24 42 100 38 0.0470577
25 42 100 38 0.0108698
26 42 100 38 0.00624147
27 42 100 38 0.00792246
28 42 100 38 0.000116895
29 42 100 38 0.0108698
30 42 100 38 0.000103656
31 42 100 38 0.0108402
32 42 100 38 0.00556188
33 42 100 38 0.00459842
34 42 100 38 0.0108698
35 42 100 38 0.0109402
36 42 100 38 0.0109544
37 42 100 38 0.0109334
38 42 100 38 0.0109582
1 43 100 38 0.00011827
2 43 100 38 0.0124284
3 43 100 38 0.0081525
4 43 100 38 0.0094914
5 43 100 38 0.0096172
6 43 100 38 0.0125447
7 43 100 38 0.000168638
8 43 100 38 0.0126222
9 43 100 38 0.00701224
10 43 100 38 0.00316403
11 43 100 38 0.0123452
12 43 100 38 0.0130637
13 43 100 38 0.0126222
14 43 100 38 0.662374
15 43 100 38 0.0108714
16 43 100 38 4.68976e-05
17 43 100 38 0.00554598
18 43 100 38 0.0126215
19 43 100 38 0.00011827
20 43 100 38 0.0125937
21 43 100 38 0.0123677
22 43 100 38 0.0126222
23 43 100 38 0.00657117
24 43 100 38 0.0218502
25 43 100 38 0.0126222
26 43 100 38 0.00712144
27 43 100 38 0.00940614
28 43 100 38 4.68976e-05
29 43 100 38 0.0126222
30 43 100 38 0.00011827
31 43 100 38 0.0124606
32 43 100 38 0.00634605
33 43 100 38 0.00524674
34 43 100 38 0.0126222
35 43 100 38 0.0125958
36 43 100 38 0.0126103
37 43 100 38 0.0125674
38 43 100 38 0.01268
1 44 100 38 4.85842e-05
2 44 100 38 0.00529625
3 44 100 38 0.00328401
4 44 100 38 0.00373907
5 44 100 38 0.00346315
6 44 100 38 0.00540023
7 44 100 38 6.92751e-05
8 44 100 38 0.00537495
9 44 100 38 0.00287839
10 44 100 38 0.00129975
11 44 100 38 0.00287877
12 44 100 38 0.00346315
13 44 100 38 0.00537495
14 44 100 38 0.00373907
15 44 100 38 0.00346315
16 44 100 38 1.92651e-05
17 44 100 38 0.00227824
18 44 100 38 0.0053747
19 44 100 38 4.85842e-05
20 44 100 38 0.00540162
21 44 100 38 0.00527185
22 44 100 38 0.00537495
23 44 100 38 0.00269938
24 44 100 38 0.00346315
25 44 100 38 0.00537495
26 44 100 38 0.00292543
27 44 100 38 0.00373907
28 44 100 38 1.92651e-05
29 44 100 38 0.00537495
30 44 100 38 4.85842e-05
31 44 100 38 0.00536578
32 44 100 38 0.0026069
33 44 100 38 0.00215532
34 44 100 38 0.00537495
35 44 100 38 0.00541515
36 44 100 38 0.00542318
37 44 100 38 0.00541136
38 44 100 38 0.871061
1 45 100 38 4.85509e-05
2 45 100 38 0.00530549
3 45 100 38 0.00328264
4 45 100 38 0.00373982
5 45 100 38 0.00346342
6 45 100 38 0.00541134
7 45 100 38 6.92276e-05
8 45 100 38 0.00538414
9 45 100 38 0.00287733
10 45 100 38 0.00129886
11 45 100 38 0.00287771
12 45 100 38 0.00346342
13 45 100 38 0.00538414
14 45 100 38 0.00373982
15 45 100 38 0.00346342
16 45 100 38 1.92519e-05
17 45 100 38 0.00227668
18 45 100 38 0.00538389
19 45 100 38 4.85509e-05
20 45 100 38 0.870893
21 45 100 38 0.0052811
22 45 100 38 0.00538414
23 45 100 38 0.00269753
24 45 100 38 0.00346342
25 45 100 38 0.00538414
26 45 100 38 0.00292342
27 45 100 38 0.00373982
28 45 100 38 1.92519e-05
29 45 100 38 0.00538414
30 45 100 38 4.85509e-05
31 45 100 38 0.00537692
32 45 100 38 0.00260512
33 45 100 38 0.00215384
34 45 100 38 0.00538414
35 45 100 38 0.00542731
36 45 100 38 0.0054359
37 45 100 38 0.00542325
38 45 100 38 0.00543763
4 0 100 42 0.0067732
5 0 100 42 3.00573e-05
12 0 100 42 0.00321218
21 0 100 42 0.00204337
27 0 100 42 0.98685
34 0 100 42 0.00107977
42 0 100 42 1.17274e-05
1 1 100 42 1
1 2 100 42 1
42 3 100 42 1
4 4 100 42 1
5 5 100 42 0.999893
17 5 100 42 0.000107216
17 6 100 42 1
2 7 100 42 0.125
6 7 100 42 0.125
26 7 100 42 0.125
33 7 100 42 0.125
38 7 100 42 0.125
39 7 100 42 0.125
40 7 100 42 0.125
41 7 100 42 0.125
14 8 100 42 1
7 9 100 42 0.992255
14 9 100 42 0.00755124
23 9 100 42 0.00019336
10 10 100 42 0.999384
11 10 100 42 0.000615624
11 11 100 42 1
12 12 100 42 0.164853
21 12 100 42 0.835147
22 13 100 42 1
14 14 100 42 1
23 15 100 42 1
7 16 100 42 0.000155765
23 16 100 42 0.999844
18 17 100 42 0.127093
19 17 100 42 0.872907
20 18 100 42 1
12 19 100 42 0.834951
21 19 100 42 0.165049
13 20 100 42 1
14 21 100 42 1
14 22 100 42 1
7 23 100 42 0.00632632
14 23 100 42 0.993593
23 23 100 42 8.11848e-05
3 24 100 42 0.123844
5 24 100 42 2.18655e-05
7 24 100 42 0.00859127
8 24 100 42 0.123844
9 24 100 42 0.123844
14 24 100 42 0.000407513
15 24 100 42 0.123844
16 24 100 42 0.123844
17 24 100 42 0.123831
23 24 100 42 0.000239471
24 24 100 42 0.123844
25 24 100 42 0.123844
17 25 100 42 1
28 26 100 42 1
29 27 100 42 1
30 28 100 42 1
31 29 100 42 1
32 30 100 42 1
7 31 100 42 0.858708
14 31 100 42 0.04218
23 31 100 42 0.099112
34 32 100 42 1
35 33 100 42 1
36 34 100 42 1
37 35 100 42 1
36 36 100 42 1
7 37 100 42 6.39002e-05
18 37 100 42 0.999936
7 38 100 42 0.861463
14 38 100 42 0.0672205
23 38 100 42 0.071316
7 39 100 42 0.000803243
14 39 100 42 6.26775e-05
18 39 100 42 0.999068
23 39 100 42 6.64962e-05
7 40 100 42 0.000803162
14 40 100 42 6.26712e-05
18 40 100 42 0.999068
23 40 100 42 6.64895e-05
17 41 100 42 1
3 0 100 48 0.522598
8 0 100 48 0.00017545
34 0 100 48 0.000108935
38 0 100 48 0.462695
42 0 100 48 0.0144234
1 1 100 48 0.111111
7 1 100 48 0.000483041
39 1 100 48 0.111111
41 1 100 48 0.110628
43 1 100 48 0.111111
44 1 100 48 0.111111
45 1 100 48 0.111111
46 1 100 48 0.111111
47 1 100 48 0.111111
48 1 100 48 0.111111
15 2 100 48 1
6 3 100 48 0.732473
16 3 100 48 0.0101877
40 3 100 48 0.257339
2 4 100 48 0.64697
4 4 100 48 0.165415
5 4 100 48 0.187615
14 5 100 48 1
16 6 100 48 0.96692
19 6 100 48 0.0330796
16 7 100 48 2.92095e-05
17 7 100 48 0.166662
18 7 100 48 0.166662
22 7 100 48 0.166662
25 7 100 48 0.166662
26 7 100 48 0.166662
29 7 100 48 0.166662
10 8 100 48 1
11 9 100 48 1
13 10 100 48 1
23 11 100 48 1
42 12 100 48 1
27 13 100 48 1
42 14 100 48 1
28 15 100 48 1
16 16 100 48 1.18284e-05
19 16 100 48 0.999988
20 17 100 48 1
21 18 100 48 1
21 19 100 48 1
23 20 100 48 1
24 21 100 48 1
36 22 100 48 1
7 23 100 48 0.995653
41 23 100 48 0.00434736
6 24 100 48 0.994884
23 24 100 48 0.00166342
40 24 100 48 0.00345255
12 25 100 48 1
37 26 100 48 1
30 27 100 48 1
31 28 100 48 0.973226
34 28 100 48 0.0267735
32 29 100 48 1
33 30 100 48 0.997917
34 30 100 48 0.00208265
34 31 100 48 0.52121
35 31 100 48 0.47879
3 32 100 48 0.324164
34 32 100 48 0.56504
42 32 100 48 0.110796
16 33 100 48 1
38 34 100 48 1
42 35 100 48 1
8 36 100 48 7.12423e-05
35 36 100 48 0.0935954
42 36 100 48 0.906333
6 37 100 48 0.00265462
40 37 100 48 0.997345
2 38 100 48 0.333032
4 38 100 48 0.333495
5 38 100 48 0.333473
8 39 100 48 0.999922
42 39 100 48 7.77042e-05
8 40 100 48 0.993728
10 40 100 48 0.000683421
13 40 100 48 0.00380955
35 40 100 48 0.000825047
42 40 100 48 0.000954135
8 41 100 48 0.899592
13 41 100 48 0.100408
9 42 100 48 1
10 43 100 48 0.98367
42 43 100 48 0.01633
27 44 100 48 1
8 45 100 48 0.00605243
10 45 100 48 0.000709647
13 45 100 48 0.0800049
35 45 100 48 0.520682
42 45 100 48 0.392551
14 0 100 50 0.484055
16 0 100 50 9.19302e-06
19 0 100 50 0.0327599
31 0 100 50 0.483176
3 1 100 50 0.12477
7 1 100 50 0.00112573
18 1 100 50 0.124478
23 1 100 50 0.124983
24 1 100 50 0.124654
27 1 100 50 0.124983
29 1 100 50 0.12492
30 1 100 50 0.124962
32 1 100 50 0.124983
34 1 100 50 6.24863e-05
35 1 100 50 7.66551e-05
42 1 100 50 1.89937e-06
3 2 100 50 0.00204751
7 2 100 50 0.989867
18 2 100 50 0.0046706
24 2 100 50 0.0032799
30 2 100 50 0.000135353
7 3 100 50 1
7 4 100 50 1
16 5 100 50 1
8 6 100 50 0.994878
9 6 100 50 0.00512176
1 7 100 50 0.00857716
2 7 100 50 0.0156624
4 7 100 50 0.139633
5 7 100 50 0.142036
6 7 100 50 0.142315
10 7 100 50 0.142505
12 7 100 50 0.14218
13 7 100 50 0.140645
17 7 100 50 0.121551
25 7 100 50 0.000405644
26 7 100 50 0.000299061
37 7 100 50 0.00195482
43 7 100 50 0.000618715
47 7 100 50 0.00161605
50 7 100 50 2.24705e-06
16 8 100 50 1
8 9 100 50 0.00510393
9 9 100 50 0.994896
7 10 100 50 0.000213489
16 10 100 50 0.9996
35 10 100 50 0.000186939
16 11 100 50 1
3 12 100 50 0.00159814
7 12 100 50 0.5274
16 12 100 50 0.00461585
18 12 100 50 0.00457515
35 12 100 50 0.461811
7 13 100 50 0.000213489
16 13 100 50 0.9996
35 13 100 50 0.000186939
29 14 100 50 0.000499959
34 14 100 50 0.9995
19 15 100 50 0.0655159
31 15 100 50 0.934484
3 16 100 50 5.79938e-05
18 16 100 50 0.000281047
24 16 100 50 1.45062e-05
30 16 100 50 5.35426e-05
35 16 100 50 0.999593
38 17 100 50 1
7 18 100 50 0.000706028
16 18 100 50 0.998743
35 18 100 50 0.000551111
1 19 100 50 0.134271
2 19 100 50 0.127186
4 19 100 50 0.00322425
5 19 100 50 0.00082107
6 19 100 50 0.000541876
10 19 100 50 0.000352073
12 19 100 50 0.00067683
13 19 100 50 0.00221223
17 19 100 50 0.0213043
25 19 100 50 0.142439
26 19 100 50 0.142546
37 19 100 50 0.139109
43 19 100 50 0.141633
47 19 100 50 0.141004
50 19 100 50 0.00267917
14 20 100 50 0.0012271
19 20 100 50 0.996781
31 20 100 50 0.00199173
20 21 100 50 0.333334
28 21 100 50 0.333334
33 21 100 50 0.333332
48 22 100 50 1
38 23 100 50 1
49 24 100 50 1
22 25 100 50 0.5
49 25 100 50 0.5
42 26 100 50 1
42 27 100 50 1
16 28 100 50 1
42 29 100 50 1
1 30 100 50 2.37342e-05
2 30 100 50 2.07278e-05
25 30 100 50 4.52704e-05
26 30 100 50 3.93309e-05
37 30 100 50 0.0125163
43 30 100 50 0.00419323
47 30 100 50 0.00161718
50 30 100 50 0.981544
14 31 100 50 0.254853
19 31 100 50 0.2005
31 31 100 50 0.544648
7 32 100 50 0.00126949
16 32 100 50 0.993788
35 32 100 50 0.00494299
16 33 100 50 1
7 34 100 50 0.00128713
16 34 100 50 0.993701
35 34 100 50 0.00501167
7 35 100 50 0.00128713
16 35 100 50 0.993701
35 35 100 50 0.00501167
39 36 100 50 1
14 37 100 50 0.203878
31 37 100 50 0.796122
40 38 100 50 1
41 39 100 50 1
35 40 100 50 1
42 41 100 50 1
44 42 100 50 1
45 43 100 50 1
11 44 100 50 0.25
15 44 100 50 0.25
36 44 100 50 0.25
46 44 100 50 0.25
16 45 100 50 1
21 46 100 50 1
22 47 100 50 1
16 48 100 50 1
